{"learner":{"attributes":{"scikit_learn":"{\"_estimator_type\": \"regressor\"}"},"feature_names":[],"feature_types":[],"gradient_booster":{"model":{"cats":{"enc":[],"feature_segments":[],"sorted_idx":[]},"gbtree_model_param":{"num_parallel_tree":"1","num_trees":"679"},"iteration_indptr":[0,1,2,3,4,5,6,7,8,9,10,11,12,13,14,15,16,17,18,19,20,21,22,23,24,25,26,27,28,29,30,31,32,33,34,35,36,37,38,39,40,41,42,43,44,45,46,47,48,49,50,51,52,53,54,55,56,57,58,59,60,61,62,63,64,65,66,67,68,69,70,71,72,73,74,75,76,77,78,79,80,81,82,83,84,85,86,87,88,89,90,91,92,93,94,95,96,97,98,99,100,101,102,103,104,105,106,107,108,109,110,111,112,113,114,115,116,117,118,119,120,121,122,123,124,125,126,127,128,129,130,131,132,133,134,135,136,137,138,139,140,141,142,143,144,145,146,147,148,149,150,151,152,153,154,155,156,157,158,159,160,161,162,163,164,165,166,167,168,169,170,171,172,173,174,175,176,177,178,179,180,181,182,183,184,185,186,187,188,189,190,191,192,193,194,195,196,197,198,199,200,201,202,203,204,205,206,207,208,209,210,211,212,213,214,215,216,217,218,219,220,221,222,223,224,225,226,227,228,229,230,231,232,233,234,235,236,237,238,239,240,241,242,243,244,245,246,247,248,249,250,251,252,253,254,255,256,257,258,259,260,261,262,263,264,265,266,267,268,269,270,271,272,273,274,275,276,277,278,279,280,281,282,283,284,285,286,287,288,289,290,291,292,293,294,295,296,297,298,299,300,301,302,303,304,305,306,307,308,309,310,311,312,313,314,315,316,317,318,319,320,321,322,323,324,325,326,327,328,329,330,331,332,333,334,335,336,337,338,339,340,341,342,343,344,345,346,347,348,349,350,351,352,353,354,355,356,357,358,359,360,361,362,363,364,365,366,367,368,369,370,371,372,373,374,375,376,377,378,379,380,381,382,383,384,385,386,387,388,389,390,391,392,393,394,395,396,397,398,399,400,401,402,403,404,405,406,407,408,409,410,411,412,413,414,415,416,417,418,419,420,421,422,423,424,425,426,427,428,429,430,431,432,433,434,435,436,437,438,439,440,441,442,443,444,445,446,447,448,449,450,451,452,453,454,455,456,457,458,459,460,461,462,463,464,465,466,467,468,469,470,471,472,473,474,475,476,477,478,479,480,481,482,483,484,485,486,487,488,489,490,491,492,493,494,495,496,497,498,499,500,501,502,503,504,505,506,507,508,509,510,511,512,513,514,515,516,517,518,519,520,521,522,523,524,525,526,527,528,529,530,531,532,533,534,535,536,537,538,539,540,541,542,543,544,545,546,547,548,549,550,551,552,553,554,555,556,557,558,559,560,561,562,563,564,565,566,567,568,569,570,571,572,573,574,575,576,577,578,579,580,581,582,583,584,585,586,587,588,589,590,591,592,593,594,595,596,597,598,599,600,601,602,603,604,605,606,607,608,609,610,611,612,613,614,615,616,617,618,619,620,621,622,623,624,625,626,627,628,629,630,631,632,633,634,635,636,637,638,639,640,641,642,643,644,645,646,647,648,649,650,651,652,653,654,655,656,657,658,659,660,661,662,663,664,665,666,667,668,669,670,671,672,673,674,675,676,677,678,679],"tree_info":[0,0,0,0,0,0,0,0,0,0,0,0,0,0,0,0,0,0,0,0,0,0,0,0,0,0,0,0,0,0,0,0,0,0,0,0,0,0,0,0,0,0,0,0,0,0,0,0,0,0,0,0,0,0,0,0,0,0,0,0,0,0,0,0,0,0,0,0,0,0,0,0,0,0,0,0,0,0,0,0,0,0,0,0,0,0,0,0,0,0,0,0,0,0,0,0,0,0,0,0,0,0,0,0,0,0,0,0,0,0,0,0,0,0,0,0,0,0,0,0,0,0,0,0,0,0,0,0,0,0,0,0,0,0,0,0,0,0,0,0,0,0,0,0,0,0,0,0,0,0,0,0,0,0,0,0,0,0,0,0,0,0,0,0,0,0,0,0,0,0,0,0,0,0,0,0,0,0,0,0,0,0,0,0,0,0,0,0,0,0,0,0,0,0,0,0,0,0,0,0,0,0,0,0,0,0,0,0,0,0,0,0,0,0,0,0,0,0,0,0,0,0,0,0,0,0,0,0,0,0,0,0,0,0,0,0,0,0,0,0,0,0,0,0,0,0,0,0,0,0,0,0,0,0,0,0,0,0,0,0,0,0,0,0,0,0,0,0,0,0,0,0,0,0,0,0,0,0,0,0,0,0,0,0,0,0,0,0,0,0,0,0,0,0,0,0,0,0,0,0,0,0,0,0,0,0,0,0,0,0,0,0,0,0,0,0,0,0,0,0,0,0,0,0,0,0,0,0,0,0,0,0,0,0,0,0,0,0,0,0,0,0,0,0,0,0,0,0,0,0,0,0,0,0,0,0,0,0,0,0,0,0,0,0,0,0,0,0,0,0,0,0,0,0,0,0,0,0,0,0,0,0,0,0,0,0,0,0,0,0,0,0,0,0,0,0,0,0,0,0,0,0,0,0,0,0,0,0,0,0,0,0,0,0,0,0,0,0,0,0,0,0,0,0,0,0,0,0,0,0,0,0,0,0,0,0,0,0,0,0,0,0,0,0,0,0,0,0,0,0,0,0,0,0,0,0,0,0,0,0,0,0,0,0,0,0,0,0,0,0,0,0,0,0,0,0,0,0,0,0,0,0,0,0,0,0,0,0,0,0,0,0,0,0,0,0,0,0,0,0,0,0,0,0,0,0,0,0,0,0,0,0,0,0,0,0,0,0,0,0,0,0,0,0,0,0,0,0,0,0,0,0,0,0,0,0,0,0,0,0,0,0,0,0,0,0,0,0,0,0,0,0,0,0,0,0,0,0,0,0,0,0,0,0,0,0,0,0,0,0,0,0,0,0,0,0,0,0,0,0,0,0,0,0,0,0,0,0,0,0,0,0,0,0,0,0,0,0,0,0,0,0,0,0,0,0,0,0,0,0,0,0,0,0,0,0,0,0,0,0,0,0,0,0,0,0,0,0,0,0,0,0,0,0,0,0,0,0,0,0,0,0,0,0,0,0,0,0,0,0,0,0,0,0,0,0,0,0,0,0,0,0,0,0,0,0,0,0,0,0,0,0,0,0,0,0,0,0,0],"trees":[{"base_weights":[-2.4180915E-2,-4.153079E-1,1.1697527E0,-1.2404357E0,-2.5159994E-1,4.5872176E-1,1.5066364E0,-1.9067831E-2,-1.1127779E-2,-8.8295306E-4,-5.88381E-3,7.1459175E-3,-3.4704458E-4,3.3359762E-2,1.5617957E-2],"categories":[],"categories_nodes":[],"categories_segments":[],"categories_sizes":[],"default_left":[0,0,0,0,0,0,0,0,0,0,0,0,0,0,0],"id":0,"left_children":[1,3,5,7,9,11,13,-1,-1,-1,-1,-1,-1,-1,-1],"loss_changes":[9.7460535E2,2.1203369E2,1.2266937E2,2.7930664E1,6.228209E1,1.4817539E1,5.1930603E1,0E0,0E0,0E0,0E0,0E0,0E0,0E0,0E0],"parents":[2147483647,0,0,1,1,2,2,3,3,4,4,5,5,6,6],"right_children":[2,4,6,8,10,12,14,-1,-1,-1,-1,-1,-1,-1,-1],"split_conditions":[4.4548288E-1,-8.869286E-1,8.947368E-1,-1.5037145E-1,3.655914E-1,-1.0752688E-2,-1.8928572E0,-1.9067831E-2,-1.1127779E-2,-8.8295306E-4,-5.88381E-3,7.1459175E-3,-3.4704458E-4,3.3359762E-2,1.5617957E-2],"split_indices":[155,89,174,154,1,1,46,0,0,0,0,0,0,0,0],"split_type":[0,0,0,0,0,0,0,0,0,0,0,0,0,0,0],"sum_hessian":[2.085E3,1.571E3,5.14E2,2.59E2,1.312E3,1.66E2,3.48E2,8.7E1,1.72E2,8.07E2,5.05E2,1.21E2,4.5E1,2.2E1,3.26E2],"tree_param":{"num_deleted":"0","num_feature":"243","num_nodes":"15","size_leaf_vector":"1"}},{"base_weights":[3.706197E-2,-3.6035272E-1,1.2591372E0,-1.2368369E0,-2.3210478E-1,4.1585737E-1,1.498403E0,-1.5355403E-2,7.4878708E-3,-3.72386E-3,2.3516794E-3,9.37179E-3,-8.8098564E-4,1.0332598E-2,1.9586321E-2],"categories":[],"categories_nodes":[],"categories_segments":[],"categories_sizes":[],"default_left":[0,0,0,0,0,0,0,0,0,0,0,0,0,0,0],"id":1,"left_children":[1,3,5,7,9,11,13,-1,-1,-1,-1,-1,-1,-1,-1],"loss_changes":[9.9947815E2,1.7428143E2,1.01269775E2,5.289209E1,6.0819626E1,2.3713976E1,5.580475E1,0E0,0E0,0E0,0E0,0E0,0E0,0E0,0E0],"parents":[2147483647,0,0,1,1,2,2,3,3,4,4,5,5,6,6],"right_children":[2,4,6,8,10,12,14,-1,-1,-1,-1,-1,-1,-1,-1],"split_conditions":[4.5171338E-1,-9.493671E-1,2.6184833E-1,3.529412E-1,2.969697E-1,1.892583E-1,-4.8924732E-1,-1.5355403E-2,7.4878708E-3,-3.72386E-3,2.3516794E-3,9.37179E-3,-8.8098564E-4,1.0332598E-2,1.9586321E-2],"split_indices":[155,85,156,22,150,65,1,0,0,0,0,0,0,0,0],"split_type":[0,0,0,0,0,0,0,0,0,0,0,0,0,0,0],"sum_hessian":[2.056E3,1.552E3,5.04E2,1.97E2,1.355E3,1.12E2,3.92E2,1.84E2,1.3E1,1.103E3,2.52E2,6E1,5.2E1,1.22E2,2.7E2],"tree_param":{"num_deleted":"0","num_feature":"243","num_nodes":"15","size_leaf_vector":"1"}},{"base_weights":[1.3060482E-2,-3.7125152E-1,1.239136E0,-1.1147486E0,-2.1788104E-1,5.329674E-1,1.5469304E0,-1.5874458E-2,-7.2718393E-3,-6.96203E-3,-1.0853785E-3,1.2840511E-2,3.8028837E-3,1.2341333E-2,2.0564059E-2],"categories":[],"categories_nodes":[],"categories_segments":[],"categories_sizes":[],"default_left":[0,0,0,0,0,0,0,0,0,0,0,0,0,0,0],"id":2,"left_children":[1,3,5,7,9,11,13,-1,-1,-1,-1,-1,-1,-1,-1],"loss_changes":[9.852587E2,1.8129367E2,1.0763556E2,3.7704773E1,6.457657E1,1.7769619E1,4.304889E1,0E0,0E0,0E0,0E0,0E0,0E0,0E0,0E0],"parents":[2147483647,0,0,1,1,2,2,3,3,4,4,5,5,6,6],"right_children":[2,4,6,8,10,12,14,-1,-1,-1,-1,-1,-1,-1,-1],"split_conditions":[4.4859812E-1,-8.72494E-1,8.947368E-1,4.0186915E-1,-6.314566E-1,-4.8723903E-1,-4.6153846E-1,-1.5874458E-2,-7.2718393E-3,-6.96203E-3,-1.0853785E-3,1.2840511E-2,3.8028837E-3,1.2341333E-2,2.0564059E-2],"split_indices":[155,89,174,109,4,154,2,0,0,0,0,0,0,0,0],"split_type":[0,0,0,0,0,0,0,0,0,0,0,0,0,0,0],"sum_hessian":[2.089E3,1.591E3,4.98E2,2.71E2,1.32E3,1.52E2,3.46E2,1.62E2,1.09E2,3.02E2,1.018E3,3.5E1,1.17E2,1.4E2,2.06E2],"tree_param":{"num_deleted":"0","num_feature":"243","num_nodes":"15","size_leaf_vector":"1"}},{"base_weights":[5.4212287E-3,-3.7019747E-1,1.2005609E0,-1.1091064E0,-2.3419644E-1,4.293054E-1,1.5091559E0,-1.9803546E-2,-9.512374E-3,4.948013E-4,-4.6012937E-3,7.312658E-3,-3.7086357E-3,1.1877903E-2,2.0226922E-2],"categories":[],"categories_nodes":[],"categories_segments":[],"categories_sizes":[],"default_left":[0,0,0,0,0,0,0,0,0,0,0,0,0,0,0],"id":3,"left_children":[1,3,5,7,9,11,13,-1,-1,-1,-1,-1,-1,-1,-1],"loss_changes":[9.499036E2,1.6153299E2,1.197829E2,4.122943E1,6.735795E1,2.5253246E1,4.6592407E1,0E0,0E0,0E0,0E0,0E0,0E0,0E0,0E0],"parents":[2147483647,0,0,1,1,2,2,3,3,4,4,5,5,6,6],"right_children":[2,4,6,8,10,12,14,-1,-1,-1,-1,-1,-1,-1,-1],"split_conditions":[4.5171338E-1,-8.869286E-1,8.947368E-1,-1.2079037E0,-3.6141056E-1,4.3010753E-2,-4.6153846E-1,-1.9803546E-2,-9.512374E-3,4.948013E-4,-4.6012937E-3,7.312658E-3,-3.7086357E-3,1.1877903E-2,2.0226922E-2],"split_indices":[155,89,174,81,5,1,2,0,0,0,0,0,0,0,0],"split_type":[0,0,0,0,0,0,0,0,0,0,0,0,0,0,0],"sum_hessian":[2.114E3,1.609E3,5.05E2,2.49E2,1.36E3,1.45E2,3.6E2,6.8E1,1.81E2,5.3E2,8.3E2,1.12E2,3.3E1,1.47E2,2.13E2],"tree_param":{"num_deleted":"0","num_feature":"243","num_nodes":"15","size_leaf_vector":"1"}},{"base_weights":[-2.3089191E-2,-4.0798247E-1,1.1582816E0,-1.1390648E0,-2.5693002E-1,1.5964714E0,7.2401816E-1,-1.7764699E-2,-7.287468E-3,1.621731E-5,-4.7373665E-3,2.4420677E-2,1.34437345E-2,9.621756E-3,-1.5358918E-3],"categories":[],"categories_nodes":[],"categories_segments":[],"categories_sizes":[],"default_left":[0,0,0,0,0,0,0,0,0,0,0,0,0,0,0],"id":4,"left_children":[1,3,5,7,9,11,13,-1,-1,-1,-1,-1,-1,-1,-1],"loss_changes":[9.6216656E2,1.7595645E2,9.779486E1,5.8902466E1,5.7169983E1,5.7152405E1,3.1211243E1,0E0,0E0,0E0,0E0,0E0,0E0,0E0,0E0],"parents":[2147483647,0,0,1,1,2,2,3,3,4,4,5,5,6,6],"right_children":[2,4,6,8,10,12,14,-1,-1,-1,-1,-1,-1,-1,-1],"split_conditions":[4.4548288E-1,-8.72494E-1,-7.3214287E-1,5.1724136E-1,-3.482016E-1,-1.3519785E-1,0E0,-1.7764699E-2,-7.287468E-3,1.621731E-5,-4.7373665E-3,2.4420677E-2,1.34437345E-2,9.621756E-3,-1.5358918E-3],"split_indices":[155,89,46,111,5,5,2,0,0,0,0,0,0,0,0],"split_type":[0,0,0,0,0,0,0,0,0,0,0,0,0,0,0],"sum_hessian":[2.114E3,1.595E3,5.19E2,2.72E2,1.323E3,2.57E2,2.62E2,1.4E2,1.32E2,5.2E2,8.03E2,1.01E2,1.56E2,2.26E2,3.6E1],"tree_param":{"num_deleted":"0","num_feature":"243","num_nodes":"15","size_leaf_vector":"1"}},{"base_weights":[-5.4770363E-3,-3.9712456E-1,1.1702176E0,-1.1707331E0,-2.4653107E-1,1.665182E0,7.7963865E-1,-1.4721147E-2,-1.0234973E-3,-6.874871E-3,-1.3682276E-3,1.4207269E-2,2.5900828E-2,7.6671145E-3,2.5436245E-2],"categories":[],"categories_nodes":[],"categories_segments":[],"categories_sizes":[],"default_left":[0,0,0,0,0,0,0,0,0,0,0,0,0,0,0],"id":5,"left_children":[1,3,5,7,9,11,13,-1,-1,-1,-1,-1,-1,-1,-1],"loss_changes":[9.729518E2,1.8436453E2,1.0077612E2,4.0796234E1,6.069216E1,5.668219E1,3.994693E1,0E0,0E0,0E0,0E0,0E0,0E0,0E0,0E0],"parents":[2147483647,0,0,1,1,2,2,3,3,4,4,5,5,6,6],"right_children":[2,4,6,8,10,12,14,-1,-1,-1,-1,-1,-1,-1,-1],"split_conditions":[4.4548288E-1,-8.72494E-1,-7.3214287E-1,3.529412E-1,-6.314566E-1,-4.1935483E-1,1.2352941E0,-1.4721147E-2,-1.0234973E-3,-6.874871E-3,-1.3682276E-3,1.4207269E-2,2.5900828E-2,7.6671145E-3,2.5436245E-2],"split_indices":[155,89,46,22,4,1,22,0,0,0,0,0,0,0,0],"split_type":[0,0,0,0,0,0,0,0,0,0,0,0,0,0,0],"sum_hessian":[2.111E3,1.584E3,5.27E2,2.57E2,1.327E3,2.31E2,2.96E2,2.26E2,3.1E1,3.33E2,9.94E2,1.46E2,8.5E1,2.8E2,1.6E1],"tree_param":{"num_deleted":"0","num_feature":"243","num_nodes":"15","size_leaf_vector":"1"}},{"base_weights":[2.8379448E-2,-3.0962428E-1,1.3046235E0,-9.0562916E-1,-1.21662416E-1,8.6953187E-1,1.6807224E0,-1.4286095E-2,-5.340895E-3,-6.3980604E-3,-5.5728113E-5,-1.031849E-3,1.1470865E-2,2.3362305E-2,1.134556E-2],"categories":[],"categories_nodes":[],"categories_segments":[],"categories_sizes":[],"default_left":[0,0,0,0,0,0,0,0,0,0,0,0,0,0,0],"id":6,"left_children":[1,3,5,7,9,11,13,-1,-1,-1,-1,-1,-1,-1,-1],"loss_changes":[9.106056E2,1.8686156E2,7.0866394E1,6.320276E1,6.6829285E1,3.140155E1,6.2309387E1,0E0,0E0,0E0,0E0,0E0,0E0,0E0,0E0],"parents":[2147483647,0,0,1,1,2,2,3,3,4,4,5,5,6,6],"right_children":[2,4,6,8,10,12,14,-1,-1,-1,-1,-1,-1,-1,-1],"split_conditions":[8.279272E-1,-6.881473E-1,8.895349E-1,4.2723632E-1,-6.676412E-1,-2.2894566E-15,1.2063543E-2,-1.4286095E-2,-5.340895E-3,-6.3980604E-3,-5.5728113E-5,-1.031849E-3,1.1470865E-2,2.3362305E-2,1.134556E-2],"split_indices":[153,85,145,109,6,194,5,0,0,0,0,0,0,0,0],"split_type":[0,0,0,0,0,0,0,0,0,0,0,0,0,0,0],"sum_hessian":[2.109E3,1.668E3,4.41E2,3.99E2,1.269E3,2.06E2,2.35E2,2.12E2,1.87E2,2.6E2,1.009E3,2.9E1,1.77E2,1.44E2,9.1E1],"tree_param":{"num_deleted":"0","num_feature":"243","num_nodes":"15","size_leaf_vector":"1"}},{"base_weights":[2.9089743E-2,-3.159999E-1,1.1406846E0,-8.55082E-1,-1.4057437E-1,4.3066442E-1,1.4358172E0,-1.2065125E-2,-4.7487873E-3,-6.1631883E-3,-3.12384E-5,7.5382655E-3,-1.9294476E-3,3.1072948E-2,1.46669755E-2],"categories":[],"categories_nodes":[],"categories_segments":[],"categories_sizes":[],"default_left":[0,0,0,0,0,0,0,0,0,0,0,0,0,0,0],"id":7,"left_children":[1,3,5,7,9,11,13,-1,-1,-1,-1,-1,-1,-1,-1],"loss_changes":[8.193462E2,1.5402689E2,1.05414E2,3.8220703E1,6.97224E1,2.2208038E1,5.5417175E1,0E0,0E0,0E0,0E0,0E0,0E0,0E0,0E0],"parents":[2147483647,0,0,1,1,2,2,3,3,4,4,5,5,6,6],"right_children":[2,4,6,8,10,12,14,-1,-1,-1,-1,-1,-1,-1,-1],"split_conditions":[4.5171338E-1,-7.12313E-1,8.947368E-1,5.9012014E-1,-6.5947604E-1,-1.0752688E-2,-1.8928572E0,-1.2065125E-2,-4.7487873E-3,-6.1631883E-3,-3.12384E-5,7.5382655E-3,-1.9294476E-3,3.1072948E-2,1.46669755E-2],"split_indices":[155,85,174,109,4,1,46,0,0,0,0,0,0,0,0],"split_type":[0,0,0,0,0,0,0,0,0,0,0,0,0,0,0],"sum_hessian":[2.134E3,1.629E3,5.05E2,3.99E2,1.23E3,1.49E2,3.56E2,2.61E2,1.38E2,3.08E2,9.22E2,1.06E2,4.3E1,2.8E1,3.28E2],"tree_param":{"num_deleted":"0","num_feature":"243","num_nodes":"15","size_leaf_vector":"1"}},{"base_weights":[1.104838E-2,-3.1196073E-1,1.2537735E0,-1.1077487E0,-1.7264538E-1,1.1738544E0,3.4716353E-2,-1.3965199E-2,9.1712235E-4,-3.5537179E-3,1.9742132E-3,5.249719E-3,1.4690083E-2],"categories":[],"categories_nodes":[],"categories_segments":[],"categories_sizes":[],"default_left":[0,0,0,0,0,0,0,0,0,0,0,0,0],"id":8,"left_children":[1,3,5,7,9,11,-1,-1,-1,-1,-1,-1,-1],"loss_changes":[8.289044E2,1.8151729E2,5.9462708E1,4.1410706E1,7.099275E1,4.0095703E1,0E0,0E0,0E0,0E0,0E0,0E0,0E0],"parents":[2147483647,0,0,1,1,2,2,3,3,4,4,5,5],"right_children":[2,4,6,8,10,12,-1,-1,-1,-1,-1,-1,-1],"split_conditions":[8.3678466E-1,-8.72494E-1,1.5082939E0,3.529412E-1,1.5576324E-1,-5.591398E-1,3.4716353E-2,-1.3965199E-2,9.1712235E-4,-3.5537179E-3,1.9742132E-3,5.249719E-3,1.4690083E-2],"split_indices":[157,89,156,22,155,1,0,0,0,0,0,0,0],"split_type":[0,0,0,0,0,0,0,0,0,0,0,0,0],"sum_hessian":[2.063E3,1.638E3,4.25E2,2.43E2,1.395E3,4.09E2,1.6E1,2.17E2,2.6E1,9.85E2,4.1E2,6.9E1,3.4E2],"tree_param":{"num_deleted":"0","num_feature":"243","num_nodes":"13","size_leaf_vector":"1"}},{"base_weights":[5.8861165E-3,-3.5271758E-1,1.1360844E0,-1.0091234E0,-2.1534075E-1,6.6108805E-1,1.5432892E0,-2.6617073E-2,-1.0086356E-2,-7.417184E-3,-1.1839605E-3,9.057053E-3,-6.6267594E-4,2.4621787E-2,1.4769137E-2],"categories":[],"categories_nodes":[],"categories_segments":[],"categories_sizes":[],"default_left":[0,0,0,0,0,0,0,0,0,0,0,0,0,0,0],"id":9,"left_children":[1,3,5,7,9,11,13,-1,-1,-1,-1,-1,-1,-1,-1],"loss_changes":[8.430055E2,1.4216898E2,9.5883606E1,3.7700012E1,6.4048355E1,2.516143E1,3.641223E1,0E0,0E0,0E0,0E0,0E0,0E0,0E0,0E0],"parents":[2147483647,0,0,1,1,2,2,3,3,4,4,5,5,6,6],"right_children":[2,4,6,8,10,12,14,-1,-1,-1,-1,-1,-1,-1,-1],"split_conditions":[4.4859812E-1,-8.72494E-1,1.0192524E0,-1.7647059E0,-6.676412E-1,4.3010753E-2,-3.774021E-1,-2.6617073E-2,-1.0086356E-2,-7.417184E-3,-1.1839605E-3,9.057053E-3,-6.6267594E-4,2.4621787E-2,1.4769137E-2],"split_indices":[155,89,153,22,6,1,45,0,0,0,0,0,0,0,0],"split_type":[0,0,0,0,0,0,0,0,0,0,0,0,0,0,0],"sum_hessian":[2.078E3,1.578E3,5E2,2.72E2,1.306E3,2.32E2,2.68E2,1.8E1,2.54E2,2.55E2,1.051E3,1.92E2,4E1,6.5E1,2.03E2],"tree_param":{"num_deleted":"0","num_feature":"243","num_nodes":"15","size_leaf_vector":"1"}},{"base_weights":[-4.298216E-3,-3.9295977E-1,9.802742E-1,-1.0258609E0,-2.6050764E-1,3.62245E-1,1.341761E0,-1.3645809E-2,-4.059171E-3,-7.029366E-3,-1.8109382E-3,5.6770006E-3,-6.7722215E-3,6.314438E-3,1.664874E-2],"categories":[],"categories_nodes":[],"categories_segments":[],"categories_sizes":[],"default_left":[0,0,0,0,0,0,0,0,0,0,0,0,0,0,0],"id":10,"left_children":[1,3,5,7,9,11,13,-1,-1,-1,-1,-1,-1,-1,-1],"loss_changes":[7.936507E2,1.2438664E2,1.3065527E2,3.2857788E1,4.4562492E1,3.1111496E1,4.1818726E1,0E0,0E0,0E0,0E0,0E0,0E0,0E0,0E0],"parents":[2147483647,0,0,1,1,2,2,3,3,4,4,5,5,6,6],"right_children":[2,4,6,8,10,12,14,-1,-1,-1,-1,-1,-1,-1,-1],"split_conditions":[3.939394E-1,-8.72494E-1,8.520488E-1,-1.539375E-1,-6.676412E-1,6.143791E-1,-1.2550066E-1,-1.3645809E-2,-4.059171E-3,-7.029366E-3,-1.8109382E-3,5.6770006E-3,-6.7722215E-3,6.314438E-3,1.664874E-2],"split_indices":[150,89,153,157,6,124,109,0,0,0,0,0,0,0,0],"split_type":[0,0,0,0,0,0,0,0,0,0,0,0,0,0,0],"sum_hessian":[2.072E3,1.486E3,5.86E2,2.56E2,1.23E3,2.17E2,3.69E2,1.97E2,5.9E1,2.58E2,9.72E2,1.89E2,2.8E1,6E1,3.09E2],"tree_param":{"num_deleted":"0","num_feature":"243","num_nodes":"15","size_leaf_vector":"1"}},{"base_weights":[-1.0851612E-2,-3.597636E-1,1.0862359E0,-1.0750499E0,-2.1579999E-1,1.6569027E0,7.5102884E-1,-9.815854E-3,-2.1469614E-2,-5.8286525E-3,-1.2062368E-3,1.1236446E-2,2.1645578E-2,1.2053854E-2,3.8163294E-3],"categories":[],"categories_nodes":[],"categories_segments":[],"categories_sizes":[],"default_left":[0,0,0,0,0,0,0,0,0,0,0,0,0,0,0],"id":11,"left_children":[1,3,5,7,9,11,13,-1,-1,-1,-1,-1,-1,-1,-1],"loss_changes":[8.1381305E2,1.6586697E2,9.688812E1,4.321695E1,4.4279156E1,3.258313E1,4.3265503E1,0E0,0E0,0E0,0E0,0E0,0E0,0E0,0E0],"parents":[2147483647,0,0,1,1,2,2,3,3,4,4,5,5,6,6],"right_children":[2,4,6,8,10,12,14,-1,-1,-1,-1,-1,-1,-1,-1],"split_conditions":[4.4548288E-1,-8.72494E-1,-7.462156E-1,4.117647E-1,-6.314566E-1,-4.8924732E-1,-4.1167662E-1,-9.815854E-3,-2.1469614E-2,-5.8286525E-3,-1.2062368E-3,1.1236446E-2,2.1645578E-2,1.2053854E-2,3.8163294E-3],"split_indices":[155,89,90,124,4,1,175,0,0,0,0,0,0,0,0],"split_type":[0,0,0,0,0,0,0,0,0,0,0,0,0,0,0],"sum_hessian":[2.124E3,1.612E3,5.12E2,2.69E2,1.343E3,1.88E2,3.24E2,2.2E2,4.9E1,3.49E2,9.94E2,5.8E1,1.3E2,1.79E2,1.45E2],"tree_param":{"num_deleted":"0","num_feature":"243","num_nodes":"15","size_leaf_vector":"1"}},{"base_weights":[-2.3451261E-3,-2.7068394E-1,1.3991616E0,-9.6732444E-1,-1.4063732E-1,2.1921914E0,1.2322781E0,-9.761783E-3,-2.547556E-2,-6.2646773E-3,-5.3501517E-5,2.6817666E-2,6.596159E-3,1.6640296E-2,8.633561E-3],"categories":[],"categories_nodes":[],"categories_segments":[],"categories_sizes":[],"default_left":[0,0,0,0,0,0,0,0,0,0,0,0,0,0,0],"id":12,"left_children":[1,3,5,7,9,11,13,-1,-1,-1,-1,-1,-1,-1,-1],"loss_changes":[7.9804156E2,1.6121498E2,4.2427734E1,3.239734E1,8.571988E1,1.7931793E1,3.2412354E1,0E0,0E0,0E0,0E0,0E0,0E0,0E0,0E0],"parents":[2147483647,0,0,1,1,2,2,3,3,4,4,5,5,6,6],"right_children":[2,4,6,8,10,12,14,-1,-1,-1,-1,-1,-1,-1,-1],"split_conditions":[6.635514E-1,-8.72494E-1,-4.573459E-1,4.539007E-1,-6.205367E-1,1.2976191E0,-5.4464287E-1,-9.761783E-3,-2.547556E-2,-6.2646773E-3,-5.3501517E-5,2.6817666E-2,6.596159E-3,1.6640296E-2,8.633561E-3],"split_indices":[155,89,45,132,6,93,46,0,0,0,0,0,0,0,0],"split_type":[0,0,0,0,0,0,0,0,0,0,0,0,0,0,0],"sum_hessian":[2.12E3,1.78E3,3.4E2,2.79E2,1.501E3,5.7E1,2.83E2,2.62E2,1.7E1,3.66E2,1.135E3,5E1,7E0,1.8E2,1.03E2],"tree_param":{"num_deleted":"0","num_feature":"243","num_nodes":"15","size_leaf_vector":"1"}},{"base_weights":[8.029681E-3,-3.2041666E-1,1.1032839E0,7.959616E-2,-5.427222E-1,4.9517196E-1,1.5217531E0,-1.0319419E-3,5.3889616E-3,-2.104281E-2,-5.5073583E-3,3.0382336E-4,8.40716E-3,1.262943E-2,2.046799E-2],"categories":[],"categories_nodes":[],"categories_segments":[],"categories_sizes":[],"default_left":[0,0,0,0,0,0,0,0,0,0,0,0,0,0,0],"id":13,"left_children":[1,3,5,7,9,11,13,-1,-1,-1,-1,-1,-1,-1,-1],"loss_changes":[7.593885E2,1.4445752E2,1.2317633E2,4.028646E1,6.872058E1,2.4067005E1,3.29021E1,0E0,0E0,0E0,0E0,0E0,0E0,0E0,0E0],"parents":[2147483647,0,0,1,1,2,2,3,3,4,4,5,5,6,6],"right_children":[2,4,6,8,10,12,14,-1,-1,-1,-1,-1,-1,-1,-1],"split_conditions":[5.1512563E-1,-3.2920954E-1,-5E-1,1.8478604E-1,-1.9375E0,4.2679128E-1,8.895349E-1,-1.0319419E-3,5.3889616E-3,-2.104281E-2,-5.5073583E-3,3.0382336E-4,8.40716E-3,1.262943E-2,2.046799E-2],"split_indices":[4,7,2,4,26,155,145,0,0,0,0,0,0,0,0],"split_type":[0,0,0,0,0,0,0,0,0,0,0,0,0,0,0],"sum_hessian":[2.109E3,1.623E3,4.86E2,5.8E2,1.043E3,1.99E2,2.87E2,4.07E2,1.73E2,3.6E1,1.007E3,7.1E1,1.28E2,1.29E2,1.58E2],"tree_param":{"num_deleted":"0","num_feature":"243","num_nodes":"15","size_leaf_vector":"1"}},{"base_weights":[5.7792757E-4,-3.409689E-1,1.0648072E0,-1.0175657E0,-2.032366E-1,1.6590987E0,7.4297374E-1,-1.9172112E-2,-9.216238E-3,-5.7706926E-3,-1.1249813E-3,2.5688015E-2,1.5619146E-2,1.4253258E-2,4.9077123E-3],"categories":[],"categories_nodes":[],"categories_segments":[],"categories_sizes":[],"default_left":[0,0,0,0,0,0,0,0,0,0,0,0,0,0,0],"id":14,"left_children":[1,3,5,7,9,11,13,-1,-1,-1,-1,-1,-1,-1,-1],"loss_changes":[7.6149884E2,1.4759131E2,9.612012E1,3.4643585E1,4.2321613E1,2.653238E1,5.316205E1,0E0,0E0,0E0,0E0,0E0,0E0,0E0,0E0],"parents":[2147483647,0,0,1,1,2,2,3,3,4,4,5,5,6,6],"right_children":[2,4,6,8,10,12,14,-1,-1,-1,-1,-1,-1,-1,-1],"split_conditions":[4.5171338E-1,-8.72494E-1,-7.637872E-1,-1.273878E0,-6.314566E-1,-4.0543687E-1,-6.287879E-1,-1.9172112E-2,-9.216238E-3,-5.7706926E-3,-1.1249813E-3,2.5688015E-2,1.5619146E-2,1.4253258E-2,4.9077123E-3],"split_indices":[155,89,90,85,4,41,38,0,0,0,0,0,0,0,0],"split_type":[0,0,0,0,0,0,0,0,0,0,0,0,0,0,0],"sum_hessian":[2.093E3,1.585E3,5.08E2,2.67E2,1.318E3,1.77E2,3.31E2,5.6E1,2.11E2,3.24E2,9.94E2,4.9E1,1.28E2,1.19E2,2.12E2],"tree_param":{"num_deleted":"0","num_feature":"243","num_nodes":"15","size_leaf_vector":"1"}},{"base_weights":[-2.886375E-2,-3.8653728E-1,9.4375277E-1,-1.2549313E0,-2.8558877E-1,5.659535E-1,1.532118E0,-2.0917071E-2,-9.810408E-3,-2.8338902E-5,-5.402501E-3,5.4644747E-4,9.0591675E-3,9.77909E-3,2.0819377E-2],"categories":[],"categories_nodes":[],"categories_segments":[],"categories_sizes":[],"default_left":[0,0,0,0,0,0,0,0,0,0,0,0,0,0,0],"id":15,"left_children":[1,3,5,7,9,11,13,-1,-1,-1,-1,-1,-1,-1,-1],"loss_changes":[7.2325775E2,1.328895E2,1.2338962E2,3.5110092E1,7.638416E1,4.327217E1,4.5823578E1,0E0,0E0,0E0,0E0,0E0,0E0,0E0,0E0],"parents":[2147483647,0,0,1,1,2,2,3,3,4,4,5,5,6,6],"right_children":[2,4,6,8,10,12,14,-1,-1,-1,-1,-1,-1,-1,-1],"split_conditions":[6.052632E-1,-1.0356731E0,8.895349E-1,6.499587E-1,-3.2675022E-1,3.8484848E-1,-4.8924732E-1,-2.0917071E-2,-9.810408E-3,-2.8338902E-5,-5.402501E-3,5.4644747E-4,9.0591675E-3,9.77909E-3,2.0819377E-2],"split_indices":[174,85,145,45,5,150,1,0,0,0,0,0,0,0,0],"split_type":[0,0,0,0,0,0,0,0,0,0,0,0,0,0,0],"sum_hessian":[2.077E3,1.519E3,5.58E2,1.57E2,1.362E3,3.41E2,2.17E2,5.8E1,9.9E1,5.61E2,8.01E2,1.1E2,2.31E2,7.4E1,1.43E2],"tree_param":{"num_deleted":"0","num_feature":"243","num_nodes":"15","size_leaf_vector":"1"}},{"base_weights":[-2.4392918E-2,-3.1086826E-1,1.1629097E0,-7.833345E-1,-1.0181112E-1,-9.2376895E-2,1.266337E0,-2.668849E-2,-7.755253E-3,2.4884075E-3,-3.3658945E-3,-5.9793787E-3,5.402581E-3,2.2138827E-2,1.2276313E-2],"categories":[],"categories_nodes":[],"categories_segments":[],"categories_sizes":[],"default_left":[0,0,0,0,0,0,0,0,0,0,0,0,0,0,0],"id":16,"left_children":[1,3,5,7,9,11,13,-1,-1,-1,-1,-1,-1,-1,-1],"loss_changes":[6.911715E2,1.6161076E2,5.1400146E1,7.020206E1,7.361017E1,8.165709E0,4.15495E1,0E0,0E0,0E0,0E0,0E0,0E0,0E0,0E0],"parents":[2147483647,0,0,1,1,2,2,3,3,4,4,5,5,6,6],"right_children":[2,4,6,8,10,12,14,-1,-1,-1,-1,-1,-1,-1,-1],"split_conditions":[8.3678466E-1,-5.9663194E-1,3.8181818E-1,-1.7647059E0,4.3010753E-2,0E0,-4.9597806E-1,-2.668849E-2,-7.755253E-3,2.4884075E-3,-3.3658945E-3,-5.9793787E-3,5.402581E-3,2.2138827E-2,1.2276313E-2],"split_indices":[157,89,150,22,1,189,45,0,0,0,0,0,0,0,0],"split_type":[0,0,0,0,0,0,0,0,0,0,0,0,0,0,0],"sum_hessian":[2.03E3,1.636E3,3.94E2,5.01E2,1.135E3,3E1,3.64E2,2.5E1,4.76E2,4.32E2,7.03E2,1.7E1,1.3E1,6.7E1,2.97E2],"tree_param":{"num_deleted":"0","num_feature":"243","num_nodes":"15","size_leaf_vector":"1"}},{"base_weights":[-2.266056E-2,-3.9098787E-1,8.8550556E-1,-8.644627E-1,-2.2584742E-1,3.492215E-1,1.2866914E0,-1.0369086E-2,7.130877E-3,-6.7230365E-3,-1.2177319E-3,-1.4633485E-3,6.5767285E-3,8.910517E-3,1.7201666E-2],"categories":[],"categories_nodes":[],"categories_segments":[],"categories_sizes":[],"default_left":[0,0,0,0,0,0,0,0,0,0,0,0,0,0,0],"id":17,"left_children":[1,3,5,7,9,11,13,-1,-1,-1,-1,-1,-1,-1,-1],"loss_changes":[6.897556E2,1.1450926E2,1.2756467E2,3.6860962E1,4.7771053E1,2.9515259E1,4.085138E1,0E0,0E0,0E0,0E0,0E0,0E0,0E0,0E0],"parents":[2147483647,0,0,1,1,2,2,3,3,4,4,5,5,6,6],"right_children":[2,4,6,8,10,12,14,-1,-1,-1,-1,-1,-1,-1,-1],"split_conditions":[3.939394E-1,-7.12313E-1,9.0710914E-1,4.5E-1,-6.646738E-1,-8.3854385E-2,-4.6153846E-1,-1.0369086E-2,7.130877E-3,-6.7230365E-3,-1.2177319E-3,-1.4633485E-3,6.5767285E-3,8.910517E-3,1.7201666E-2],"split_indices":[150,85,153,14,4,4,2,0,0,0,0,0,0,0,0],"split_type":[0,0,0,0,0,0,0,0,0,0,0,0,0,0,0],"sum_hessian":[2.06E3,1.466E3,5.94E2,3.78E2,1.088E3,2.55E2,3.39E2,3.63E2,1.5E1,2.57E2,8.31E2,8.5E1,1.7E2,1.17E2,2.22E2],"tree_param":{"num_deleted":"0","num_feature":"243","num_nodes":"15","size_leaf_vector":"1"}},{"base_weights":[-1.0313038E-2,-3.5898063E-1,8.67283E-1,-9.724479E-1,-2.3341115E-1,1.2085013E0,2.0090275E-1,-9.20992E-3,-2.0227019E-2,-2.0049017E-2,-2.3910573E-3,8.627853E-3,1.7427774E-2,-3.3222863E-3,5.5843643E-3],"categories":[],"categories_nodes":[],"categories_segments":[],"categories_sizes":[],"default_left":[0,0,0,0,0,0,0,0,0,0,0,0,0,0,0],"id":18,"left_children":[1,3,5,7,9,11,13,-1,-1,-1,-1,-1,-1,-1,-1],"loss_changes":[6.349331E2,1.1416669E2,1.3391208E2,2.9777863E1,3.696363E1,5.8588745E1,3.0090609E1,0E0,0E0,0E0,0E0,0E0,0E0,0E0,0E0],"parents":[2147483647,0,0,1,1,2,2,3,3,4,4,5,5,6,6],"right_children":[2,4,6,8,10,12,14,-1,-1,-1,-1,-1,-1,-1,-1],"split_conditions":[3.520249E-1,-8.72494E-1,-2.4731183E-1,3.1578946E-1,-2.9444444E0,-4.6153846E-1,1.677514E-2,-9.20992E-3,-2.0227019E-2,-2.0049017E-2,-2.3910573E-3,8.627853E-3,1.7427774E-2,-3.3222863E-3,5.5843643E-3],"split_indices":[155,89,1,128,18,2,4,0,0,0,0,0,0,0,0],"split_type":[0,0,0,0,0,0,0,0,0,0,0,0,0,0,0],"sum_hessian":[2.073E3,1.484E3,5.89E2,2.51E2,1.233E3,3.89E2,2E2,2.15E2,3.6E1,1.4E1,1.219E3,1.75E2,2.14E2,7.5E1,1.25E2],"tree_param":{"num_deleted":"0","num_feature":"243","num_nodes":"15","size_leaf_vector":"1"}},{"base_weights":[2.7427863E-2,-2.8246266E-1,9.9832255E-1,-9.137611E-1,-1.638815E-1,5.727707E-1,1.3462483E0,-1.4145402E-2,-6.554142E-3,-3.3408692E-3,8.437775E-4,8.851646E-3,1.8383876E-3,8.621503E-3,1.836135E-2],"categories":[],"categories_nodes":[],"categories_segments":[],"categories_sizes":[],"default_left":[0,0,0,0,0,0,0,0,0,0,0,0,0,0,0],"id":19,"left_children":[1,3,5,7,9,11,13,-1,-1,-1,-1,-1,-1,-1,-1],"loss_changes":[6.2549207E2,1.1782974E2,7.370334E1,2.7959259E1,4.299512E1,2.030339E1,4.587268E1,0E0,0E0,0E0,0E0,0E0,0E0,0E0,0E0],"parents":[2147483647,0,0,1,1,2,2,3,3,4,4,5,5,6,6],"right_children":[2,4,6,8,10,12,14,-1,-1,-1,-1,-1,-1,-1,-1],"split_conditions":[4.4859812E-1,-8.72494E-1,7.909091E-1,3.418552E-1,6.1702126E-1,-2.000976E-1,-4.6153846E-1,-1.4145402E-2,-6.554142E-3,-3.3408692E-3,8.437775E-4,8.851646E-3,1.8383876E-3,8.621503E-3,1.836135E-2],"split_indices":[155,89,150,175,83,44,2,0,0,0,0,0,0,0,0],"split_type":[0,0,0,0,0,0,0,0,0,0,0,0,0,0,0],"sum_hessian":[2.077E3,1.575E3,5.02E2,2.48E2,1.327E3,2.27E2,2.75E2,1.18E2,1.3E2,8.48E2,4.79E2,1.47E2,8E1,9.5E1,1.8E2],"tree_param":{"num_deleted":"0","num_feature":"243","num_nodes":"15","size_leaf_vector":"1"}},{"base_weights":[-1.9900037E-2,-3.4550366E-1,1.005952E0,-9.699744E-1,-2.1196912E-1,4.0560088E-1,1.2537009E0,-9.302945E-3,-2.0971583E-2,-6.572163E-3,-1.0718489E-3,1.2184903E-2,2.9643506E-3,2.1937478E-2,1.1995276E-2],"categories":[],"categories_nodes":[],"categories_segments":[],"categories_sizes":[],"default_left":[0,0,0,0,0,0,0,0,0,0,0,0,0,0,0],"id":20,"left_children":[1,3,5,7,9,11,13,-1,-1,-1,-1,-1,-1,-1,-1],"loss_changes":[7.0012177E2,1.3246533E2,7.460333E1,3.3303894E1,5.7228256E1,1.4027855E1,4.351129E1,0E0,0E0,0E0,0E0,0E0,0E0,0E0,0E0],"parents":[2147483647,0,0,1,1,2,2,3,3,4,4,5,5,6,6],"right_children":[2,4,6,8,10,12,14,-1,-1,-1,-1,-1,-1,-1,-1],"split_conditions":[4.4859812E-1,-8.72494E-1,8.947368E-1,3.1578946E-1,-6.434837E-1,-8.6123854E-1,-4.0543687E-1,-9.302945E-3,-2.0971583E-2,-6.572163E-3,-1.0718489E-3,1.2184903E-2,2.9643506E-3,2.1937478E-2,1.1995276E-2],"split_indices":[155,89,174,128,4,146,41,0,0,0,0,0,0,0,0],"split_type":[0,0,0,0,0,0,0,0,0,0,0,0,0,0,0],"sum_hessian":[2.094E3,1.59E3,5.04E2,2.79E2,1.311E3,1.48E2,3.56E2,2.44E2,3.5E1,3.08E2,1.003E3,2.4E1,1.24E2,7E1,2.86E2],"tree_param":{"num_deleted":"0","num_feature":"243","num_nodes":"15","size_leaf_vector":"1"}},{"base_weights":[-1.60913E-2,-3.1574994E-1,9.530369E-1,-9.759524E-1,-1.8969534E-1,1.325898E0,5.303197E-1,-1.242802E-2,7.124393E-4,-6.423809E-3,-1.0411633E-3,2.0103728E-2,1.1638182E-2,4.867637E-3,2.0154502E-2],"categories":[],"categories_nodes":[],"categories_segments":[],"categories_sizes":[],"default_left":[0,0,0,0,0,0,0,0,0,0,0,0,0,0,0],"id":21,"left_children":[1,3,5,7,9,11,13,-1,-1,-1,-1,-1,-1,-1,-1],"loss_changes":[6.148034E2,1.3438412E2,7.810425E1,3.682521E1,5.0476574E1,3.3788208E1,2.7654991E1,0E0,0E0,0E0,0E0,0E0,0E0,0E0,0E0],"parents":[2147483647,0,0,1,1,2,2,3,3,4,4,5,5,6,6],"right_children":[2,4,6,8,10,12,14,-1,-1,-1,-1,-1,-1,-1,-1],"split_conditions":[4.4859812E-1,-8.72494E-1,-5.4464287E-1,3.529412E-1,-5.1854074E-1,-1.441079E-1,1.2352941E0,-1.242802E-2,7.124393E-4,-6.423809E-3,-1.0411633E-3,2.0103728E-2,1.1638182E-2,4.867637E-3,2.0154502E-2],"split_indices":[155,89,46,22,153,5,22,0,0,0,0,0,0,0,0],"split_type":[0,0,0,0,0,0,0,0,0,0,0,0,0,0,0],"sum_hessian":[2.115E3,1.616E3,4.99E2,2.58E2,1.358E3,2.64E2,2.35E2,2.28E2,3E1,2.71E2,1.087E3,9.7E1,1.67E2,2.2E2,1.5E1],"tree_param":{"num_deleted":"0","num_feature":"243","num_nodes":"15","size_leaf_vector":"1"}},{"base_weights":[-3.0121962E-2,-3.419604E-1,9.444329E-1,-1.1532471E0,-2.4684751E-1,1.554806E0,7.169121E-1,-1.4625471E-2,5.506605E-3,-1.3802137E-4,-4.372036E-3,1.2912052E-2,2.190266E-2,3.8608585E-3,1.0647054E-2],"categories":[],"categories_nodes":[],"categories_segments":[],"categories_sizes":[],"default_left":[0,0,0,0,0,0,0,0,0,0,0,0,0,0,0],"id":22,"left_children":[1,3,5,7,9,11,13,-1,-1,-1,-1,-1,-1,-1,-1],"loss_changes":[6.318348E2,1.2124835E2,6.8877075E1,4.2986404E1,4.7804512E1,1.9752014E1,3.2022385E1,0E0,0E0,0E0,0E0,0E0,0E0,0E0,0E0],"parents":[2147483647,0,0,1,1,2,2,3,3,4,4,5,5,6,6],"right_children":[2,4,6,8,10,12,14,-1,-1,-1,-1,-1,-1,-1,-1],"split_conditions":[4.4548288E-1,-1.0429553E0,-8.1461906E-1,4.375E-1,-3.2675022E-1,-4.247312E-1,-3.3333335E-2,-1.4625471E-2,5.506605E-3,-1.3802137E-4,-4.372036E-3,1.2912052E-2,2.190266E-2,3.8608585E-3,1.0647054E-2],"split_indices":[155,81,90,26,5,1,108,0,0,0,0,0,0,0,0],"split_type":[0,0,0,0,0,0,0,0,0,0,0,0,0,0,0],"sum_hessian":[2.077E3,1.574E3,5.03E2,1.64E2,1.41E3,1.35E2,3.68E2,1.5E2,1.4E1,5.38E2,8.72E2,7E1,6.5E1,1.44E2,2.24E2],"tree_param":{"num_deleted":"0","num_feature":"243","num_nodes":"15","size_leaf_vector":"1"}},{"base_weights":[-2.1958111E-3,-3.1159598E-1,8.5774237E-1,-9.742209E-1,-2.0453715E-1,-4.727956E-2,1.0373038E0,-1.1893974E-2,4.6122936E-3,-1.7948346E-3,-1.0687412E-2,-3.647326E-3,1.19761E-2,1.606101E-2,9.015636E-3],"categories":[],"categories_nodes":[],"categories_segments":[],"categories_sizes":[],"default_left":[0,0,0,0,0,0,0,0,0,0,0,0,0,0,0],"id":23,"left_children":[1,3,5,7,9,11,13,-1,-1,-1,-1,-1,-1,-1,-1],"loss_changes":[5.651233E2,1.10608765E2,9.137799E1,2.7654068E1,4.4267647E1,2.9724352E1,4.2081085E1,0E0,0E0,0E0,0E0,0E0,0E0,0E0,0E0],"parents":[2147483647,0,0,1,1,2,2,3,3,4,4,5,5,6,6],"right_children":[2,4,6,8,10,12,14,-1,-1,-1,-1,-1,-1,-1,-1],"split_conditions":[5.8199114E-1,-9.2381716E-1,3.8484848E-1,3.3333334E-1,1.2178085E0,5.8938956E-1,-5.332611E-2,-1.1893974E-2,4.6122936E-3,-1.7948346E-3,-1.0687412E-2,-3.647326E-3,1.19761E-2,1.606101E-2,9.015636E-3],"split_indices":[153,89,150,18,25,90,41,0,0,0,0,0,0,0,0],"split_type":[0,0,0,0,0,0,0,0,0,0,0,0,0,0,0],"sum_hessian":[2.122E3,1.561E3,5.61E2,2.16E2,1.345E3,9.3E1,4.68E2,2.03E2,1.3E1,1.272E3,7.3E1,7.5E1,1.8E1,1.69E2,2.99E2],"tree_param":{"num_deleted":"0","num_feature":"243","num_nodes":"15","size_leaf_vector":"1"}},{"base_weights":[9.19669E-3,-2.952325E-1,9.410071E-1,-8.9158905E-1,-1.886298E-1,1.3611923E0,5.7278395E-1,-2.1686142E-2,-8.592773E-3,-5.491969E-3,-9.357218E-4,1.0881438E-2,2.2407465E-2,1.3488617E-2,4.788009E-3],"categories":[],"categories_nodes":[],"categories_segments":[],"categories_sizes":[],"default_left":[0,0,0,0,0,0,0,0,0,0,0,0,0,0,0],"id":24,"left_children":[1,3,5,7,9,11,13,-1,-1,-1,-1,-1,-1,-1,-1],"loss_changes":[5.8634064E2,9.8878876E1,7.7973785E1,2.8835861E1,4.199346E1,5.71893E1,2.4465332E1,0E0,0E0,0E0,0E0,0E0,0E0,0E0,0E0],"parents":[2147483647,0,0,1,1,2,2,3,3,4,4,5,5,6,6],"right_children":[2,4,6,8,10,12,14,-1,-1,-1,-1,-1,-1,-1,-1],"split_conditions":[4.4548288E-1,-8.869286E-1,-6.060606E-1,-1.2774695E0,-6.314566E-1,-4.3010753E-1,-7.856463E-1,-2.1686142E-2,-8.592773E-3,-5.491969E-3,-9.357218E-4,1.0881438E-2,2.2407465E-2,1.3488617E-2,4.788009E-3],"split_indices":[155,89,38,24,4,1,90,0,0,0,0,0,0,0,0],"split_type":[0,0,0,0,0,0,0,0,0,0,0,0,0,0,0],"sum_hessian":[2.065E3,1.557E3,5.08E2,2.35E2,1.322E3,2.36E2,2.72E2,2.3E1,2.12E2,3.39E2,9.83E2,1.49E2,8.7E1,4.9E1,2.23E2],"tree_param":{"num_deleted":"0","num_feature":"243","num_nodes":"15","size_leaf_vector":"1"}},{"base_weights":[-6.449987E-3,-2.9629388E-1,8.719953E-1,-7.046154E-1,-1.5993667E-1,3.5006917E-1,1.1150647E0,-1.070237E-2,-3.1773676E-3,-5.976799E-3,-5.4979423E-4,6.749151E-3,7.39991E-4,1.6837604E-2,9.692937E-3],"categories":[],"categories_nodes":[],"categories_segments":[],"categories_sizes":[],"default_left":[0,0,0,0,0,0,0,0,0,0,0,0,0,0,0],"id":25,"left_children":[1,3,5,7,9,11,13,-1,-1,-1,-1,-1,-1,-1,-1],"loss_changes":[5.346889E2,8.7802216E1,6.570593E1,4.17807E1,4.9183327E1,1.2002005E1,3.3133667E1,0E0,0E0,0E0,0E0,0E0,0E0,0E0,0E0],"parents":[2147483647,0,0,1,1,2,2,3,3,4,4,5,5,6,6],"right_children":[2,4,6,8,10,12,14,-1,-1,-1,-1,-1,-1,-1,-1],"split_conditions":[4.4548288E-1,-7.12313E-1,8.947368E-1,-2.0426038E-1,-6.676412E-1,-2.9554937E-2,3.7037037E-2,-1.070237E-2,-3.1773676E-3,-5.976799E-3,-5.4979423E-4,6.749151E-3,7.39991E-4,1.6837604E-2,9.692937E-3],"split_indices":[155,85,174,157,6,40,99,0,0,0,0,0,0,0,0],"split_type":[0,0,0,0,0,0,0,0,0,0,0,0,0,0,0],"sum_hessian":[2.098E3,1.578E3,5.2E2,3.94E2,1.184E3,1.66E2,3.54E2,2.45E2,1.49E2,2.69E2,9.15E2,8.7E1,7.9E1,1.35E2,2.19E2],"tree_param":{"num_deleted":"0","num_feature":"243","num_nodes":"15","size_leaf_vector":"1"}},{"base_weights":[7.75222E-4,-3.2337105E-1,8.7538993E-1,-9.6907765E-1,-1.9520147E-1,4.5077655E-1,1.3169544E0,-1.3741007E-2,-6.165582E-3,4.3031434E-4,-4.3390226E-3,-1.3778601E-2,6.051338E-3,1.7961562E-2,7.402117E-3],"categories":[],"categories_nodes":[],"categories_segments":[],"categories_sizes":[],"default_left":[0,0,0,0,0,0,0,0,0,0,0,0,0,0,0],"id":26,"left_children":[1,3,5,7,9,11,13,-1,-1,-1,-1,-1,-1,-1,-1],"loss_changes":[5.871345E2,1.24861115E2,1.0440311E2,2.6531342E1,5.6996124E1,4.4594906E1,5.107492E1,0E0,0E0,0E0,0E0,0E0,0E0,0E0,0E0],"parents":[2147483647,0,0,1,1,2,2,3,3,4,4,5,5,6,6],"right_children":[2,4,6,8,10,12,14,-1,-1,-1,-1,-1,-1,-1,-1],"split_conditions":[6.315789E-1,-8.72494E-1,7.7575755E-1,4.0186915E-1,-3.2675022E-1,-9.779387E-1,2.1105977E-2,-1.3741007E-2,-6.165582E-3,4.3031434E-4,-4.3390226E-3,-1.3778601E-2,6.051338E-3,1.7961562E-2,7.402117E-3],"split_indices":[174,89,150,109,5,167,5,0,0,0,0,0,0,0,0],"split_type":[0,0,0,0,0,0,0,0,0,0,0,0,0,0,0],"sum_hessian":[2.069E3,1.51E3,5.59E2,2.49E2,1.261E3,2.86E2,2.73E2,1.52E2,9.7E1,5.71E2,6.9E2,1.4E1,2.72E2,1.88E2,8.5E1],"tree_param":{"num_deleted":"0","num_feature":"243","num_nodes":"15","size_leaf_vector":"1"}},{"base_weights":[-2.5557904E-2,-3.296548E-1,9.270918E-1,-7.302902E-1,-1.42732E-1,1.3460317E0,5.390831E-1,-2.4849907E-2,-7.1396483E-3,-3.0583185E-3,2.5865121E-3,1.1430485E-2,2.161584E-2,7.5439885E-3,-9.312316E-4],"categories":[],"categories_nodes":[],"categories_segments":[],"categories_sizes":[],"default_left":[0,0,0,0,0,0,0,0,0,0,0,0,0,0,0],"id":27,"left_children":[1,3,5,7,9,11,13,-1,-1,-1,-1,-1,-1,-1,-1],"loss_changes":[6.141753E2,1.202406E2,8.266373E1,6.8217865E1,5.3854176E1,4.4789337E1,2.2773537E1,0E0,0E0,0E0,0E0,0E0,0E0,0E0,0E0],"parents":[2147483647,0,0,1,1,2,2,3,3,4,4,5,5,6,6],"right_children":[2,4,6,8,10,12,14,-1,-1,-1,-1,-1,-1,-1,-1],"split_conditions":[4.5171338E-1,-5.8219725E-1,-7.3214287E-1,-1.7647059E0,2.0370254E-1,-4.0860215E-1,-1.0752688E-1,-2.4849907E-2,-7.1396483E-3,-3.0583185E-3,2.5865121E-3,1.1430485E-2,2.161584E-2,7.5439885E-3,-9.312316E-4],"split_indices":[155,89,46,22,4,1,1,0,0,0,0,0,0,0,0],"split_type":[0,0,0,0,0,0,0,0,0,0,0,0,0,0,0],"sum_hessian":[2.118E3,1.606E3,5.12E2,5.1E2,1.096E3,2.45E2,2.67E2,2.8E1,4.82E2,8.12E2,2.84E2,1.6E2,8.5E1,2.19E2,4.8E1],"tree_param":{"num_deleted":"0","num_feature":"243","num_nodes":"15","size_leaf_vector":"1"}},{"base_weights":[9.401361E-3,-3.050769E-1,9.4099593E-1,-7.926952E-1,-1.6006431E-1,1.5247344E0,7.1415365E-1,-1.16786435E-2,-3.366589E-3,-5.422924E-3,-5.169075E-4,2.2520667E-2,1.2089059E-2,1.0788662E-2,3.3551343E-3],"categories":[],"categories_nodes":[],"categories_segments":[],"categories_sizes":[],"default_left":[0,0,0,0,0,0,0,0,0,0,0,0,0,0,0],"id":28,"left_children":[1,3,5,7,9,11,13,-1,-1,-1,-1,-1,-1,-1,-1],"loss_changes":[6.1756696E2,1.1131334E2,6.935669E1,4.450235E1,4.4997276E1,2.9990906E1,3.9787735E1,0E0,0E0,0E0,0E0,0E0,0E0,0E0,0E0],"parents":[2147483647,0,0,1,1,2,2,3,3,4,4,5,5,6,6],"right_children":[2,4,6,8,10,12,14,-1,-1,-1,-1,-1,-1,-1,-1],"split_conditions":[4.4548288E-1,-7.479862E-1,-8.104867E-1,-1.9372077E-1,-6.492213E-1,-1.3519785E-1,-2.3076923E-1,-1.16786435E-2,-3.366589E-3,-5.422924E-3,-5.169075E-4,2.2520667E-2,1.2089059E-2,1.0788662E-2,3.3551343E-3],"split_indices":[155,85,90,157,4,5,43,0,0,0,0,0,0,0,0],"split_type":[0,0,0,0,0,0,0,0,0,0,0,0,0,0,0],"sum_hessian":[2.106E3,1.575E3,5.31E2,3.6E2,1.215E3,1.47E2,3.84E2,2.37E2,1.23E2,3.14E2,9.01E2,6.8E1,7.9E1,2.38E2,1.46E2],"tree_param":{"num_deleted":"0","num_feature":"243","num_nodes":"15","size_leaf_vector":"1"}},{"base_weights":[-1.7651817E-2,-2.9219222E-1,8.823603E-1,-8.464983E-1,-1.802817E-1,3.922249E-1,1.0960013E0,-1.0474737E-2,6.2461635E-3,6.3253404E-4,-3.6561384E-3,-1.3026489E-3,6.254719E-3,1.5506604E-2,9.394304E-3],"categories":[],"categories_nodes":[],"categories_segments":[],"categories_sizes":[],"default_left":[0,0,0,0,0,0,0,0,0,0,0,0,0,0,0],"id":29,"left_children":[1,3,5,7,9,11,13,-1,-1,-1,-1,-1,-1,-1,-1],"loss_changes":[5.169223E2,9.928577E1,5.077481E1,3.4970093E1,4.6503105E1,1.2860102E1,2.4160614E1,0E0,0E0,0E0,0E0,0E0,0E0,0E0,0E0],"parents":[2147483647,0,0,1,1,2,2,3,3,4,4,5,5,6,6],"right_children":[2,4,6,8,10,12,14,-1,-1,-1,-1,-1,-1,-1,-1],"split_conditions":[4.5171338E-1,-9.0103567E-1,8.947368E-1,3.888889E-1,-3.6141056E-1,-8.537427E-2,2.0689656E-1,-1.0474737E-2,6.2461635E-3,6.3253404E-4,-3.6561384E-3,-1.3026489E-3,6.254719E-3,1.5506604E-2,9.394304E-3],"split_indices":[155,85,174,18,5,4,96,0,0,0,0,0,0,0,0],"split_type":[0,0,0,0,0,0,0,0,0,0,0,0,0,0,0],"sum_hessian":[2.09E3,1.602E3,4.88E2,2.68E2,1.334E3,1.49E2,3.39E2,2.52E2,1.6E1,5.11E2,8.23E2,3.7E1,1.12E2,1.56E2,1.83E2],"tree_param":{"num_deleted":"0","num_feature":"243","num_nodes":"15","size_leaf_vector":"1"}},{"base_weights":[2.1097347E-2,-2.711697E-1,8.557266E-1,-8.452926E-1,-1.492031E-1,5.002072E-1,1.2622638E0,-1.2822951E-2,-4.8670704E-3,-3.1750288E-3,7.598653E-4,3.4637786E-3,1.56428E-2,8.843297E-3,2.0037292E-2],"categories":[],"categories_nodes":[],"categories_segments":[],"categories_sizes":[],"default_left":[0,0,0,0,0,0,0,0,0,0,0,0,0,0,0],"id":30,"left_children":[1,3,5,7,9,11,13,-1,-1,-1,-1,-1,-1,-1,-1],"loss_changes":[5.1542194E2,1.0946116E2,7.857205E1,3.34525E1,3.7905434E1,4.9882217E1,6.234903E1,0E0,0E0,0E0,0E0,0E0,0E0,0E0,0E0],"parents":[2147483647,0,0,1,1,2,2,3,3,4,4,5,5,6,6],"right_children":[2,4,6,8,10,12,14,-1,-1,-1,-1,-1,-1,-1,-1],"split_conditions":[5.8199114E-1,-8.72494E-1,8.517442E-1,4.0186915E-1,6.1702126E-1,6.386555E-1,-4.247312E-1,-1.2822951E-2,-4.8670704E-3,-3.1750288E-3,7.598653E-4,3.4637786E-3,1.56428E-2,8.843297E-3,2.0037292E-2],"split_indices":[153,89,145,109,83,87,1,0,0,0,0,0,0,0,0],"split_type":[0,0,0,0,0,0,0,0,0,0,0,0,0,0,0],"sum_hessian":[2.111E3,1.564E3,5.47E2,2.73E2,1.291E3,2.93E2,2.54E2,1.56E2,1.17E2,7.96E2,4.95E2,2.43E2,5E1,1.36E2,1.18E2],"tree_param":{"num_deleted":"0","num_feature":"243","num_nodes":"15","size_leaf_vector":"1"}},{"base_weights":[-2.1351347E-2,-3.1758723E-1,8.9084476E-1,-8.826411E-1,-2.0788899E-1,2.639817E-1,1.091663E0,-1.1077058E-2,4.4515794E-3,-6.623623E-3,-1.2228589E-3,-1.8363207E-4,7.621255E-3,1.602392E-2,6.6621727E-3],"categories":[],"categories_nodes":[],"categories_segments":[],"categories_sizes":[],"default_left":[0,0,0,0,0,0,0,0,0,0,0,0,0,0,0],"id":31,"left_children":[1,3,5,7,9,11,13,-1,-1,-1,-1,-1,-1,-1,-1],"loss_changes":[5.709986E2,9.868323E1,6.49205E1,3.6519653E1,5.0600937E1,1.4904684E1,6.5675995E1,0E0,0E0,0E0,0E0,0E0,0E0,0E0,0E0],"parents":[2147483647,0,0,1,1,2,2,3,3,4,4,5,5,6,6],"right_children":[2,4,6,8,10,12,14,-1,-1,-1,-1,-1,-1,-1,-1],"split_conditions":[4.4548288E-1,-8.72494E-1,-1.7489986E-1,3.888889E-1,-5.1854074E-1,3.8372093E-1,1.2063543E-2,-1.1077058E-2,4.4515794E-3,-6.623623E-3,-1.2228589E-3,-1.8363207E-4,7.621255E-3,1.602392E-2,6.6621727E-3],"split_indices":[155,89,109,18,153,8,5,0,0,0,0,0,0,0,0],"split_type":[0,0,0,0,0,0,0,0,0,0,0,0,0,0,0],"sum_hessian":[2.111E3,1.594E3,5.17E2,2.58E2,1.336E3,1.26E2,3.91E2,2.38E2,2E1,2.71E2,1.065E3,7.6E1,5E1,2.3E2,1.61E2],"tree_param":{"num_deleted":"0","num_feature":"243","num_nodes":"15","size_leaf_vector":"1"}},{"base_weights":[-2.861665E-3,-2.8302446E-1,8.675904E-1,-8.174307E-1,-1.6731389E-1,1.3970917E0,6.483584E-1,-1.0280834E-2,4.0992796E-3,-3.2432072E-3,8.514378E-4,2.3711117E-2,1.2462491E-2,1.1719939E-2,4.58863E-3],"categories":[],"categories_nodes":[],"categories_segments":[],"categories_sizes":[],"default_left":[0,0,0,0,0,0,0,0,0,0,0,0,0,0,0],"id":32,"left_children":[1,3,5,7,9,11,13,-1,-1,-1,-1,-1,-1,-1,-1],"loss_changes":[5.0578452E2,9.688463E1,5.771643E1,3.4310684E1,3.8688488E1,2.7653015E1,3.375215E1,0E0,0E0,0E0,0E0,0E0,0E0,0E0,0E0],"parents":[2147483647,0,0,1,1,2,2,3,3,4,4,5,5,6,6],"right_children":[2,4,6,8,10,12,14,-1,-1,-1,-1,-1,-1,-1,-1],"split_conditions":[4.4548288E-1,-8.72494E-1,-8.016836E-1,3.75E-1,6.1702126E-1,-4.0543687E-1,-6.666667E-1,-1.0280834E-2,4.0992796E-3,-3.2432072E-3,8.514378E-4,2.3711117E-2,1.2462491E-2,1.1719939E-2,4.58863E-3],"split_indices":[155,89,90,26,83,41,38,0,0,0,0,0,0,0,0],"split_type":[0,0,0,0,0,0,0,0,0,0,0,0,0,0,0],"sum_hessian":[2.072E3,1.568E3,5.04E2,2.78E2,1.29E3,1.46E2,3.58E2,2.56E2,2.2E1,8.57E2,4.33E2,3.9E1,1.07E2,1.32E2,2.26E2],"tree_param":{"num_deleted":"0","num_feature":"243","num_nodes":"15","size_leaf_vector":"1"}},{"base_weights":[4.7469806E-2,-2.0171328E-1,1.0423182E0,-5.690065E-1,-2.893843E-2,5.9426796E-1,1.4432902E0,-1.9471258E-2,-5.209428E-3,-4.9286587E-3,1.0932996E-3,1.0263812E-2,1.142397E-3,2.0605044E-2,9.447431E-3],"categories":[],"categories_nodes":[],"categories_segments":[],"categories_sizes":[],"default_left":[0,0,0,0,0,0,0,0,0,0,0,0,0,0,0],"id":33,"left_children":[1,3,5,7,9,11,13,-1,-1,-1,-1,-1,-1,-1,-1],"loss_changes":[5.222864E2,1.06912E2,7.495697E1,6.417247E1,5.9997673E1,3.1992477E1,5.1654358E1,0E0,0E0,0E0,0E0,0E0,0E0,0E0,0E0],"parents":[2147483647,0,0,1,1,2,2,3,3,4,4,5,5,6,6],"right_children":[2,4,6,8,10,12,14,-1,-1,-1,-1,-1,-1,-1,-1],"split_conditions":[8.3678466E-1,-5.4545456E-1,8.895349E-1,-1.3174251E0,-6.676412E-1,-7.836849E-2,-2.4137577E-2,-1.9471258E-2,-5.209428E-3,-4.9286587E-3,1.0932996E-3,1.0263812E-2,1.142397E-3,2.0605044E-2,9.447431E-3],"split_indices":[157,85,145,24,6,122,5,0,0,0,0,0,0,0,0],"split_type":[0,0,0,0,0,0,0,0,0,0,0,0,0,0,0],"sum_hessian":[2.105E3,1.684E3,4.21E2,5.38E2,1.146E3,2E2,2.21E2,4.2E1,4.96E2,2.69E2,8.77E2,1.2E2,8E1,1.31E2,9E1],"tree_param":{"num_deleted":"0","num_feature":"243","num_nodes":"15","size_leaf_vector":"1"}},{"base_weights":[-1.5315405E-2,-2.7585357E-1,7.8715163E-1,-5.9206915E-1,-1.3608673E-1,2.3013544E-1,9.997289E-1,-1.9468049E-2,-5.2526104E-3,-5.0694533E-3,1.2155045E-4,4.8339386E-3,-3.3767638E-3,2.0941947E-2,9.616587E-3],"categories":[],"categories_nodes":[],"categories_segments":[],"categories_sizes":[],"default_left":[0,0,0,0,0,0,0,0,0,0,0,0,0,0,0],"id":34,"left_children":[1,3,5,7,9,11,13,-1,-1,-1,-1,-1,-1,-1,-1],"loss_changes":[4.3759848E2,6.974981E1,6.0513733E1,6.706413E1,5.1222588E1,1.5551554E1,4.3480225E1,0E0,0E0,0E0,0E0,0E0,0E0,0E0,0E0],"parents":[2147483647,0,0,1,1,2,2,3,3,4,4,5,5,6,6],"right_children":[2,4,6,8,10,12,14,-1,-1,-1,-1,-1,-1,-1,-1],"split_conditions":[4.4859812E-1,-5.9663194E-1,-1.2550066E-1,-1.3174251E0,-6.314566E-1,5.2457786E-1,-3.774021E-1,-1.9468049E-2,-5.2526104E-3,-5.0694533E-3,1.2155045E-4,4.8339386E-3,-3.3767638E-3,2.0941947E-2,9.616587E-3],"split_indices":[155,89,109,24,4,64,45,0,0,0,0,0,0,0,0],"split_type":[0,0,0,0,0,0,0,0,0,0,0,0,0,0,0],"sum_hessian":[2.091E3,1.579E3,5.12E2,4.83E2,1.096E3,1.42E2,3.7E2,4.5E1,4.38E2,3.46E2,7.5E2,1.03E2,3.9E1,4.9E1,3.21E2],"tree_param":{"num_deleted":"0","num_feature":"243","num_nodes":"15","size_leaf_vector":"1"}},{"base_weights":[-4.5764507E-3,-2.8183585E-1,8.5922307E-1,-8.304604E-1,-1.7657803E-1,1.1655116E0,5.05767E-1,-1.71098E-2,-7.5715743E-3,-5.7739615E-3,-1.0098672E-3,2.4666362E-2,1.1747544E-2,7.1575083E-3,-3.3386543E-3],"categories":[],"categories_nodes":[],"categories_segments":[],"categories_sizes":[],"default_left":[0,0,0,0,0,0,0,0,0,0,0,0,0,0,0],"id":35,"left_children":[1,3,5,7,9,11,13,-1,-1,-1,-1,-1,-1,-1,-1],"loss_changes":[5.0366388E2,9.1786644E1,5.473114E1,2.6371246E1,3.916002E1,3.0114502E1,2.6134106E1,0E0,0E0,0E0,0E0,0E0,0E0,0E0,0E0],"parents":[2147483647,0,0,1,1,2,2,3,3,4,4,5,5,6,6],"right_children":[2,4,6,8,10,12,14,-1,-1,-1,-1,-1,-1,-1,-1],"split_conditions":[4.5171338E-1,-8.72494E-1,-5.4464287E-1,-1.3256617E0,-6.676412E-1,-6.634415E-1,-1.0752688E-2,-1.71098E-2,-7.5715743E-3,-5.7739615E-3,-1.0098672E-3,2.4666362E-2,1.1747544E-2,7.1575083E-3,-3.3386543E-3],"split_indices":[155,89,46,85,6,126,1,0,0,0,0,0,0,0,0],"split_type":[0,0,0,0,0,0,0,0,0,0,0,0,0,0,0],"sum_hessian":[2.101E3,1.591E3,5.1E2,2.55E2,1.336E3,2.72E2,2.38E2,4.4E1,2.11E2,2.69E2,1.067E3,2.5E1,2.47E2,2.04E2,3.4E1],"tree_param":{"num_deleted":"0","num_feature":"243","num_nodes":"15","size_leaf_vector":"1"}},{"base_weights":[1.047454E-2,-2.7333412E-1,8.805446E-1,-8.516224E-1,-1.6388734E-1,1.2805399E0,5.127241E-1,-1.7221883E-2,-7.2749024E-3,-3.332158E-3,1.105838E-3,8.1441E-3,1.7848264E-2,1.1035342E-3,7.728664E-3],"categories":[],"categories_nodes":[],"categories_segments":[],"categories_sizes":[],"default_left":[0,0,0,0,0,0,0,0,0,0,0,0,0,0,0],"id":36,"left_children":[1,3,5,7,9,11,13,-1,-1,-1,-1,-1,-1,-1,-1],"loss_changes":[5.190478E2,1.001779E2,7.5407776E1,3.384485E1,4.7151253E1,4.2031006E1,2.0019974E1,0E0,0E0,0E0,0E0,0E0,0E0,0E0,0E0],"parents":[2147483647,0,0,1,1,2,2,3,3,4,4,5,5,6,6],"right_children":[2,4,6,8,10,12,14,-1,-1,-1,-1,-1,-1,-1,-1],"split_conditions":[4.4548288E-1,-8.72494E-1,-7.3214287E-1,-1.273878E0,6.1702126E-1,-8.545455E-1,-4.684978E-1,-1.7221883E-2,-7.2749024E-3,-3.332158E-3,1.105838E-3,8.1441E-3,1.7848264E-2,1.1035342E-3,7.728664E-3],"split_indices":[155,89,46,85,83,27,102,0,0,0,0,0,0,0,0],"split_type":[0,0,0,0,0,0,0,0,0,0,0,0,0,0,0],"sum_hessian":[2.1E3,1.584E3,5.16E2,2.51E2,1.333E3,2.46E2,2.7E2,5.5E1,1.96E2,8.82E2,4.51E2,9.1E1,1.55E2,8.2E1,1.88E2],"tree_param":{"num_deleted":"0","num_feature":"243","num_nodes":"15","size_leaf_vector":"1"}},{"base_weights":[-2.7919069E-2,-3.0991155E-1,7.191191E-1,-9.934769E-1,-2.111642E-1,1.038152E0,3.091506E-1,6.0075615E-4,-1.2902507E-2,-2.2854235E-2,-2.0188186E-3,5.014046E-3,1.410499E-2,-1.2549387E-2,4.1524977E-3],"categories":[],"categories_nodes":[],"categories_segments":[],"categories_sizes":[],"default_left":[0,0,0,0,0,0,0,0,0,0,0,0,0,0,0],"id":37,"left_children":[1,3,5,7,9,11,13,-1,-1,-1,-1,-1,-1,-1,-1],"loss_changes":[4.4892685E2,1.04213135E2,7.606241E1,3.302913E1,7.5232254E1,4.280957E1,2.3441711E1,0E0,0E0,0E0,0E0,0E0,0E0,0E0,0E0],"parents":[2147483647,0,0,1,1,2,2,3,3,4,4,5,5,6,6],"right_children":[2,4,6,8,10,12,14,-1,-1,-1,-1,-1,-1,-1,-1],"split_conditions":[6.052632E-1,-9.4545454E-1,-1.6211542E-17,-6.225166E-1,-1.3256617E0,-1.9152854E-1,-2.9444444E0,6.0075615E-4,-1.2902507E-2,-2.2854235E-2,-2.0188186E-3,5.014046E-3,1.410499E-2,-1.2549387E-2,4.1524977E-3],"split_indices":[174,27,7,68,85,105,18,0,0,0,0,0,0,0,0],"split_type":[0,0,0,0,0,0,0,0,0,0,0,0,0,0,0],"sum_hessian":[2.129E3,1.546E3,5.83E2,1.94E2,1.352E3,3.27E2,2.56E2,2.6E1,1.68E2,2.1E1,1.331E3,9.1E1,2.36E2,1E1,2.46E2],"tree_param":{"num_deleted":"0","num_feature":"243","num_nodes":"15","size_leaf_vector":"1"}},{"base_weights":[1.5894305E-2,-2.4382132E-1,8.310958E-1,-7.6383346E-1,-1.4495777E-1,1.3518221E0,5.8987635E-1,-4.76825E-3,-1.1872853E-2,1.00734E-3,-3.1627133E-3,2.0524908E-2,1.1019028E-2,2.2777373E-3,9.116349E-3],"categories":[],"categories_nodes":[],"categories_segments":[],"categories_sizes":[],"default_left":[0,0,0,0,0,0,0,0,0,0,0,0,0,0,0],"id":38,"left_children":[1,3,5,7,9,11,13,-1,-1,-1,-1,-1,-1,-1,-1],"loss_changes":[4.477799E2,8.23513E1,6.3388947E1,2.5336075E1,4.384085E1,2.6750214E1,3.0471123E1,0E0,0E0,0E0,0E0,0E0,0E0,0E0,0E0],"parents":[2147483647,0,0,1,1,2,2,3,3,4,4,5,5,6,6],"right_children":[2,4,6,8,10,12,14,-1,-1,-1,-1,-1,-1,-1,-1],"split_conditions":[4.5171338E-1,-8.72494E-1,-8.016836E-1,-1.0375198E-1,-4.1258866E-1,-2.1725811E-1,-8.839779E-2,-4.76825E-3,-1.1872853E-2,1.00734E-3,-3.1627133E-3,2.0524908E-2,1.1019028E-2,2.2777373E-3,9.116349E-3],"split_indices":[155,89,90,98,5,29,105,0,0,0,0,0,0,0,0],"split_type":[0,0,0,0,0,0,0,0,0,0,0,0,0,0,0],"sum_hessian":[2.113E3,1.603E3,5.1E2,2.55E2,1.348E3,1.6E2,3.5E2,1.21E2,1.34E2,4.99E2,8.49E2,6.7E1,9.3E1,1.3E2,2.2E2],"tree_param":{"num_deleted":"0","num_feature":"243","num_nodes":"15","size_leaf_vector":"1"}},{"base_weights":[-6.7370487E-3,-2.5229788E-1,8.205961E-1,-8.10436E-1,-1.5196206E-1,3.989166E-1,1.2590207E0,-9.897907E-3,9.335932E-3,-1.0992823E-2,-1.2044366E-3,5.6367344E-3,-8.062253E-3,2.3368677E-2,1.2022285E-2],"categories":[],"categories_nodes":[],"categories_segments":[],"categories_sizes":[],"default_left":[0,0,0,0,0,0,0,0,0,0,0,0,0,0,0],"id":39,"left_children":[1,3,5,7,9,11,13,-1,-1,-1,-1,-1,-1,-1,-1],"loss_changes":[4.136389E2,8.77988E1,8.564935E1,3.045575E1,4.88252E1,2.8653816E1,3.2474396E1,0E0,0E0,0E0,0E0,0E0,0E0,0E0,0E0],"parents":[2147483647,0,0,1,1,2,2,3,3,4,4,5,5,6,6],"right_children":[2,4,6,8,10,12,14,-1,-1,-1,-1,-1,-1,-1,-1],"split_conditions":[5.1512563E-1,-8.72494E-1,-4.6153846E-1,4.7058824E-1,-1.1090909E0,3.687191E-1,-4.573459E-1,-9.897907E-3,9.335932E-3,-1.0992823E-2,-1.2044366E-3,5.6367344E-3,-8.062253E-3,2.3368677E-2,1.2022285E-2],"split_indices":[4,89,2,22,27,167,45,0,0,0,0,0,0,0,0],"split_type":[0,0,0,0,0,0,0,0,0,0,0,0,0,0,0],"sum_hessian":[2.034E3,1.569E3,4.65E2,2.38E2,1.331E3,2.38E2,2.27E2,2.28E2,1E1,6.6E1,1.265E3,2.18E2,2E1,3.9E1,1.88E2],"tree_param":{"num_deleted":"0","num_feature":"243","num_nodes":"15","size_leaf_vector":"1"}},{"base_weights":[-6.9349753E-3,-2.6536414E-1,8.2844216E-1,-7.95218E-1,-1.6014044E-1,1.3265846E0,6.022378E-1,-1.2517551E-2,-4.259926E-3,-5.6856247E-3,-7.6582294E-4,1.9493913E-2,1.031015E-2,2.622366E-3,9.137862E-3],"categories":[],"categories_nodes":[],"categories_segments":[],"categories_sizes":[],"default_left":[0,0,0,0,0,0,0,0,0,0,0,0,0,0,0],"id":40,"left_children":[1,3,5,7,9,11,13,-1,-1,-1,-1,-1,-1,-1,-1],"loss_changes":[4.5595483E2,8.980254E1,5.542935E1,3.5515762E1,4.2995644E1,2.4566986E1,2.7156364E1,0E0,0E0,0E0,0E0,0E0,0E0,0E0,0E0],"parents":[2147483647,0,0,1,1,2,2,3,3,4,4,5,5,6,6],"right_children":[2,4,6,8,10,12,14,-1,-1,-1,-1,-1,-1,-1,-1],"split_conditions":[4.4859812E-1,-8.72494E-1,-8.016836E-1,5.1724136E-1,-6.676412E-1,-1.2030436E-1,-5.3407E-2,-1.2517551E-2,-4.259926E-3,-5.6856247E-3,-7.6582294E-4,1.9493913E-2,1.031015E-2,2.622366E-3,9.137862E-3],"split_indices":[155,89,90,111,6,5,105,0,0,0,0,0,0,0,0],"split_type":[0,0,0,0,0,0,0,0,0,0,0,0,0,0,0],"sum_hessian":[2.11E3,1.612E3,4.98E2,2.66E2,1.346E3,1.54E2,3.44E2,1.48E2,1.18E2,2.79E2,1.067E3,7.4E1,8E1,1.28E2,2.16E2],"tree_param":{"num_deleted":"0","num_feature":"243","num_nodes":"15","size_leaf_vector":"1"}},{"base_weights":[4.0580274E-4,-2.4941868E-1,7.97749E-1,-7.7389175E-1,-1.455936E-1,1.2791513E0,5.8041435E-1,-1.1012029E-2,-2.1829642E-3,-2.1077165E-2,-1.419496E-3,2.3360223E-2,1.2106945E-2,1.061882E-2,4.079031E-3],"categories":[],"categories_nodes":[],"categories_segments":[],"categories_sizes":[],"default_left":[0,0,0,0,0,0,0,0,0,0,0,0,0,0,0],"id":41,"left_children":[1,3,5,7,9,11,13,-1,-1,-1,-1,-1,-1,-1,-1],"loss_changes":[4.1831104E2,8.6958405E1,5.1674896E1,3.215416E1,4.2870117E1,2.2328568E1,2.73012E1,0E0,0E0,0E0,0E0,0E0,0E0,0E0,0E0],"parents":[2147483647,0,0,1,1,2,2,3,3,4,4,5,5,6,6],"right_children":[2,4,6,8,10,12,14,-1,-1,-1,-1,-1,-1,-1,-1],"split_conditions":[4.5171338E-1,-8.72494E-1,-7.856463E-1,-1.8674386E-1,-3.1666667E0,-4.9597806E-1,-7.3214287E-1,-1.1012029E-2,-2.1829642E-3,-2.1077165E-2,-1.419496E-3,2.3360223E-2,1.2106945E-2,1.061882E-2,4.079031E-3],"split_indices":[155,89,90,157,18,45,46,0,0,0,0,0,0,0,0],"split_type":[0,0,0,0,0,0,0,0,0,0,0,0,0,0,0],"sum_hessian":[2.098E3,1.598E3,5E2,2.63E2,1.335E3,1.54E2,3.46E2,1.92E2,7.1E1,1.3E1,1.322E3,2.8E1,1.26E2,1.26E2,2.2E2],"tree_param":{"num_deleted":"0","num_feature":"243","num_nodes":"15","size_leaf_vector":"1"}},{"base_weights":[-2.8668404E-2,-2.5311118E-1,7.501421E-1,-9.7904706E-1,-1.6231899E-1,3.9371762E-1,1.1336924E0,-8.92541E-3,-2.0969436E-2,5.650351E-4,-3.556741E-3,7.3978226E-3,8.1926316E-4,1.5453681E-2,6.390266E-3],"categories":[],"categories_nodes":[],"categories_segments":[],"categories_sizes":[],"default_left":[0,0,0,0,0,0,0,0,0,0,0,0,0,0,0],"id":42,"left_children":[1,3,5,7,9,11,13,-1,-1,-1,-1,-1,-1,-1,-1],"loss_changes":[3.6097382E2,1.0549373E2,6.271216E1,2.729094E1,4.7390255E1,2.068042E1,3.0329956E1,0E0,0E0,0E0,0E0,0E0,0E0,0E0,0E0],"parents":[2147483647,0,0,1,1,2,2,3,3,4,4,5,5,6,6],"right_children":[2,4,6,8,10,12,14,-1,-1,-1,-1,-1,-1,-1,-1],"split_conditions":[5.230708E-1,-9.647153E-1,-4.6153846E-1,3.1578946E-1,-3.6141056E-1,-8.52459E-1,-3.6754966E-1,-8.92541E-3,-2.0969436E-2,5.650351E-4,-3.556741E-3,7.3978226E-3,8.1926316E-4,1.5453681E-2,6.390266E-3],"split_indices":[4,89,2,128,5,42,68,0,0,0,0,0,0,0,0],"split_type":[0,0,0,0,0,0,0,0,0,0,0,0,0,0,0],"sum_hessian":[2.063E3,1.602E3,4.61E2,1.77E2,1.425E3,2.4E2,2.21E2,1.49E2,2.8E1,6.03E2,8.22E2,1.3E2,1.1E2,1.52E2,6.9E1],"tree_param":{"num_deleted":"0","num_feature":"243","num_nodes":"15","size_leaf_vector":"1"}},{"base_weights":[2.3257727E-2,-2.5681558E-1,7.1628106E-1,-1.1037601E-1,-6.5000075E-1,8.8097656E-1,-1.2986182E-1,-4.6761176E-3,1.2320743E-4,-1.452473E-2,-4.8891422E-3,8.043573E-3,1.5505048E-2,8.802974E-4,-9.929066E-3],"categories":[],"categories_nodes":[],"categories_segments":[],"categories_sizes":[],"default_left":[0,0,0,0,0,0,0,0,0,0,0,0,0,0,0],"id":43,"left_children":[1,3,5,7,9,11,13,-1,-1,-1,-1,-1,-1,-1,-1],"loss_changes":[3.9788937E2,8.399195E1,8.233438E1,3.9851723E1,5.4105026E1,3.931363E1,1.5429901E1,0E0,0E0,0E0,0E0,0E0,0E0,0E0,0E0],"parents":[2147483647,0,0,1,1,2,2,3,3,4,4,5,5,6,6],"right_children":[2,4,6,8,10,12,14,-1,-1,-1,-1,-1,-1,-1,-1],"split_conditions":[3.939394E-1,5.8213276E-1,4.3010753E-2,-6.368084E-1,2.3097827E-1,1.189752E0,5.5263156E-1,-4.6761176E-3,1.2320743E-4,-1.452473E-2,-4.8891422E-3,8.043573E-3,1.5505048E-2,8.802974E-4,-9.929066E-3],"split_indices":[150,5,1,4,101,153,128,0,0,0,0,0,0,0,0],"split_type":[0,0,0,0,0,0,0,0,0,0,0,0,0,0,0],"sum_hessian":[2.048E3,1.459E3,5.89E2,1.064E3,3.95E2,4.93E2,9.6E1,3E2,7.64E2,9.6E1,2.99E2,3.76E2,1.17E2,7.6E1,2E1],"tree_param":{"num_deleted":"0","num_feature":"243","num_nodes":"15","size_leaf_vector":"1"}},{"base_weights":[-5.985833E-4,-2.8270411E-1,6.915013E-1,-4.3051523E-1,3.9330646E-2,8.716046E-1,3.3653904E-2,-7.3940223E-3,-2.5781519E-3,-4.8193038E-3,1.7177452E-3,1.5175996E-2,8.230628E-3,-1.7625077E-3,5.410967E-3],"categories":[],"categories_nodes":[],"categories_segments":[],"categories_sizes":[],"default_left":[0,0,0,0,0,0,0,0,0,0,0,0,0,0,0],"id":44,"left_children":[1,3,5,7,9,11,13,-1,-1,-1,-1,-1,-1,-1,-1],"loss_changes":[4.045483E2,7.008459E1,7.105899E1,4.6469345E1,2.5057943E1,2.99245E1,1.1291344E1,0E0,0E0,0E0,0E0,0E0,0E0,0E0,0E0],"parents":[2147483647,0,0,1,1,2,2,3,3,4,4,5,5,6,6],"right_children":[2,4,6,8,10,12,14,-1,-1,-1,-1,-1,-1,-1,-1],"split_conditions":[3.939394E-1,6.1702126E-1,-1.1290322E-1,-1.8674386E-1,-6.5947604E-1,-2.4193236E-1,2.5E0,-7.3940223E-3,-2.5781519E-3,-4.8193038E-3,1.7177452E-3,1.5175996E-2,8.230628E-3,-1.7625077E-3,5.410967E-3],"split_indices":[150,83,1,157,4,45,56,0,0,0,0,0,0,0,0],"split_type":[0,0,0,0,0,0,0,0,0,0,0,0,0,0,0],"sum_hessian":[2.07E3,1.471E3,5.99E2,1.008E3,4.63E2,4.7E2,1.29E2,4.66E2,5.42E2,9E1,3.73E2,1E2,3.7E2,9.1E1,3.8E1],"tree_param":{"num_deleted":"0","num_feature":"243","num_nodes":"15","size_leaf_vector":"1"}},{"base_weights":[-4.633394E-3,-2.7705184E-1,7.0095235E-1,-1.2902598E0,-2.305821E-1,8.812235E-1,-1.4770171E-1,-2.2154443E-2,-7.349346E-3,-6.009387E-3,-1.3887293E-3,1.4859158E-2,7.7007147E-3,-2.760534E-3,8.952952E-3],"categories":[],"categories_nodes":[],"categories_segments":[],"categories_sizes":[],"default_left":[0,0,0,0,0,0,0,0,0,0,0,0,0,0,0],"id":45,"left_children":[1,3,5,7,9,11,13,-1,-1,-1,-1,-1,-1,-1,-1],"loss_changes":[4.0230707E2,7.07986E1,8.932205E1,2.7612411E1,4.7128204E1,4.0517883E1,9.914482E0,0E0,0E0,0E0,0E0,0E0,0E0,0E0,0E0],"parents":[2147483647,0,0,1,1,2,2,3,3,4,4,5,5,6,6],"right_children":[2,4,6,8,10,12,14,-1,-1,-1,-1,-1,-1,-1,-1],"split_conditions":[3.939394E-1,-1.2475878E0,-5.376344E-3,3.822836E-1,-4.7769612E-1,-1.2314071E-1,3.5315534E-1,-2.2154443E-2,-7.349346E-3,-6.009387E-3,-1.3887293E-3,1.4859158E-2,7.7007147E-3,-2.760534E-3,8.952952E-3],"split_indices":[150,85,1,175,157,45,151,0,0,0,0,0,0,0,0],"split_type":[0,0,0,0,0,0,0,0,0,0,0,0,0,0,0],"sum_hessian":[2.091E3,1.509E3,5.82E2,6.5E1,1.444E3,4.8E2,1.02E2,3E1,3.5E1,3.7E2,1.074E3,1.42E2,3.38E2,9.3E1,9E0],"tree_param":{"num_deleted":"0","num_feature":"243","num_nodes":"15","size_leaf_vector":"1"}},{"base_weights":[1.7361633E-2,-2.2449677E-1,7.822524E-1,1.0540952E-1,-3.838705E-1,2.9730415E-1,9.908172E-1,5.866308E-3,-2.7435445E-4,-7.219847E-3,-2.100942E-3,1.1118121E-2,1.78471E-3,1.394144E-2,5.9961434E-3],"categories":[],"categories_nodes":[],"categories_segments":[],"categories_sizes":[],"default_left":[0,0,0,0,0,0,0,0,0,0,0,0,0,0,0],"id":46,"left_children":[1,3,5,7,9,11,13,-1,-1,-1,-1,-1,-1,-1,-1],"loss_changes":[3.8811066E2,8.385041E1,5.068155E1,2.837657E1,5.510991E1,1.4528517E1,4.042404E1,0E0,0E0,0E0,0E0,0E0,0E0,0E0,0E0],"parents":[2147483647,0,0,1,1,2,2,3,3,4,4,5,5,6,6],"right_children":[2,4,6,8,10,12,14,-1,-1,-1,-1,-1,-1,-1,-1],"split_conditions":[4.4859812E-1,-3.6141056E-1,8.947368E-1,-7.526882E-2,1.9021739E-1,-8.6123854E-1,1.2063543E-2,5.866308E-3,-2.7435445E-4,-7.219847E-3,-2.100942E-3,1.1118121E-2,1.78471E-3,1.394144E-2,5.9961434E-3],"split_indices":[155,5,174,1,101,146,5,0,0,0,0,0,0,0,0],"split_type":[0,0,0,0,0,0,0,0,0,0,0,0,0,0,0],"sum_hessian":[2.096E3,1.593E3,5.03E2,5.19E2,1.074E3,1.52E2,3.51E2,1.22E2,3.97E2,4.58E2,6.16E2,2.4E1,1.28E2,2.23E2,1.28E2],"tree_param":{"num_deleted":"0","num_feature":"243","num_nodes":"15","size_leaf_vector":"1"}},{"base_weights":[-8.006215E-4,-2.4912052E-1,7.8027093E-1,-1.1165109E0,-2.0391043E-1,1.0901736E0,4.6101174E-1,-2.0204574E-2,-6.944412E-3,-3.046794E-3,1.5839487E-3,9.3121305E-3,1.7770268E-2,1.7097547E-4,7.6390244E-3],"categories":[],"categories_nodes":[],"categories_segments":[],"categories_sizes":[],"default_left":[0,0,0,0,0,0,0,0,0,0,0,0,0,0,0],"id":47,"left_children":[1,3,5,7,9,11,13,-1,-1,-1,-1,-1,-1,-1,-1],"loss_changes":[4.0362207E2,6.169252E1,4.9164948E1,2.5589691E1,3.5766613E1,3.1296875E1,2.4711887E1,0E0,0E0,0E0,0E0,0E0,0E0,0E0,0E0],"parents":[2147483647,0,0,1,1,2,2,3,3,4,4,5,5,6,6],"right_children":[2,4,6,8,10,12,14,-1,-1,-1,-1,-1,-1,-1,-1],"split_conditions":[4.5482865E-1,-1.2289989E0,-7.3214287E-1,-7.1452683E-1,2.969697E-1,-3.846154E-1,-4.587556E-1,-2.0204574E-2,-6.944412E-3,-3.046794E-3,1.5839487E-3,9.3121305E-3,1.7770268E-2,1.7097547E-4,7.6390244E-3],"split_indices":[155,85,46,86,150,2,102,0,0,0,0,0,0,0,0],"split_type":[0,0,0,0,0,0,0,0,0,0,0,0,0,0,0],"sum_hessian":[2.079E3,1.578E3,5.01E2,7.7E1,1.501E3,2.53E2,2.48E2,3.1E1,4.6E1,1.252E3,2.49E2,1.69E2,8.4E1,8.3E1,1.65E2],"tree_param":{"num_deleted":"0","num_feature":"243","num_nodes":"15","size_leaf_vector":"1"}},{"base_weights":[2.2685254E-2,-2.1263255E-1,7.465928E-1,-5.894506E-1,-9.362569E-2,1.0794309E0,4.7125813E-1,-1.337052E-2,-4.4468595E-3,-3.2876893E-3,2.3881621E-4,9.16922E-3,1.7375069E-2,4.351335E-3,1.7969012E-2],"categories":[],"categories_nodes":[],"categories_segments":[],"categories_sizes":[],"default_left":[0,0,0,0,0,0,0,0,0,0,0,0,0,0,0],"id":48,"left_children":[1,3,5,7,9,11,13,-1,-1,-1,-1,-1,-1,-1,-1],"loss_changes":[3.6317105E2,7.209871E1,4.7420044E1,4.439731E1,2.8251362E1,2.7772675E1,2.615258E1,0E0,0E0,0E0,0E0,0E0,0E0,0E0,0E0],"parents":[2147483647,0,0,1,1,2,2,3,3,4,4,5,5,6,6],"right_children":[2,4,6,8,10,12,14,-1,-1,-1,-1,-1,-1,-1,-1],"split_conditions":[4.5171338E-1,-4.8578638E-1,-7.3214287E-1,-2.1134369E-1,0E0,-3.846154E-1,8.873632E-1,-1.337052E-2,-4.4468595E-3,-3.2876893E-3,2.3881621E-4,9.16922E-3,1.7375069E-2,4.351335E-3,1.7969012E-2],"split_indices":[155,157,46,63,84,2,69,0,0,0,0,0,0,0,0],"split_type":[0,0,0,0,0,0,0,0,0,0,0,0,0,0,0],"sum_hessian":[2.13E3,1.608E3,5.22E2,3.85E2,1.223E3,2.35E2,2.87E2,9.1E1,2.94E2,4.45E2,7.78E2,1.54E2,8.1E1,2.69E2,1.8E1],"tree_param":{"num_deleted":"0","num_feature":"243","num_nodes":"15","size_leaf_vector":"1"}},{"base_weights":[2.803961E-3,-1.8920425E-1,8.194275E-1,-1.3030919E0,-1.4731058E-1,4.6278822E-1,1.1385562E0,-2.323478E-2,-8.845109E-3,-1.0197093E-2,-1.0116426E-3,1.6243481E-3,1.0444877E-2,1.648069E-2,5.9119896E-3],"categories":[],"categories_nodes":[],"categories_segments":[],"categories_sizes":[],"default_left":[0,0,0,0,0,0,0,0,0,0,0,0,0,0,0],"id":49,"left_children":[1,3,5,7,9,11,13,-1,-1,-1,-1,-1,-1,-1,-1],"loss_changes":[3.3194052E2,7.979158E1,4.5340057E1,2.2977127E1,7.1731224E1,2.8635838E1,4.270871E1,0E0,0E0,0E0,0E0,0E0,0E0,0E0,0E0],"parents":[2147483647,0,0,1,1,2,2,3,3,4,4,5,5,6,6],"right_children":[2,4,6,8,10,12,14,-1,-1,-1,-1,-1,-1,-1,-1],"split_conditions":[8.39988E-1,-1.273878E0,8.895349E-1,-2.874396E-1,-1.1272727E0,2.2508591E-1,1.2063543E-2,-2.323478E-2,-8.845109E-3,-1.0197093E-2,-1.0116426E-3,1.6243481E-3,1.0444877E-2,1.648069E-2,5.9119896E-3],"split_indices":[153,85,145,117,27,81,5,0,0,0,0,0,0,0,0],"split_type":[0,0,0,0,0,0,0,0,0,0,0,0,0,0,0],"sum_hessian":[2.115E3,1.713E3,4.02E2,6.1E1,1.652E3,1.91E2,2.11E2,2.3E1,3.8E1,1.13E2,1.539E3,1.15E2,7.6E1,1.35E2,7.6E1],"tree_param":{"num_deleted":"0","num_feature":"243","num_nodes":"15","size_leaf_vector":"1"}},{"base_weights":[-1.1397147E-2,-2.42571E-1,7.141275E-1,-7.3680633E-1,-1.4031239E-1,1.2418416E0,5.148357E-1,-1.0582368E-2,-2.2488025E-3,-4.7791693E-3,-4.7583555E-4,2.1386048E-2,1.06982505E-2,6.8858517E-3,-3.489685E-3],"categories":[],"categories_nodes":[],"categories_segments":[],"categories_sizes":[],"default_left":[0,0,0,0,0,0,0,0,0,0,0,0,0,0,0],"id":50,"left_children":[1,3,5,7,9,11,13,-1,-1,-1,-1,-1,-1,-1,-1],"loss_changes":[3.51216E2,8.015385E1,5.2576233E1,3.046019E1,3.6978897E1,2.45428E1,3.1180374E1,0E0,0E0,0E0,0E0,0E0,0E0,0E0,0E0],"parents":[2147483647,0,0,1,1,2,2,3,3,4,4,5,5,6,6],"right_children":[2,4,6,8,10,12,14,-1,-1,-1,-1,-1,-1,-1,-1],"split_conditions":[4.5171338E-1,-8.72494E-1,-8.1461906E-1,-1.8674386E-1,-6.314566E-1,-3.4191132E-1,-1.0752688E-2,-1.0582368E-2,-2.2488025E-3,-4.7791693E-3,-4.7583555E-4,2.1386048E-2,1.06982505E-2,6.8858517E-3,-3.489685E-3],"split_indices":[155,89,90,157,4,45,1,0,0,0,0,0,0,0,0],"split_type":[0,0,0,0,0,0,0,0,0,0,0,0,0,0,0],"sum_hessian":[2.092E3,1.587E3,5.05E2,2.71E2,1.316E3,1.37E2,3.68E2,1.94E2,7.7E1,3.33E2,9.83E2,3.9E1,9.8E1,3.28E2,4E1],"tree_param":{"num_deleted":"0","num_feature":"243","num_nodes":"15","size_leaf_vector":"1"}},{"base_weights":[-1.5033958E-2,-2.3494717E-1,7.4727076E-1,-1.0891942E0,-1.7591913E-1,3.63199E-1,1.1363344E0,-1.5284262E-4,-1.5683195E-2,5.1216422E-5,-4.5098457E-3,6.1088116E-3,-1.4426593E-3,2.062296E-2,1.0656296E-2],"categories":[],"categories_nodes":[],"categories_segments":[],"categories_sizes":[],"default_left":[0,0,0,0,0,0,0,0,0,0,0,0,0,0,0],"id":51,"left_children":[1,3,5,7,9,11,13,-1,-1,-1,-1,-1,-1,-1,-1],"loss_changes":[3.5490366E2,8.2655914E1,7.041635E1,3.5848587E1,6.3231236E1,2.1765228E1,2.867102E1,0E0,0E0,0E0,0E0,0E0,0E0,0E0,0E0],"parents":[2147483647,0,0,1,1,2,2,3,3,4,4,5,5,6,6],"right_children":[2,4,6,8,10,12,14,-1,-1,-1,-1,-1,-1,-1,-1],"split_conditions":[5.1512563E-1,-1.1090909E0,-3.3333334E-1,-9.096386E-1,3.655914E-1,-6.715471E-1,-3.490188E-1,-1.5284262E-4,-1.5683195E-2,5.1216422E-5,-4.5098457E-3,6.1088116E-3,-1.4426593E-3,2.062296E-2,1.0656296E-2],"split_indices":[4,27,0,39,1,44,45,0,0,0,0,0,0,0,0],"split_type":[0,0,0,0,0,0,0,0,0,0,0,0,0,0,0],"sum_hessian":[2.115E3,1.642E3,4.73E2,1.05E2,1.537E3,2.39E2,2.34E2,2.4E1,8.1E1,8.58E2,6.79E2,1.74E2,6.5E1,4.6E1,1.88E2],"tree_param":{"num_deleted":"0","num_feature":"243","num_nodes":"15","size_leaf_vector":"1"}},{"base_weights":[-6.130436E-3,-2.3973933E-1,6.705565E-1,-8.926728E-1,-1.4614712E-1,9.6952593E-1,2.7074307E-1,-3.1957729E-3,-1.3890645E-2,-1.508219E-2,-1.2944939E-3,1.3497565E-2,3.916081E-3,4.574866E-3,-6.3209436E-3],"categories":[],"categories_nodes":[],"categories_segments":[],"categories_sizes":[],"default_left":[0,0,0,0,0,0,0,0,0,0,0,0,0,0,0],"id":52,"left_children":[1,3,5,7,9,11,13,-1,-1,-1,-1,-1,-1,-1,-1],"loss_changes":[3.2770267E2,9.403927E1,6.332852E1,4.0701736E1,4.9012726E1,4.44841E1,2.6812628E1,0E0,0E0,0E0,0E0,0E0,0E0,0E0,0E0],"parents":[2147483647,0,0,1,1,2,2,3,3,4,4,5,5,6,6],"right_children":[2,4,6,8,10,12,14,-1,-1,-1,-1,-1,-1,-1,-1],"split_conditions":[6.8421054E-1,-9.4545454E-1,2.1105977E-2,2.5042203E-1,-1.273878E0,-3.9285713E-1,-4.1492015E-1,-3.1957729E-3,-1.3890645E-2,-1.508219E-2,-1.2944939E-3,1.3497565E-2,3.916081E-3,4.574866E-3,-6.3209436E-3],"split_indices":[174,27,5,122,85,46,59,0,0,0,0,0,0,0,0],"split_type":[0,0,0,0,0,0,0,0,0,0,0,0,0,0,0],"sum_hessian":[2.071E3,1.54E3,5.31E2,1.92E2,1.348E3,3.03E2,2.28E2,7.1E1,1.21E2,3.2E1,1.316E3,2.18E2,8.5E1,1.96E2,3.2E1],"tree_param":{"num_deleted":"0","num_feature":"243","num_nodes":"15","size_leaf_vector":"1"}},{"base_weights":[6.8911174E-3,-2.0478706E-1,6.962211E-1,7.311607E-2,-3.417478E-1,1.0343583E0,3.73918E-1,6.2015494E-3,-4.4106046E-4,-6.741955E-3,-1.5961722E-3,5.6057023E-3,1.3675456E-2,3.3796541E-3,1.671537E-2],"categories":[],"categories_nodes":[],"categories_segments":[],"categories_sizes":[],"default_left":[0,0,0,0,0,0,0,0,0,0,0,0,0,0,0],"id":53,"left_children":[1,3,5,7,9,11,13,-1,-1,-1,-1,-1,-1,-1,-1],"loss_changes":[3.0744193E2,6.138063E1,5.3559647E1,2.8947699E1,5.6128716E1,2.3739624E1,1.9981731E1,0E0,0E0,0E0,0E0,0E0,0E0,0E0,0E0],"parents":[2147483647,0,0,1,1,2,2,3,3,4,4,5,5,6,6],"right_children":[2,4,6,8,10,12,14,-1,-1,-1,-1,-1,-1,-1,-1],"split_conditions":[4.5482865E-1,-3.6141056E-1,-7.3214287E-1,-7.692308E-2,1.8206522E-1,-8.269231E-1,8.873632E-1,6.2015494E-3,-4.4106046E-4,-6.741955E-3,-1.5961722E-3,5.6057023E-3,1.3675456E-2,3.3796541E-3,1.671537E-2],"split_indices":[155,5,46,2,101,23,69,0,0,0,0,0,0,0,0],"split_type":[0,0,0,0,0,0,0,0,0,0,0,0,0,0,0],"sum_hessian":[2.105E3,1.611E3,4.94E2,5.32E2,1.079E3,2.4E2,2.54E2,1E2,4.32E2,4.65E2,6.14E2,6.4E1,1.76E2,2.4E2,1.4E1],"tree_param":{"num_deleted":"0","num_feature":"243","num_nodes":"15","size_leaf_vector":"1"}},{"base_weights":[3.5065666E-2,-2.2093739E-1,6.5281844E-1,-8.1350046E-1,-1.3883284E-1,4.781672E-2,8.142197E-1,-2.0509882E-2,-7.701213E-3,-2.0754026E-2,-1.3722952E-3,-4.1495616E-4,1.3446675E-2,5.038494E-3,1.1198303E-2],"categories":[],"categories_nodes":[],"categories_segments":[],"categories_sizes":[],"default_left":[0,0,0,0,0,0,0,0,0,0,0,0,0,0,0],"id":54,"left_children":[1,3,5,7,9,11,13,-1,-1,-1,-1,-1,-1,-1,-1],"loss_changes":[3.3304282E2,7.233008E1,6.020993E1,2.1709824E1,3.5767174E1,1.2908465E1,3.282898E1,0E0,0E0,0E0,0E0,0E0,0E0,0E0,0E0],"parents":[2147483647,0,0,1,1,2,2,3,3,4,4,5,5,6,6],"right_children":[2,4,6,8,10,12,14,-1,-1,-1,-1,-1,-1,-1,-1],"split_conditions":[3.520249E-1,-9.647153E-1,4.2832553E-1,-1.2979398E0,-3.1666667E0,1.0983261E0,-4.8924732E-1,-2.0509882E-2,-7.701213E-3,-2.0754026E-2,-1.3722952E-3,-4.1495616E-4,1.3446675E-2,5.038494E-3,1.1198303E-2],"split_indices":[155,89,6,20,18,167,1,0,0,0,0,0,0,0,0],"split_type":[0,0,0,0,0,0,0,0,0,0,0,0,0,0,0],"sum_hessian":[2.104E3,1.488E3,6.16E2,1.8E2,1.308E3,1.3E2,4.86E2,1.8E1,1.62E2,1.1E1,1.297E3,1.22E2,8E0,1.67E2,3.19E2],"tree_param":{"num_deleted":"0","num_feature":"243","num_nodes":"15","size_leaf_vector":"1"}},{"base_weights":[-1.632783E-2,-3.212516E-1,4.4550747E-1,-8.668704E-1,-2.2754768E-1,2.3689474E-1,8.987302E-1,-1.7999873E-3,-1.3328601E-2,-2.1625899E-2,-2.1018332E-3,-1.2239894E-3,4.4208006E-3,5.2688555E-3,1.2710765E-2],"categories":[],"categories_nodes":[],"categories_segments":[],"categories_sizes":[],"default_left":[0,0,0,0,0,0,0,0,0,0,0,0,0,0,0],"id":55,"left_children":[1,3,5,7,9,11,13,-1,-1,-1,-1,-1,-1,-1,-1],"loss_changes":[2.924949E2,6.3762146E1,7.788377E1,4.1934845E1,7.160357E1,3.1240671E1,2.6006104E1,0E0,0E0,0E0,0E0,0E0,0E0,0E0,0E0],"parents":[2147483647,0,0,1,1,2,2,3,3,4,4,5,5,6,6],"right_children":[2,4,6,8,10,12,14,-1,-1,-1,-1,-1,-1,-1,-1],"split_conditions":[1.5576324E-1,-9.4545454E-1,7.909091E-1,3.3546314E-2,-1.3256617E0,1.677514E-2,-4.784946E-1,-1.7999873E-3,-1.3328601E-2,-2.1625899E-2,-2.1018332E-3,-1.2239894E-3,4.4208006E-3,5.2688555E-3,1.2710765E-2],"split_indices":[155,27,150,126,85,4,1,0,0,0,0,0,0,0,0],"split_type":[0,0,0,0,0,0,0,0,0,0,0,0,0,0,0],"sum_hessian":[2.075E3,1.25E3,8.25E2,1.82E2,1.068E3,5.66E2,2.59E2,5.8E1,1.24E2,2.3E1,1.045E3,1.78E2,3.88E2,9.4E1,1.65E2],"tree_param":{"num_deleted":"0","num_feature":"243","num_nodes":"15","size_leaf_vector":"1"}},{"base_weights":[-3.3974762E-3,-1.9957165E-1,7.231648E-1,6.6693135E-2,-3.8042703E-1,3.2676214E-1,1.1109918E0,1.4228782E-2,3.682266E-4,-6.370962E-3,-1.4789066E-3,5.667079E-3,-1.94826E-3,4.4620936E-3,1.4683676E-2],"categories":[],"categories_nodes":[],"categories_segments":[],"categories_sizes":[],"default_left":[0,0,0,0,0,0,0,0,0,0,0,0,0,0,0],"id":56,"left_children":[1,3,5,7,9,11,13,-1,-1,-1,-1,-1,-1,-1,-1],"loss_changes":[2.963274E2,7.885578E1,6.758815E1,2.6951023E1,4.5837296E1,1.9989346E1,3.1743805E1,0E0,0E0,0E0,0E0,0E0,0E0,0E0,0E0],"parents":[2147483647,0,0,1,1,2,2,3,3,4,4,5,5,6,6],"right_children":[2,4,6,8,10,12,14,-1,-1,-1,-1,-1,-1,-1,-1],"split_conditions":[5.230708E-1,-3.076775E-1,-4.784946E-1,-1.001379E0,-1.6735336E-1,-6.634944E-1,5.642857E-1,1.4228782E-2,3.682266E-4,-6.370962E-3,-1.4789066E-3,5.667079E-3,-1.94826E-3,4.4620936E-3,1.4683676E-2],"split_indices":[4,5,1,154,153,44,140,0,0,0,0,0,0,0,0],"split_type":[0,0,0,0,0,0,0,0,0,0,0,0,0,0,0],"sum_hessian":[2.077E3,1.636E3,4.41E2,6.62E2,9.74E2,2.19E2,2.22E2,1.7E1,6.45E2,5.51E2,4.23E2,1.61E2,5.8E1,5E1,1.72E2],"tree_param":{"num_deleted":"0","num_feature":"243","num_nodes":"15","size_leaf_vector":"1"}},{"base_weights":[1.48086045E-2,-2.0392412E-1,6.6109264E-1,-6.7570513E-1,-1.1989109E-1,9.154896E-1,3.6930382E-1,-8.4810555E-3,9.165482E-3,-1.80858E-2,-1.1350962E-3,7.6582E-3,1.451075E-2,5.0134683E-4,6.679365E-3],"categories":[],"categories_nodes":[],"categories_segments":[],"categories_sizes":[],"default_left":[0,0,0,0,0,0,0,0,0,0,0,0,0,0,0],"id":57,"left_children":[1,3,5,7,9,11,13,-1,-1,-1,-1,-1,-1,-1,-1],"loss_changes":[2.9685675E2,6.212229E1,3.907811E1,3.0208466E1,3.6377445E1,2.4063538E1,1.8437634E1,0E0,0E0,0E0,0E0,0E0,0E0,0E0,0E0],"parents":[2147483647,0,0,1,1,2,2,3,3,4,4,5,5,6,6],"right_children":[2,4,6,8,10,12,14,-1,-1,-1,-1,-1,-1,-1,-1],"split_conditions":[4.4548288E-1,-9.217491E-1,-5.4464287E-1,4.7058824E-1,-2.9444444E0,-4.1935483E-1,1.627907E-1,-8.4810555E-3,9.165482E-3,-1.80858E-2,-1.1350962E-3,7.6582E-3,1.451075E-2,5.0134683E-4,6.679365E-3],"split_indices":[155,85,46,22,18,1,8,0,0,0,0,0,0,0,0],"split_type":[0,0,0,0,0,0,0,0,0,0,0,0,0,0,0],"sum_hessian":[2.098E3,1.568E3,5.3E2,2.36E2,1.332E3,2.82E2,2.48E2,2.24E2,1.2E1,1.5E1,1.317E3,1.78E2,1.04E2,1.03E2,1.45E2],"tree_param":{"num_deleted":"0","num_feature":"243","num_nodes":"15","size_leaf_vector":"1"}},{"base_weights":[9.561118E-3,-2.4596989E-1,6.207079E-1,-5.9360117E-1,-7.279865E-2,9.4792217E-1,3.2043782E-1,-2.086003E-2,-5.9042145E-3,-2.1543095E-3,2.3247031E-3,1.481322E-2,7.460203E-3,2.0332313E-3,9.21348E-3],"categories":[],"categories_nodes":[],"categories_segments":[],"categories_sizes":[],"default_left":[0,0,0,0,0,0,0,0,0,0,0,0,0,0,0],"id":58,"left_children":[1,3,5,7,9,11,13,-1,-1,-1,-1,-1,-1,-1,-1],"loss_changes":[3.204511E2,8.706582E1,5.91391E1,3.8900406E1,3.264338E1,2.9720734E1,2.1980206E1,0E0,0E0,0E0,0E0,0E0,0E0,0E0,0E0],"parents":[2147483647,0,0,1,1,2,2,3,3,4,4,5,5,6,6],"right_children":[2,4,6,8,10,12,14,-1,-1,-1,-1,-1,-1,-1,-1],"split_conditions":[3.939394E-1,-5.9663194E-1,-5.4464287E-1,-1.7647059E0,8.8297874E-1,-1.3519785E-1,6.642061E-1,-2.086003E-2,-5.9042145E-3,-2.1543095E-3,2.3247031E-3,1.481322E-2,7.460203E-3,2.0332313E-3,9.21348E-3],"split_indices":[150,89,46,22,83,5,41,0,0,0,0,0,0,0,0],"split_type":[0,0,0,0,0,0,0,0,0,0,0,0,0,0,0],"sum_hessian":[2.05E3,1.446E3,6.04E2,4.8E2,9.66E2,2.88E2,3.16E2,2.2E1,4.58E2,6.77E2,2.89E2,1.21E2,1.67E2,2.49E2,6.7E1],"tree_param":{"num_deleted":"0","num_feature":"243","num_nodes":"15","size_leaf_vector":"1"}},{"base_weights":[-1.4387259E-2,-2.2960211E-1,7.187328E-1,-6.089202E-1,-1.0077661E-1,2.9494536E-1,1.065076E0,-1.8868482E-2,-5.6263264E-3,-1.0518991E-2,-6.519675E-4,4.9910066E-3,-3.6046458E-3,2.0168088E-2,9.892475E-3],"categories":[],"categories_nodes":[],"categories_segments":[],"categories_sizes":[],"default_left":[0,0,0,0,0,0,0,0,0,0,0,0,0,0,0],"id":59,"left_children":[1,3,5,7,9,11,13,-1,-1,-1,-1,-1,-1,-1,-1],"loss_changes":[3.3023724E2,7.900358E1,6.94044E1,4.5778656E1,4.3063942E1,2.0301058E1,3.3096924E1,0E0,0E0,0E0,0E0,0E0,0E0,0E0,0E0],"parents":[2147483647,0,0,1,1,2,2,3,3,4,4,5,5,6,6],"right_children":[2,4,6,8,10,12,14,-1,-1,-1,-1,-1,-1,-1,-1],"split_conditions":[5.230708E-1,-4.7079343E-1,-4.8924732E-1,-2.0289905E-1,-1.1272727E0,-4.2553192E-1,-3.4191132E-1,-1.8868482E-2,-5.6263264E-3,-1.0518991E-2,-6.519675E-4,4.9910066E-3,-3.6046458E-3,2.0168088E-2,9.892475E-3],"split_indices":[4,157,1,154,27,60,45,0,0,0,0,0,0,0,0],"split_type":[0,0,0,0,0,0,0,0,0,0,0,0,0,0,0],"sum_hessian":[2.091E3,1.617E3,4.74E2,4.09E2,1.208E3,2.14E2,2.6E2,3.5E1,3.74E2,5.7E1,1.151E3,1.72E2,4.2E1,4.9E1,2.11E2],"tree_param":{"num_deleted":"0","num_feature":"243","num_nodes":"15","size_leaf_vector":"1"}},{"base_weights":[-1.2944839E-2,-2.2315842E-1,6.5213513E-1,-7.1052504E-1,-1.2354337E-1,1.1444995E0,4.7754934E-1,-1.0893307E-2,-3.5530662E-3,-4.615574E-3,-4.880826E-4,2.1305986E-2,1.0287541E-2,8.498604E-3,3.4438793E-3],"categories":[],"categories_nodes":[],"categories_segments":[],"categories_sizes":[],"default_left":[0,0,0,0,0,0,0,0,0,0,0,0,0,0,0],"id":60,"left_children":[1,3,5,7,9,11,13,-1,-1,-1,-1,-1,-1,-1,-1],"loss_changes":[2.9514218E2,7.7784904E1,4.3035065E1,2.7931427E1,3.0808775E1,2.0758118E1,1.778939E1,0E0,0E0,0E0,0E0,0E0,0E0,0E0,0E0],"parents":[2147483647,0,0,1,1,2,2,3,3,4,4,5,5,6,6],"right_children":[2,4,6,8,10,12,14,-1,-1,-1,-1,-1,-1,-1,-1],"split_conditions":[4.4548288E-1,-8.72494E-1,-8.1461906E-1,5.1724136E-1,-6.676412E-1,-4.9597806E-1,-6.287879E-1,-1.0893307E-2,-3.5530662E-3,-4.615574E-3,-4.880826E-4,2.1305986E-2,1.0287541E-2,8.498604E-3,3.4438793E-3],"split_indices":[155,89,90,111,6,45,38,0,0,0,0,0,0,0,0],"split_type":[0,0,0,0,0,0,0,0,0,0,0,0,0,0,0],"sum_hessian":[2.109E3,1.603E3,5.06E2,2.71E2,1.332E3,1.31E2,3.75E2,1.61E2,1.1E2,2.87E2,1.045E3,2.8E1,1.03E2,1.39E2,2.36E2],"tree_param":{"num_deleted":"0","num_feature":"243","num_nodes":"15","size_leaf_vector":"1"}},{"base_weights":[2.1908341E-3,-1.9759406E-1,6.104811E-1,-1.1458398E0,-1.5176322E-1,1.0311682E0,4.5179656E-1,-1.9867862E-2,-5.57949E-3,-1.2243446E-3,-1.0983361E-2,7.2370805E-3,1.6212564E-2,4.4070487E-3,1.6813815E-2],"categories":[],"categories_nodes":[],"categories_segments":[],"categories_sizes":[],"default_left":[0,0,0,0,0,0,0,0,0,0,0,0,0,0,0],"id":61,"left_children":[1,3,5,7,9,11,13,-1,-1,-1,-1,-1,-1,-1,-1],"loss_changes":[2.5265414E2,6.783929E1,3.3846985E1,2.8551674E1,5.22716E1,2.160373E1,2.2044876E1,0E0,0E0,0E0,0E0,0E0,0E0,0E0,0E0],"parents":[2147483647,0,0,1,1,2,2,3,3,4,4,5,5,6,6],"right_children":[2,4,6,8,10,12,14,-1,-1,-1,-1,-1,-1,-1,-1],"split_conditions":[4.4548288E-1,-1.2475878E0,-8.1461906E-1,-5.937524E-1,1.4975916E0,-4.1935483E-1,8.873632E-1,-1.9867862E-2,-5.57949E-3,-1.2243446E-3,-1.0983361E-2,7.2370805E-3,1.6212564E-2,4.4070487E-3,1.6813815E-2],"split_indices":[155,85,90,82,25,1,69,0,0,0,0,0,0,0,0],"split_type":[0,0,0,0,0,0,0,0,0,0,0,0,0,0,0],"sum_hessian":[2.077E3,1.564E3,5.13E2,7.1E1,1.493E3,1.39E2,3.74E2,3.5E1,3.6E1,1.422E3,7.1E1,7.4E1,6.5E1,3.56E2,1.8E1],"tree_param":{"num_deleted":"0","num_feature":"243","num_nodes":"15","size_leaf_vector":"1"}},{"base_weights":[-8.184481E-3,-2.4252185E-1,5.76701E-1,-6.6235626E-1,-1.5956362E-1,3.0677158E-1,9.698762E-1,-4.7923115E-4,-1.1693681E-2,4.962028E-3,-2.43321E-3,5.312714E-3,-1.5093695E-3,9.826067E-3,2.4666231E-2],"categories":[],"categories_nodes":[],"categories_segments":[],"categories_sizes":[],"default_left":[0,0,0,0,0,0,0,0,0,0,0,0,0,0,0],"id":62,"left_children":[1,3,5,7,9,11,13,-1,-1,-1,-1,-1,-1,-1,-1],"loss_changes":[2.8892636E2,5.2311546E1,6.3698593E1,5.9001556E1,4.43244E1,2.6837223E1,2.5459213E1,0E0,0E0,0E0,0E0,0E0,0E0,0E0,0E0],"parents":[2147483647,0,0,1,1,2,2,3,3,4,4,5,5,6,6],"right_children":[2,4,6,8,10,12,14,-1,-1,-1,-1,-1,-1,-1,-1],"split_conditions":[3.939394E-1,-9.4545454E-1,8.575758E-1,-4.8945147E-1,-4.8786187E-1,4.3010753E-2,1.406398E0,-4.7923115E-4,-1.1693681E-2,4.962028E-3,-2.43321E-3,5.312714E-3,-1.5093695E-3,9.826067E-3,2.4666231E-2],"split_indices":[150,27,150,127,64,1,156,0,0,0,0,0,0,0,0],"split_type":[0,0,0,0,0,0,0,0,0,0,0,0,0,0,0],"sum_hessian":[2.106E3,1.504E3,6.02E2,2.47E2,1.257E3,3.58E2,2.44E2,9.5E1,1.52E2,1.1E2,1.147E3,2.59E2,9.9E1,2.29E2,1.5E1],"tree_param":{"num_deleted":"0","num_feature":"243","num_nodes":"15","size_leaf_vector":"1"}},{"base_weights":[-2.8503065E-3,-1.481909E-1,8.084151E-1,-4.8518983E-1,-2.3262132E-2,1.0863062E0,4.0343842E-1,-1.0239771E-2,-2.8869177E-3,-2.875757E-3,1.4576408E-3,1.6715242E-2,7.6678176E-3,2.124235E-2,2.6410702E-3],"categories":[],"categories_nodes":[],"categories_segments":[],"categories_sizes":[],"default_left":[0,0,0,0,0,0,0,0,0,0,0,0,0,0,0],"id":63,"left_children":[1,3,5,7,9,11,13,-1,-1,-1,-1,-1,-1,-1,-1],"loss_changes":[2.467871E2,7.471774E1,3.5349274E1,4.672056E1,4.6685886E1,2.9792969E1,3.232854E1,0E0,0E0,0E0,0E0,0E0,0E0,0E0,0E0],"parents":[2147483647,0,0,1,1,2,2,3,3,4,4,5,5,6,6],"right_children":[2,4,6,8,10,12,14,-1,-1,-1,-1,-1,-1,-1,-1],"split_conditions":[6.635514E-1,-5.9663194E-1,-7.3214287E-1,2.173913E-1,-3.3019802E-1,-9.937389E-2,-3.774021E-1,-1.0239771E-2,-2.8869177E-3,-2.875757E-3,1.4576408E-3,1.6715242E-2,7.6678176E-3,2.124235E-2,2.6410702E-3],"split_indices":[155,89,46,101,17,5,45,0,0,0,0,0,0,0,0],"split_type":[0,0,0,0,0,0,0,0,0,0,0,0,0,0,0],"sum_hessian":[2.091E3,1.774E3,3.17E2,4.79E2,1.295E3,1.87E2,1.3E2,1.64E2,3.15E2,5.13E2,7.82E2,9.1E1,9.6E1,1.2E1,1.18E2],"tree_param":{"num_deleted":"0","num_feature":"243","num_nodes":"15","size_leaf_vector":"1"}},{"base_weights":[1.1129274E-2,-1.9562347E-1,6.3294154E-1,-5.371714E-1,-6.9371246E-2,3.8457674E-1,9.701937E-1,-2.4702342E-2,-5.2111573E-3,-1.769111E-3,3.7547646E-3,2.6480474E-3,1.3032695E-2,2.084452E-2,9.5207915E-3],"categories":[],"categories_nodes":[],"categories_segments":[],"categories_sizes":[],"default_left":[0,0,0,0,0,0,0,0,0,0,0,0,0,0,0],"id":64,"left_children":[1,3,5,7,9,11,13,-1,-1,-1,-1,-1,-1,-1,-1],"loss_changes":[2.7048843E2,6.80511E1,4.36017E1,4.9397644E1,4.1688633E1,3.4799328E1,2.1867813E1,0E0,0E0,0E0,0E0,0E0,0E0,0E0,0E0],"parents":[2147483647,0,0,1,1,2,2,3,3,4,4,5,5,6,6],"right_children":[2,4,6,8,10,12,14,-1,-1,-1,-1,-1,-1,-1,-1],"split_conditions":[7.105263E-1,-4.7079343E-1,8.895349E-1,-7.818398E-1,9.9140894E-1,6.386555E-1,-1.8928572E0,-2.4702342E-2,-5.2111573E-3,-1.769111E-3,3.7547646E-3,2.6480474E-3,1.3032695E-2,2.084452E-2,9.5207915E-3],"split_indices":[174,157,145,86,81,87,46,0,0,0,0,0,0,0,0],"split_type":[0,0,0,0,0,0,0,0,0,0,0,0,0,0,0],"sum_hessian":[2.102E3,1.578E3,5.24E2,4.25E2,1.153E3,3.03E2,2.21E2,1.6E1,4.09E2,9.46E2,2.07E2,2.56E2,4.7E1,2.4E1,1.97E2],"tree_param":{"num_deleted":"0","num_feature":"243","num_nodes":"15","size_leaf_vector":"1"}},{"base_weights":[4.410487E-3,-1.9288146E-1,6.826702E-1,7.034918E-2,-3.6304396E-1,1.0719047E0,3.1289127E-1,-7.3880574E-4,3.3429447E-3,-5.640422E-3,-6.4830855E-4,1.9964777E-2,1.02483025E-2,5.6235236E-3,3.0059478E-4],"categories":[],"categories_nodes":[],"categories_segments":[],"categories_sizes":[],"default_left":[0,0,0,0,0,0,0,0,0,0,0,0,0,0,0],"id":65,"left_children":[1,3,5,7,9,11,13,-1,-1,-1,-1,-1,-1,-1,-1],"loss_changes":[2.8208026E2,7.3170845E1,6.803168E1,2.007428E1,4.2885727E1,2.389627E1,1.3332228E1,0E0,0E0,0E0,0E0,0E0,0E0,0E0,0E0],"parents":[2147483647,0,0,1,1,2,2,3,3,4,4,5,5,6,6],"right_children":[2,4,6,8,10,12,14,-1,-1,-1,-1,-1,-1,-1,-1],"split_conditions":[5.230708E-1,-3.3752352E-1,-1.6211542E-17,8.8297874E-1,5.714286E-1,-3.490188E-1,-9.0163934E-1,-7.3880574E-4,3.3429447E-3,-5.640422E-3,-6.4830855E-4,1.9964777E-2,1.02483025E-2,5.6235236E-3,3.0059478E-4],"split_indices":[4,5,7,83,112,45,42,0,0,0,0,0,0,0,0],"split_type":[0,0,0,0,0,0,0,0,0,0,0,0,0,0,0],"sum_hessian":[2.106E3,1.632E3,4.74E2,6.41E2,9.91E2,2.3E2,2.44E2,4.02E2,2.39E2,6.76E2,3.15E2,3.9E1,1.91E2,1.46E2,9.8E1],"tree_param":{"num_deleted":"0","num_feature":"243","num_nodes":"15","size_leaf_vector":"1"}},{"base_weights":[3.6390945E-2,-1.7643552E-1,6.667857E-1,-7.6886106E-1,-1.0646458E-1,4.1582876E-1,1.0088749E0,-1.300214E-2,-4.3337476E-3,-1.5562788E-3,6.4146523E-3,3.0728043E-3,1.2699665E-2,5.636869E-3,1.4741302E-2],"categories":[],"categories_nodes":[],"categories_segments":[],"categories_sizes":[],"default_left":[0,0,0,0,0,0,0,0,0,0,0,0,0,0,0],"id":66,"left_children":[1,3,5,7,9,11,13,-1,-1,-1,-1,-1,-1,-1,-1],"loss_changes":[2.8226602E2,6.512304E1,4.5166626E1,2.4525055E1,3.1550957E1,3.0946903E1,3.442476E1,0E0,0E0,0E0,0E0,0E0,0E0,0E0,0E0],"parents":[2147483647,0,0,1,1,2,2,3,3,4,4,5,5,6,6],"right_children":[2,4,6,8,10,12,14,-1,-1,-1,-1,-1,-1,-1,-1],"split_conditions":[5.948011E-1,-9.647153E-1,8.895349E-1,-6.0755813E-1,2.5833333E0,8.035714E-1,-4.784946E-1,-1.300214E-2,-4.3337476E-3,-1.5562788E-3,6.4146523E-3,3.0728043E-3,1.2699665E-2,5.636869E-3,1.4741302E-2],"split_indices":[153,89,145,145,80,91,1,0,0,0,0,0,0,0,0],"split_type":[0,0,0,0,0,0,0,0,0,0,0,0,0,0,0],"sum_hessian":[2.102E3,1.572E3,5.3E2,1.65E2,1.407E3,3.07E2,2.23E2,8E1,8.5E1,1.343E3,6.4E1,2.58E2,4.9E1,8.6E1,1.37E2],"tree_param":{"num_deleted":"0","num_feature":"243","num_nodes":"15","size_leaf_vector":"1"}},{"base_weights":[-3.5096508E-2,-2.2451116E-1,6.0078424E-1,5.278184E-2,-3.864067E-1,9.676546E-1,1.9653486E-1,4.4651907E-3,-1.0000368E-3,-1.7938336E-2,-3.8329118E-3,1.8151449E-2,9.099762E-3,4.2975717E-3,-3.9014434E-3],"categories":[],"categories_nodes":[],"categories_segments":[],"categories_sizes":[],"default_left":[0,0,0,0,0,0,0,0,0,0,0,0,0,0,0],"id":67,"left_children":[1,3,5,7,9,11,13,-1,-1,-1,-1,-1,-1,-1,-1],"loss_changes":[2.5451503E2,7.310537E1,7.173877E1,2.9702557E1,5.374727E1,2.4234177E1,2.3956139E1,0E0,0E0,0E0,0E0,0E0,0E0,0E0,0E0],"parents":[2147483647,0,0,1,1,2,2,3,3,4,4,5,5,6,6],"right_children":[2,4,6,8,10,12,14,-1,-1,-1,-1,-1,-1,-1,-1],"split_conditions":[5.1512563E-1,-3.6141056E-1,1.2063543E-2,-3.646972E-1,-1.9375E0,-3.4191132E-1,-4.1492015E-1,4.4651907E-3,-1.0000368E-3,-1.7938336E-2,-3.8329118E-3,1.8151449E-2,9.099762E-3,4.2975717E-3,-3.9014434E-3],"split_indices":[4,5,5,143,26,45,59,0,0,0,0,0,0,0,0],"split_type":[0,0,0,0,0,0,0,0,0,0,0,0,0,0,0],"sum_hessian":[2.111E3,1.627E3,4.84E2,6E2,1.027E3,2.53E2,2.31E2,1.74E2,4.26E2,3.4E1,9.93E2,4.6E1,2.07E2,1.72E2,5.9E1],"tree_param":{"num_deleted":"0","num_feature":"243","num_nodes":"15","size_leaf_vector":"1"}},{"base_weights":[-1.9980632E-2,-2.4746928E-1,5.287219E-1,-9.156572E-1,-1.9152878E-1,6.599568E-1,-1.4936228E-1,-6.4569633E-3,-2.185585E-2,-2.595596E-3,4.8896293E-3,-1.0598163E-2,7.815711E-3,7.2058704E-4,-7.426857E-3],"categories":[],"categories_nodes":[],"categories_segments":[],"categories_sizes":[],"default_left":[0,0,0,0,0,0,0,0,0,0,0,0,0,0,0],"id":68,"left_children":[1,3,5,7,9,11,13,-1,-1,-1,-1,-1,-1,-1,-1],"loss_changes":[2.6575546E2,5.607966E1,5.562729E1,3.9634666E1,3.5788933E1,3.400598E1,1.1286231E1,0E0,0E0,0E0,0E0,0E0,0E0,0E0,0E0],"parents":[2147483647,0,0,1,1,2,2,3,3,4,4,5,5,6,6],"right_children":[2,4,6,8,10,12,14,-1,-1,-1,-1,-1,-1,-1,-1],"split_conditions":[3.939394E-1,-1.0498443E0,4.3010753E-2,4.7331786E-1,2.0062892E0,-4.7484276E-1,5.555556E-1,-6.4569633E-3,-2.185585E-2,-2.595596E-3,4.8896293E-3,-1.0598163E-2,7.815711E-3,7.2058704E-4,-7.426857E-3],"split_indices":[150,155,1,189,77,77,124,0,0,0,0,0,0,0,0],"split_type":[0,0,0,0,0,0,0,0,0,0,0,0,0,0,0],"sum_hessian":[2.127E3,1.504E3,6.23E2,1.15E2,1.389E3,5.22E2,1.01E2,8.8E1,2.7E1,1.305E3,8.4E1,1.2E1,5.1E2,7.2E1,2.9E1],"tree_param":{"num_deleted":"0","num_feature":"243","num_nodes":"15","size_leaf_vector":"1"}},{"base_weights":[1.1363295E-2,-2.0490874E-1,5.262456E-1,5.413399E-2,-3.2087547E-1,6.451716E-1,-1.2775551E-1,3.737896E-3,-2.1012388E-3,-5.1600104E-3,-2.9623962E-4,6.778738E-3,2.2505827E-2,3.2273897E-3,-6.0527963E-3],"categories":[],"categories_nodes":[],"categories_segments":[],"categories_sizes":[],"default_left":[0,0,0,0,0,0,0,0,0,0,0,0,0,0,0],"id":69,"left_children":[1,3,5,7,9,11,13,-1,-1,-1,-1,-1,-1,-1,-1],"loss_changes":[2.3528885E2,4.4717392E1,4.8693497E1,3.1378246E1,4.265448E1,2.6595947E1,1.6889347E1,0E0,0E0,0E0,0E0,0E0,0E0,0E0,0E0],"parents":[2147483647,0,0,1,1,2,2,3,3,4,4,5,5,6,6],"right_children":[2,4,6,8,10,12,14,-1,-1,-1,-1,-1,-1,-1,-1],"split_conditions":[3.939394E-1,-3.2675022E-1,1.2518302E-1,-8.430233E-2,5.3571427E-1,1.5082939E0,4.315312E-1,3.737896E-3,-2.1012388E-3,-5.1600104E-3,-2.9623962E-4,6.778738E-3,2.2505827E-2,3.2273897E-3,-6.0527963E-3],"split_indices":[150,5,44,145,112,156,54,0,0,0,0,0,0,0,0],"split_type":[0,0,0,0,0,0,0,0,0,0,0,0,0,0,0],"sum_hessian":[2.111E3,1.487E3,6.24E2,4.6E2,1.027E3,5.28E2,9.6E1,2.13E2,2.47E2,6.94E2,3.33E2,5.15E2,1.3E1,4.8E1,4.8E1],"tree_param":{"num_deleted":"0","num_feature":"243","num_nodes":"15","size_leaf_vector":"1"}},{"base_weights":[2.4524821E-2,-1.7626114E-1,5.5116284E-1,-1.0432076E0,-1.19378865E-1,8.2664484E-1,1.582614E-1,-1.7862301E-2,-5.948647E-3,-4.670949E-3,-4.5909328E-5,3.331673E-3,1.1205328E-2,-1.4137712E-2,2.579669E-3],"categories":[],"categories_nodes":[],"categories_segments":[],"categories_sizes":[],"default_left":[0,0,0,0,0,0,0,0,0,0,0,0,0,0,0],"id":70,"left_children":[1,3,5,7,9,11,13,-1,-1,-1,-1,-1,-1,-1,-1],"loss_changes":[2.2564381E2,7.6065414E1,6.3620926E1,2.6109352E1,4.9961082E1,3.1943893E1,2.5528896E1,0E0,0E0,0E0,0E0,0E0,0E0,0E0,0E0],"parents":[2147483647,0,0,1,1,2,2,3,3,4,4,5,5,6,6],"right_children":[2,4,6,8,10,12,14,-1,-1,-1,-1,-1,-1,-1,-1],"split_conditions":[6.052632E-1,-1.1090909E0,2.1105977E-2,1.5787444E0,-4.846805E-1,-1.7311233E-1,-3.0588236E0,-1.7862301E-2,-5.948647E-3,-4.670949E-3,-4.5909328E-5,3.331673E-3,1.1205328E-2,-1.4137712E-2,2.579669E-3],"split_indices":[174,27,5,17,153,105,22,0,0,0,0,0,0,0,0],"split_type":[0,0,0,0,0,0,0,0,0,0,0,0,0,0,0],"sum_hessian":[2.132E3,1.544E3,5.88E2,9.4E1,1.45E3,3.45E2,2.43E2,4.4E1,5E1,4.03E2,1.047E3,8.7E1,2.58E2,1.1E1,2.32E2],"tree_param":{"num_deleted":"0","num_feature":"243","num_nodes":"15","size_leaf_vector":"1"}},{"base_weights":[-1.2368672E-2,-2.1453197E-1,5.8851814E-1,-5.3209245E-1,-9.078918E-2,8.432095E-1,2.72458E-1,-2.3654735E-2,-4.888698E-3,-6.648544E-3,-2.6757922E-4,6.829132E-3,1.48011735E-2,1.8971608E-3,1.5021211E-2],"categories":[],"categories_nodes":[],"categories_segments":[],"categories_sizes":[],"default_left":[0,0,0,0,0,0,0,0,0,0,0,0,0,0,0],"id":71,"left_children":[1,3,5,7,9,11,13,-1,-1,-1,-1,-1,-1,-1,-1],"loss_changes":[2.600876E2,6.290361E1,4.3158585E1,6.633834E1,3.8884922E1,3.247957E1,2.6401949E1,0E0,0E0,0E0,0E0,0E0,0E0,0E0,0E0],"parents":[2147483647,0,0,1,1,2,2,3,3,4,4,5,5,6,6],"right_children":[2,4,6,8,10,12,14,-1,-1,-1,-1,-1,-1,-1,-1],"split_conditions":[5.232558E-1,-4.7079343E-1,-5.4464287E-1,-7.4333686E-1,-7.0501E-1,-3.846154E-1,9E-1,-2.3654735E-2,-4.888698E-3,-6.648544E-3,-2.6757922E-4,6.829132E-3,1.48011735E-2,1.8971608E-3,1.5021211E-2],"split_indices":[145,157,46,86,6,2,14,0,0,0,0,0,0,0,0],"split_type":[0,0,0,0,0,0,0,0,0,0,0,0,0,0,0],"sum_hessian":[2.139E3,1.601E3,5.38E2,4.48E2,1.153E3,2.97E2,2.41E2,2.4E1,4.24E2,1.34E2,1.019E3,2.02E2,9.5E1,2.21E2,2E1],"tree_param":{"num_deleted":"0","num_feature":"243","num_nodes":"15","size_leaf_vector":"1"}},{"base_weights":[-1.3029002E-2,-2.340222E-1,4.3639663E-1,-1.6856571E0,-2.0192318E-1,2.571175E-1,8.324653E-1,-3.9426778E-3,-2.1652078E-2,-2.9085644E-3,5.0664316E-3,3.5492904E-3,-5.441805E-3,6.681789E-5,1.1304769E-2],"categories":[],"categories_nodes":[],"categories_segments":[],"categories_sizes":[],"default_left":[0,0,0,0,0,0,0,0,0,0,0,0,0,0,0],"id":72,"left_children":[1,3,5,7,9,11,13,-1,-1,-1,-1,-1,-1,-1,-1],"loss_changes":[2.0638979E2,6.456795E1,4.8425644E1,9.40889E0,5.2348972E1,2.1480295E1,3.1581177E1,0E0,0E0,0E0,0E0,0E0,0E0,0E0,0E0],"parents":[2147483647,0,0,1,1,2,2,3,3,4,4,5,5,6,6],"right_children":[2,4,6,8,10,12,14,-1,-1,-1,-1,-1,-1,-1,-1],"split_conditions":[2.969697E-1,-1.9375E0,8.895349E-1,-1.0625869E0,8.9285713E-1,9.342422E-1,9.8763955E-1,-3.9426778E-3,-2.1652078E-2,-2.9085644E-3,5.0664316E-3,3.5492904E-3,-5.441805E-3,6.681789E-5,1.1304769E-2],"split_indices":[150,26,145,40,112,89,153,0,0,0,0,0,0,0,0],"split_type":[0,0,0,0,0,0,0,0,0,0,0,0,0,0,0],"sum_hessian":[2.076E3,1.392E3,6.84E2,2.9E1,1.363E3,4.72E2,2.12E2,5E0,2.4E1,1.252E3,1.11E2,4.37E2,3.5E1,3.8E1,1.74E2],"tree_param":{"num_deleted":"0","num_feature":"243","num_nodes":"15","size_leaf_vector":"1"}},{"base_weights":[9.135795E-3,-1.7054464E-1,5.9536576E-1,-6.983979E-1,-9.301928E-2,9.4039476E-1,2.2763483E-1,-5.4799765E-4,-1.1091301E-2,-1.9598782E-2,-8.2373066E-4,1.219381E-2,3.409428E-3,4.2709126E-3,-3.3148467E-3],"categories":[],"categories_nodes":[],"categories_segments":[],"categories_sizes":[],"default_left":[0,0,0,0,0,0,0,0,0,0,0,0,0,0,0],"id":73,"left_children":[1,3,5,7,9,11,13,-1,-1,-1,-1,-1,-1,-1,-1],"loss_changes":[2.2046037E2,6.5492096E1,6.2082947E1,3.9139435E1,4.4663345E1,2.3946915E1,1.949494E1,0E0,0E0,0E0,0E0,0E0,0E0,0E0,0E0],"parents":[2147483647,0,0,1,1,2,2,3,3,4,4,5,5,6,6],"right_children":[2,4,6,8,10,12,14,-1,-1,-1,-1,-1,-1,-1,-1],"split_conditions":[5.230708E-1,-9.4545454E-1,1.2063543E-2,1.011296E-1,-1.3256617E0,4.9593496E-1,-4.5626244E-1,-5.4799765E-4,-1.1091301E-2,-1.9598782E-2,-8.2373066E-4,1.219381E-2,3.409428E-3,4.2709126E-3,-3.3148467E-3],"split_indices":[4,27,5,126,85,50,58,0,0,0,0,0,0,0,0],"split_type":[0,0,0,0,0,0,0,0,0,0,0,0,0,0,0],"sum_hessian":[2.091E3,1.601E3,4.9E2,2.04E2,1.397E3,2.52E2,2.38E2,6.4E1,1.4E2,1.5E1,1.382E3,2.03E2,4.9E1,1.84E2,5.4E1],"tree_param":{"num_deleted":"0","num_feature":"243","num_nodes":"15","size_leaf_vector":"1"}},{"base_weights":[2.4244343E-3,-2.2801882E-1,4.3500763E-1,-1.4635549E0,-1.9784905E-1,2.8794098E-1,8.313831E-1,-6.3630575E-3,-2.7911533E-2,-1.1140312E-2,-1.650493E-3,5.8203805E-3,1.1593924E-3,4.83896E-3,1.2338867E-2],"categories":[],"categories_nodes":[],"categories_segments":[],"categories_sizes":[],"default_left":[0,0,0,0,0,0,0,0,0,0,0,0,0,0,0],"id":74,"left_children":[1,3,5,7,9,11,13,-1,-1,-1,-1,-1,-1,-1,-1],"loss_changes":[2.125298E2,5.156111E1,4.295616E1,2.9106133E1,5.428912E1,2.32076E1,2.1271835E1,0E0,0E0,0E0,0E0,0E0,0E0,0E0,0E0],"parents":[2147483647,0,0,1,1,2,2,3,3,4,4,5,5,6,6],"right_children":[2,4,6,8,10,12,14,-1,-1,-1,-1,-1,-1,-1,-1],"split_conditions":[2.969697E-1,-1.3670886E0,9.0909094E-1,-4.9406177E-1,-1.1090909E0,-1.7644157E-1,-3.3333334E-1,-6.3630575E-3,-2.7911533E-2,-1.1140312E-2,-1.650493E-3,5.8203805E-3,1.1593924E-3,4.83896E-3,1.2338867E-2],"split_indices":[150,85,150,16,27,106,0,0,0,0,0,0,0,0,0],"split_type":[0,0,0,0,0,0,0,0,0,0,0,0,0,0,0],"sum_hessian":[2.13E3,1.39E3,7.4E2,3.2E1,1.358E3,5.41E2,1.99E2,1.8E1,1.4E1,7.9E1,1.279E3,2.38E2,3.03E2,8.2E1,1.17E2],"tree_param":{"num_deleted":"0","num_feature":"243","num_nodes":"15","size_leaf_vector":"1"}},{"base_weights":[2.158765E-2,-1.5964209E-1,5.9484476E-1,-5.777578E-1,-8.364339E-2,8.4921956E-2,7.227442E-1,-1.0625068E-3,-1.05007505E-2,-2.4689883E-3,2.0667429E-3,7.656055E-3,-2.322657E-3,7.4865757E-3,2.1934737E-2],"categories":[],"categories_nodes":[],"categories_segments":[],"categories_sizes":[],"default_left":[0,0,0,0,0,0,0,0,0,0,0,0,0,0,0],"id":75,"left_children":[1,3,5,7,9,11,13,-1,-1,-1,-1,-1,-1,-1,-1],"loss_changes":[2.1972102E2,5.1016106E1,3.306981E1,4.3086777E1,5.026104E1,1.8250355E1,2.5187393E1,0E0,0E0,0E0,0E0,0E0,0E0,0E0,0E0],"parents":[2147483647,0,0,1,1,2,2,3,3,4,4,5,5,6,6],"right_children":[2,4,6,8,10,12,14,-1,-1,-1,-1,-1,-1,-1,-1],"split_conditions":[4.5482865E-1,-9.4545454E-1,6.666667E-1,-4.8945147E-1,-7.1685225E-2,-6.666667E-1,1.5082939E0,-1.0625068E-3,-1.05007505E-2,-2.4689883E-3,2.0667429E-3,7.656055E-3,-2.322657E-3,7.4865757E-3,2.1934737E-2],"split_indices":[155,27,177,127,4,169,156,0,0,0,0,0,0,0,0],"split_type":[0,0,0,0,0,0,0,0,0,0,0,0,0,0,0],"sum_hessian":[2.113E3,1.606E3,5.07E2,2.46E2,1.36E3,1.02E2,4.05E2,1.06E2,1.4E2,9E2,4.6E2,3.3E1,6.9E1,3.9E2,1.5E1],"tree_param":{"num_deleted":"0","num_feature":"243","num_nodes":"15","size_leaf_vector":"1"}},{"base_weights":[-2.0390714E-3,-2.034409E-1,4.557537E-1,-6.6806453E-1,-1.2791117E-1,7.044381E-1,2.0954628E-1,-1.3263033E-2,-4.572927E-3,-4.800577E-3,-6.510782E-4,3.1687112E-3,9.90403E-3,1.6645023E-3,1.4221506E-2],"categories":[],"categories_nodes":[],"categories_segments":[],"categories_sizes":[],"default_left":[0,0,0,0,0,0,0,0,0,0,0,0,0,0,0],"id":76,"left_children":[1,3,5,7,9,11,13,-1,-1,-1,-1,-1,-1,-1,-1],"loss_changes":[1.9011754E2,5.016758E1,3.8425995E1,2.637725E1,2.5885916E1,2.37303E1,2.02885E1,0E0,0E0,0E0,0E0,0E0,0E0,0E0,0E0],"parents":[2147483647,0,0,1,1,2,2,3,3,4,4,5,5,6,6],"right_children":[2,4,6,8,10,12,14,-1,-1,-1,-1,-1,-1,-1,-1],"split_conditions":[3.6666667E-1,-9.2381716E-1,-5.4464287E-1,1.8206522E-1,-5.792943E-1,-1.1187569E0,1.0844156E0,-1.3263033E-2,-4.572927E-3,-4.800577E-3,-6.510782E-4,3.1687112E-3,9.90403E-3,1.6645023E-3,1.4221506E-2],"split_indices":[150,89,46,101,153,24,70,0,0,0,0,0,0,0,0],"split_type":[0,0,0,0,0,0,0,0,0,0,0,0,0,0,0],"sum_hessian":[2.06E3,1.431E3,6.29E2,1.99E2,1.232E3,3.12E2,3.17E2,6.5E1,1.34E2,2.3E2,1.002E3,9.5E1,2.17E2,3.01E2,1.6E1],"tree_param":{"num_deleted":"0","num_feature":"243","num_nodes":"15","size_leaf_vector":"1"}},{"base_weights":[7.452198E-3,-1.8077874E-1,5.429589E-1,-4.7209662E-1,-5.8403637E-2,7.685259E-1,2.1435556E-1,-1.9493597E-2,-4.439109E-3,-1.6901289E-3,3.1580133E-3,1.06126005E-2,3.502989E-3,4.945805E-3,-1.6206276E-3],"categories":[],"categories_nodes":[],"categories_segments":[],"categories_sizes":[],"default_left":[0,0,0,0,0,0,0,0,0,0,0,0,0,0,0],"id":77,"left_children":[1,3,5,7,9,11,13,-1,-1,-1,-1,-1,-1,-1,-1],"loss_changes":[2.1006233E2,5.4944805E1,4.000943E1,4.269056E1,3.4478592E1,2.6196884E1,1.8284191E1,0E0,0E0,0E0,0E0,0E0,0E0,0E0,0E0],"parents":[2147483647,0,0,1,1,2,2,3,3,4,4,5,5,6,6],"right_children":[2,4,6,8,10,12,14,-1,-1,-1,-1,-1,-1,-1,-1],"split_conditions":[6.5789473E-1,-4.377644E-1,2.1105977E-2,-7.4333686E-1,8.900344E-1,-3.3035713E-1,-6.22093E-1,-1.9493597E-2,-4.439109E-3,-1.6901289E-3,3.1580133E-3,1.06126005E-2,3.502989E-3,4.945805E-3,-1.6206276E-3],"split_indices":[174,157,5,86,81,46,47,0,0,0,0,0,0,0,0],"split_type":[0,0,0,0,0,0,0,0,0,0,0,0,0,0,0],"sum_hessian":[2.082E3,1.541E3,5.41E2,4.55E2,1.086E3,3.2E2,2.21E2,2.4E1,4.31E2,8.54E2,2.32E2,2.28E2,9.2E1,1.35E2,8.6E1],"tree_param":{"num_deleted":"0","num_feature":"243","num_nodes":"15","size_leaf_vector":"1"}},{"base_weights":[7.4089086E-3,-2.0931062E-1,4.3437278E-1,-1.0926394E0,-1.6364723E-1,-1.6784096E-1,5.534623E-1,-2.0693831E-2,-6.1130887E-3,-1.4170498E-3,-1.0750847E-2,-3.6988882E-3,9.070671E-3,6.935362E-3,-8.095124E-4],"categories":[],"categories_nodes":[],"categories_segments":[],"categories_sizes":[],"default_left":[0,0,0,0,0,0,0,0,0,0,0,0,0,0,0],"id":78,"left_children":[1,3,5,7,9,11,13,-1,-1,-1,-1,-1,-1,-1,-1],"loss_changes":[1.9348155E2,5.5766933E1,5.058191E1,2.7163498E1,3.868063E1,1.8982357E1,2.482373E1,0E0,0E0,0E0,0E0,0E0,0E0,0E0,0E0],"parents":[2147483647,0,0,1,1,2,2,3,3,4,4,5,5,6,6],"right_children":[2,4,6,8,10,12,14,-1,-1,-1,-1,-1,-1,-1,-1],"split_conditions":[3.272727E-1,-1.2289989E0,-5.5555556E-2,-7.393919E-1,1.5248233E0,7.690476E-1,4.3010753E-2,-2.0693831E-2,-6.1130887E-3,-1.4170498E-3,-1.0750847E-2,-3.6988882E-3,9.070671E-3,6.935362E-3,-8.095124E-4],"split_indices":[150,85,92,86,25,140,1,0,0,0,0,0,0,0,0],"split_type":[0,0,0,0,0,0,0,0,0,0,0,0,0,0,0],"sum_hessian":[2.089E3,1.386E3,7.03E2,6.7E1,1.319E3,1.16E2,5.87E2,2.7E1,4E1,1.262E3,5.7E1,1E2,1.6E1,5.3E2,5.7E1],"tree_param":{"num_deleted":"0","num_feature":"243","num_nodes":"15","size_leaf_vector":"1"}},{"base_weights":[-2.18398E-3,-2.1575628E-1,4.197844E-1,-1.0237814E0,-1.6279864E-1,7.176501E-1,1.4829814E-1,-4.7696442E-3,-1.725858E-2,-2.5493924E-3,5.0753774E-3,3.7466576E-3,1.1694766E-2,8.4359647E-4,1.150085E-2],"categories":[],"categories_nodes":[],"categories_segments":[],"categories_sizes":[],"default_left":[0,0,0,0,0,0,0,0,0,0,0,0,0,0,0],"id":79,"left_children":[1,3,5,7,9,11,13,-1,-1,-1,-1,-1,-1,-1,-1],"loss_changes":[1.8799234E2,5.9099E1,5.6580963E1,2.5774094E1,5.2608875E1,4.1676468E1,2.3524513E1,0E0,0E0,0E0,0E0,0E0,0E0,0E0,0E0],"parents":[2147483647,0,0,1,1,2,2,3,3,4,4,5,5,6,6],"right_children":[2,4,6,8,10,12,14,-1,-1,-1,-1,-1,-1,-1,-1],"split_conditions":[2.969697E-1,-1.1272727E0,-5.4464287E-1,-1.4285715E0,8.5714287E-1,-8.545455E-1,1.4939806E0,-4.7696442E-3,-1.725858E-2,-2.5493924E-3,5.0753774E-3,3.7466576E-3,1.1694766E-2,8.4359647E-4,1.150085E-2],"split_indices":[150,27,46,19,112,27,59,0,0,0,0,0,0,0,0],"split_type":[0,0,0,0,0,0,0,0,0,0,0,0,0,0,0],"sum_hessian":[2.084E3,1.384E3,7E2,8.4E1,1.3E3,3.33E2,3.67E2,4E1,4.4E1,1.176E3,1.24E2,1.55E2,1.78E2,3.4E2,2.7E1],"tree_param":{"num_deleted":"0","num_feature":"243","num_nodes":"15","size_leaf_vector":"1"}},{"base_weights":[-2.3277102E-3,-1.7137524E-1,5.1863265E-1,-1.0385976E0,-1.3119246E-1,9.229606E-1,3.494784E-1,-2.0098053E-2,-5.801618E-3,-1.0039634E-3,-9.845395E-3,6.5381126E-3,1.5202679E-2,7.525968E-3,1.7865578E-3],"categories":[],"categories_nodes":[],"categories_segments":[],"categories_sizes":[],"default_left":[0,0,0,0,0,0,0,0,0,0,0,0,0,0,0],"id":80,"left_children":[1,3,5,7,9,11,13,-1,-1,-1,-1,-1,-1,-1,-1],"loss_changes":[1.8476553E2,5.5062046E1,3.483185E1,2.6706284E1,4.6883408E1,2.1532257E1,2.2260616E1,0E0,0E0,0E0,0E0,0E0,0E0,0E0,0E0],"parents":[2147483647,0,0,1,1,2,2,3,3,4,4,5,5,6,6],"right_children":[2,4,6,8,10,12,14,-1,-1,-1,-1,-1,-1,-1,-1],"split_conditions":[4.4548288E-1,-1.2475878E0,-8.016836E-1,5.564155E-1,1.4222819E0,-4.1935483E-1,-7.348485E-1,-2.0098053E-2,-5.801618E-3,-1.0039634E-3,-9.845395E-3,6.5381126E-3,1.5202679E-2,7.525968E-3,1.7865578E-3],"split_indices":[155,85,90,45,25,1,38,0,0,0,0,0,0,0,0],"split_type":[0,0,0,0,0,0,0,0,0,0,0,0,0,0,0],"sum_hessian":[2.096E3,1.583E3,5.13E2,6.9E1,1.514E3,1.5E2,3.63E2,2.7E1,4.2E1,1.436E3,7.8E1,8.6E1,6.4E1,1.33E2,2.3E2],"tree_param":{"num_deleted":"0","num_feature":"243","num_nodes":"15","size_leaf_vector":"1"}},{"base_weights":[1.5406344E-2,-1.723584E-1,