{"learner":{"attributes":{"scikit_learn":"{\"_estimator_type\": \"regressor\"}"},"feature_names":[],"feature_types":[],"gradient_booster":{"model":{"cats":{"enc":[],"feature_segments":[],"sorted_idx":[]},"gbtree_model_param":{"num_parallel_tree":"1","num_trees":"757"},"iteration_indptr":[0,1,2,3,4,5,6,7,8,9,10,11,12,13,14,15,16,17,18,19,20,21,22,23,24,25,26,27,28,29,30,31,32,33,34,35,36,37,38,39,40,41,42,43,44,45,46,47,48,49,50,51,52,53,54,55,56,57,58,59,60,61,62,63,64,65,66,67,68,69,70,71,72,73,74,75,76,77,78,79,80,81,82,83,84,85,86,87,88,89,90,91,92,93,94,95,96,97,98,99,100,101,102,103,104,105,106,107,108,109,110,111,112,113,114,115,116,117,118,119,120,121,122,123,124,125,126,127,128,129,130,131,132,133,134,135,136,137,138,139,140,141,142,143,144,145,146,147,148,149,150,151,152,153,154,155,156,157,158,159,160,161,162,163,164,165,166,167,168,169,170,171,172,173,174,175,176,177,178,179,180,181,182,183,184,185,186,187,188,189,190,191,192,193,194,195,196,197,198,199,200,201,202,203,204,205,206,207,208,209,210,211,212,213,214,215,216,217,218,219,220,221,222,223,224,225,226,227,228,229,230,231,232,233,234,235,236,237,238,239,240,241,242,243,244,245,246,247,248,249,250,251,252,253,254,255,256,257,258,259,260,261,262,263,264,265,266,267,268,269,270,271,272,273,274,275,276,277,278,279,280,281,282,283,284,285,286,287,288,289,290,291,292,293,294,295,296,297,298,299,300,301,302,303,304,305,306,307,308,309,310,311,312,313,314,315,316,317,318,319,320,321,322,323,324,325,326,327,328,329,330,331,332,333,334,335,336,337,338,339,340,341,342,343,344,345,346,347,348,349,350,351,352,353,354,355,356,357,358,359,360,361,362,363,364,365,366,367,368,369,370,371,372,373,374,375,376,377,378,379,380,381,382,383,384,385,386,387,388,389,390,391,392,393,394,395,396,397,398,399,400,401,402,403,404,405,406,407,408,409,410,411,412,413,414,415,416,417,418,419,420,421,422,423,424,425,426,427,428,429,430,431,432,433,434,435,436,437,438,439,440,441,442,443,444,445,446,447,448,449,450,451,452,453,454,455,456,457,458,459,460,461,462,463,464,465,466,467,468,469,470,471,472,473,474,475,476,477,478,479,480,481,482,483,484,485,486,487,488,489,490,491,492,493,494,495,496,497,498,499,500,501,502,503,504,505,506,507,508,509,510,511,512,513,514,515,516,517,518,519,520,521,522,523,524,525,526,527,528,529,530,531,532,533,534,535,536,537,538,539,540,541,542,543,544,545,546,547,548,549,550,551,552,553,554,555,556,557,558,559,560,561,562,563,564,565,566,567,568,569,570,571,572,573,574,575,576,577,578,579,580,581,582,583,584,585,586,587,588,589,590,591,592,593,594,595,596,597,598,599,600,601,602,603,604,605,606,607,608,609,610,611,612,613,614,615,616,617,618,619,620,621,622,623,624,625,626,627,628,629,630,631,632,633,634,635,636,637,638,639,640,641,642,643,644,645,646,647,648,649,650,651,652,653,654,655,656,657,658,659,660,661,662,663,664,665,666,667,668,669,670,671,672,673,674,675,676,677,678,679,680,681,682,683,684,685,686,687,688,689,690,691,692,693,694,695,696,697,698,699,700,701,702,703,704,705,706,707,708,709,710,711,712,713,714,715,716,717,718,719,720,721,722,723,724,725,726,727,728,729,730,731,732,733,734,735,736,737,738,739,740,741,742,743,744,745,746,747,748,749,750,751,752,753,754,755,756,757],"tree_info":[0,0,0,0,0,0,0,0,0,0,0,0,0,0,0,0,0,0,0,0,0,0,0,0,0,0,0,0,0,0,0,0,0,0,0,0,0,0,0,0,0,0,0,0,0,0,0,0,0,0,0,0,0,0,0,0,0,0,0,0,0,0,0,0,0,0,0,0,0,0,0,0,0,0,0,0,0,0,0,0,0,0,0,0,0,0,0,0,0,0,0,0,0,0,0,0,0,0,0,0,0,0,0,0,0,0,0,0,0,0,0,0,0,0,0,0,0,0,0,0,0,0,0,0,0,0,0,0,0,0,0,0,0,0,0,0,0,0,0,0,0,0,0,0,0,0,0,0,0,0,0,0,0,0,0,0,0,0,0,0,0,0,0,0,0,0,0,0,0,0,0,0,0,0,0,0,0,0,0,0,0,0,0,0,0,0,0,0,0,0,0,0,0,0,0,0,0,0,0,0,0,0,0,0,0,0,0,0,0,0,0,0,0,0,0,0,0,0,0,0,0,0,0,0,0,0,0,0,0,0,0,0,0,0,0,0,0,0,0,0,0,0,0,0,0,0,0,0,0,0,0,0,0,0,0,0,0,0,0,0,0,0,0,0,0,0,0,0,0,0,0,0,0,0,0,0,0,0,0,0,0,0,0,0,0,0,0,0,0,0,0,0,0,0,0,0,0,0,0,0,0,0,0,0,0,0,0,0,0,0,0,0,0,0,0,0,0,0,0,0,0,0,0,0,0,0,0,0,0,0,0,0,0,0,0,0,0,0,0,0,0,0,0,0,0,0,0,0,0,0,0,0,0,0,0,0,0,0,0,0,0,0,0,0,0,0,0,0,0,0,0,0,0,0,0,0,0,0,0,0,0,0,0,0,0,0,0,0,0,0,0,0,0,0,0,0,0,0,0,0,0,0,0,0,0,0,0,0,0,0,0,0,0,0,0,0,0,0,0,0,0,0,0,0,0,0,0,0,0,0,0,0,0,0,0,0,0,0,0,0,0,0,0,0,0,0,0,0,0,0,0,0,0,0,0,0,0,0,0,0,0,0,0,0,0,0,0,0,0,0,0,0,0,0,0,0,0,0,0,0,0,0,0,0,0,0,0,0,0,0,0,0,0,0,0,0,0,0,0,0,0,0,0,0,0,0,0,0,0,0,0,0,0,0,0,0,0,0,0,0,0,0,0,0,0,0,0,0,0,0,0,0,0,0,0,0,0,0,0,0,0,0,0,0,0,0,0,0,0,0,0,0,0,0,0,0,0,0,0,0,0,0,0,0,0,0,0,0,0,0,0,0,0,0,0,0,0,0,0,0,0,0,0,0,0,0,0,0,0,0,0,0,0,0,0,0,0,0,0,0,0,0,0,0,0,0,0,0,0,0,0,0,0,0,0,0,0,0,0,0,0,0,0,0,0,0,0,0,0,0,0,0,0,0,0,0,0,0,0,0,0,0,0,0,0,0,0,0,0,0,0,0,0,0,0,0,0,0,0,0,0,0,0,0,0,0,0,0,0,0,0,0,0,0,0,0,0,0,0,0,0,0,0,0,0,0,0,0,0,0,0,0,0,0,0,0,0,0,0,0,0,0,0,0,0,0,0,0,0,0,0,0,0,0,0,0,0,0,0,0,0,0,0,0,0,0,0,0,0,0,0,0,0,0,0,0,0,0,0,0,0,0,0,0,0,0,0,0,0,0,0,0,0,0,0,0,0],"trees":[{"base_weights":[-1.3787771E-2,-4.0385678E-1,1.0911214E0,-1.1396866E0,-2.6112205E-1,5.5615604E-1,1.5996034E0,-3.339579E-2,-1.38540305E-2,-1.0543012E-2,-5.6722306E-4,1.1384844E-2,-3.2600143E-3,3.530146E-2,1.9773064E-2],"categories":[],"categories_nodes":[],"categories_segments":[],"categories_sizes":[],"default_left":[0,0,0,0,0,0,0,0,0,0,0,0,0,0,0],"id":0,"left_children":[1,3,5,7,9,11,13,-1,-1,-1,-1,-1,-1,-1,-1],"loss_changes":[1.0455935E3,1.880184E2,1.712992E2,7.456824E1,1.3235051E2,3.4515785E1,6.849933E1,0E0,0E0,0E0,0E0,0E0,0E0,0E0,0E0],"parents":[2147483647,0,0,1,1,2,2,3,3,4,4,5,5,6,6],"right_children":[2,4,6,8,10,12,14,-1,-1,-1,-1,-1,-1,-1,-1],"split_conditions":[3.9252338E-1,-8.901363E-1,1.0095887E0,-1.4302325E0,-3.8204592E-1,2.688172E-2,1.3315217E-1,-3.339579E-2,-1.38540305E-2,-1.0543012E-2,-5.6722306E-4,1.1384844E-2,-3.2600143E-3,3.530146E-2,1.9773064E-2],"split_indices":[155,89,153,8,135,1,101,0,0,0,0,0,0,0,0],"split_type":[0,0,0,0,0,0,0,0,0,0,0,0,0,0,0],"sum_hessian":[2.424E3,1.792E3,6.32E2,2.9E2,1.502E3,3.09E2,3.23E2,6.7E1,2.23E2,5.51E2,9.51E2,2.59E2,5E1,1.26E2,1.97E2],"tree_param":{"num_deleted":"0","num_feature":"243","num_nodes":"15","size_leaf_vector":"1"}},{"base_weights":[9.886849E-3,-3.3162814E-1,1.3072159E0,-1.1031543E0,-1.5505157E-1,1.6255664E0,-5.1150853E-3,-3.1143185E-2,-1.2623832E-2,-7.303103E-3,2.4443418E-3,3.154761E-2,1.8687414E-2,-2.72448E-2,4.339783E-3],"categories":[],"categories_nodes":[],"categories_segments":[],"categories_sizes":[],"default_left":[0,0,0,0,0,0,0,0,0,0,0,0,0,0,0],"id":1,"left_children":[1,3,5,7,9,11,13,-1,-1,-1,-1,-1,-1,-1,-1],"loss_changes":[1.0673157E3,2.5962616E2,2.0973438E2,9.270862E1,1.405087E2,5.9062256E1,4.5740723E1,0E0,0E0,0E0,0E0,0E0,0E0,0E0,0E0],"parents":[2147483647,0,0,1,1,2,2,3,3,4,4,5,5,6,6],"right_children":[2,4,6,8,10,12,14,-1,-1,-1,-1,-1,-1,-1,-1],"split_conditions":[7.969136E-1,-8.179631E-1,1.6953103E-1,-1.2647059E0,-1.3625997E-1,1.5675676E-1,-1.4081633E0,-3.1143185E-2,-1.2623832E-2,-7.303103E-3,2.4443418E-3,3.154761E-2,1.8687414E-2,-2.72448E-2,4.339783E-3],"split_indices":[153,89,7,11,137,97,19,0,0,0,0,0,0,0,0],"split_type":[0,0,0,0,0,0,0,0,0,0,0,0,0,0,0],"sum_hessian":[2.407E3,1.906E3,5.01E2,3.54E2,1.552E3,4.03E2,9.8E1,9.9E1,2.55E2,7.89E2,7.63E2,2.38E2,1.65E2,1.3E1,8.5E1],"tree_param":{"num_deleted":"0","num_feature":"243","num_nodes":"15","size_leaf_vector":"1"}},{"base_weights":[3.3793699E-3,-3.72171E-1,1.1098077E0,-9.332641E-1,-1.8251103E-1,5.778609E-1,1.5794165E0,-2.6296167E-2,-1.1408938E-2,-6.589333E-3,3.139747E-3,1.1742304E-2,-3.1317507E-3,3.513542E-2,1.7516388E-2],"categories":[],"categories_nodes":[],"categories_segments":[],"categories_sizes":[],"default_left":[0,0,0,0,0,0,0,0,0,0,0,0,0,0,0],"id":2,"left_children":[1,3,5,7,9,11,13,-1,-1,-1,-1,-1,-1,-1,-1],"loss_changes":[1.0051394E3,1.9201859E2,1.5221893E2,7.092273E1,1.140096E2,3.2848373E1,9.3046326E1,0E0,0E0,0E0,0E0,0E0,0E0,0E0,0E0],"parents":[2147483647,0,0,1,1,2,2,3,3,4,4,5,5,6,6],"right_children":[2,4,6,8,10,12,14,-1,-1,-1,-1,-1,-1,-1,-1],"split_conditions":[4.3925235E-1,-7.3135525E-1,1.0192524E0,-1.3488373E0,9.60334E-2,3.846154E-2,3.7037037E-2,-2.6296167E-2,-1.1408938E-2,-6.589333E-3,3.139747E-3,1.1742304E-2,-3.1317507E-3,3.513542E-2,1.7516388E-2],"split_indices":[155,89,153,8,135,2,99,0,0,0,0,0,0,0,0],"split_type":[0,0,0,0,0,0,0,0,0,0,0,0,0,0,0],"sum_hessian":[2.417E3,1.805E3,6.12E2,4.55E2,1.35E3,2.88E2,3.24E2,1.12E2,3.43E2,8.46E2,5.04E2,2.42E2,4.6E1,1.47E2,1.77E2],"tree_param":{"num_deleted":"0","num_feature":"243","num_nodes":"15","size_leaf_vector":"1"}},{"base_weights":[-9.2709325E-3,-3.4646714E-1,1.0850421E0,7.791585E-2,-5.974505E-1,4.872518E-1,1.4079516E0,-4.303018E-3,9.908907E-3,-3.1456083E-2,-8.373678E-3,1.0867797E-2,-4.3302863E-3,2.9272225E-2,1.3022068E-2],"categories":[],"categories_nodes":[],"categories_segments":[],"categories_sizes":[],"default_left":[0,0,0,0,0,0,0,0,0,0,0,0,0,0,0],"id":3,"left_children":[1,3,5,7,9,11,13,-1,-1,-1,-1,-1,-1,-1,-1],"loss_changes":[9.132776E2,2.0156924E2,1.11851746E2,1.291782E2,1.2793436E2,2.8685562E1,8.957568E1,0E0,0E0,0E0,0E0,0E0,0E0,0E0,0E0],"parents":[2147483647,0,0,1,1,2,2,3,3,4,4,5,5,6,6],"right_children":[2,4,6,8,10,12,14,-1,-1,-1,-1,-1,-1,-1,-1],"split_conditions":[4.4859812E-1,-2.2891834E-1,6.635514E-1,5.2E-2,-2.0581396E0,3.846154E-2,-6.33275E-2,-4.303018E-3,9.908907E-3,-3.1456083E-2,-8.373678E-3,1.0867797E-2,-4.3302863E-3,2.9272225E-2,1.3022068E-2],"split_indices":[155,5,155,133,8,2,5,0,0,0,0,0,0,0,0],"split_type":[0,0,0,0,0,0,0,0,0,0,0,0,0,0,0],"sum_hessian":[2.473E3,1.891E3,5.82E2,7.03E2,1.188E3,2.05E2,3.77E2,4.28E2,2.75E2,6.6E1,1.122E3,1.65E2,4E1,2.26E2,1.51E2],"tree_param":{"num_deleted":"0","num_feature":"243","num_nodes":"15","size_leaf_vector":"1"}},{"base_weights":[-2.0172019E-3,-3.352879E-1,1.2263638E0,-9.907992E-1,-1.8170016E-1,-6.644464E-2,1.5598503E0,-2.7959453E-2,-1.1519898E-2,-7.907605E-3,1.221438E-3,4.295763E-3,-3.223688E-2,3.1191578E-2,1.8762164E-2],"categories":[],"categories_nodes":[],"categories_segments":[],"categories_sizes":[],"default_left":[0,0,0,0,0,0,0,0,0,0,0,0,0,0,0],"id":4,"left_children":[1,3,5,7,9,11,13,-1,-1,-1,-1,-1,-1,-1,-1],"loss_changes":[1.0013535E3,1.9352544E2,2.2515576E2,7.382196E1,1.2286981E2,6.9380554E1,5.8669434E1,0E0,0E0,0E0,0E0,0E0,0E0,0E0,0E0],"parents":[2147483647,0,0,1,1,2,2,3,3,4,4,5,5,6,6],"right_children":[2,4,6,8,10,12,14,-1,-1,-1,-1,-1,-1,-1,-1],"split_conditions":[7.941067E-1,-8.179631E-1,-1.0404041E0,-1.3414634E0,-2.2742857E-1,1.6296296E0,3.7037037E-2,-2.7959453E-2,-1.1519898E-2,-7.907605E-3,1.221438E-3,4.295763E-3,-3.223688E-2,3.1191578E-2,1.8762164E-2],"split_indices":[157,89,12,15,133,99,99,0,0,0,0,0,0,0,0],"split_type":[0,0,0,0,0,0,0,0,0,0,0,0,0,0,0],"sum_hessian":[2.444E3,1.923E3,5.21E2,3.64E2,1.559E3,1.07E2,4.14E2,9.9E1,2.65E2,7.11E2,8.48E2,9.2E1,1.5E1,2.15E2,1.99E2],"tree_param":{"num_deleted":"0","num_feature":"243","num_nodes":"15","size_leaf_vector":"1"}},{"base_weights":[1.3978315E-2,-4.3001083E-1,8.624392E-1,-1.9394919E0,-3.642728E-1,1.273491E-1,1.2416542E0,-4.7992896E-3,-3.7750456E-2,-1.39506925E-2,-3.7139894E-3,4.786929E-3,-8.149072E-3,1.0185671E-2,2.6792731E-2],"categories":[],"categories_nodes":[],"categories_segments":[],"categories_sizes":[],"default_left":[0,0,0,0,0,0,0,0,0,0,0,0,0,0,0],"id":5,"left_children":[1,3,5,7,9,11,13,-1,-1,-1,-1,-1,-1,-1,-1],"loss_changes":[9.2443414E2,1.5915353E2,2.3483417E2,4.2264374E1,1.0344949E2,3.0652405E1,1.3931775E2,0E0,0E0,0E0,0E0,0E0,0E0,0E0,0E0],"parents":[2147483647,0,0,1,1,2,2,3,3,4,4,5,5,6,6],"right_children":[2,4,6,8,10,12,14,-1,-1,-1,-1,-1,-1,-1,-1],"split_conditions":[2.554517E-1,-2.0581396E0,6.393906E-1,-8.165681E-1,-8.6031926E-1,7.7592593E-1,-4.5698926E-1,-4.7992896E-3,-3.7750456E-2,-1.39506925E-2,-3.7139894E-3,4.786929E-3,-8.149072E-3,1.0185671E-2,2.6792731E-2],"split_indices":[155,8,148,43,137,113,1,0,0,0,0,0,0,0,0],"split_type":[0,0,0,0,0,0,0,0,0,0,0,0,0,0,0],"sum_hessian":[2.452E3,1.61E3,8.42E2,6.6E1,1.544E3,2.87E2,5.55E2,1.3E1,5.3E1,3.29E2,1.215E3,2.27E2,6E1,2.24E2,3.31E2],"tree_param":{"num_deleted":"0","num_feature":"243","num_nodes":"15","size_leaf_vector":"1"}},{"base_weights":[6.055524E-3,-3.2148892E-1,1.192303E0,6.942718E-2,-5.6876016E-1,5.037162E-1,1.6974221E0,-4.468346E-3,6.5957643E-3,-2.643967E-2,-8.110086E-3,-2.3851618E-2,1.02479635E-2,3.4191076E-2,1.8099006E-2],"categories":[],"categories_nodes":[],"categories_segments":[],"categories_sizes":[],"default_left":[0,0,0,0,0,0,0,0,0,0,0,0,0,0,0],"id":6,"left_children":[1,3,5,7,9,11,13,-1,-1,-1,-1,-1,-1,-1,-1],"loss_changes":[9.4455676E2,1.8418114E2,1.8209747E2,8.622956E1,8.3872406E1,5.7884396E1,7.0208435E1,0E0,0E0,0E0,0E0,0E0,0E0,0E0,0E0],"parents":[2147483647,0,0,1,1,2,2,3,3,4,4,5,5,6,6],"right_children":[2,4,6,8,10,12,14,-1,-1,-1,-1,-1,-1,-1,-1],"split_conditions":[7.969136E-1,-2.517867E-1,-4.4623655E-1,-1.1064718E-1,-1.9705882E0,-1.4081633E0,-1.3359529E-1,-4.468346E-3,6.5957643E-3,-2.643967E-2,-8.110086E-3,-2.3851618E-2,1.02479635E-2,3.4191076E-2,1.8099006E-2],"split_indices":[153,5,1,135,11,19,53,0,0,0,0,0,0,0,0],"split_type":[0,0,0,0,0,0,0,0,0,0,0,0,0,0,0],"sum_hessian":[2.429E3,1.904E3,5.25E2,7.38E2,1.166E3,2.23E2,3.02E2,3.65E2,3.73E2,6.9E1,1.097E3,1.3E1,2.1E2,1.75E2,1.27E2],"tree_param":{"num_deleted":"0","num_feature":"243","num_nodes":"15","size_leaf_vector":"1"}},{"base_weights":[-4.02589E-3,-3.5500678E-1,9.951349E-1,7.177785E-2,-5.945453E-1,4.50096E-1,1.3292086E0,-3.9236443E-3,8.380613E-3,-3.365189E-2,-8.428086E-3,9.985571E-3,-3.5124794E-3,2.9561507E-2,1.3916684E-2],"categories":[],"categories_nodes":[],"categories_segments":[],"categories_sizes":[],"default_left":[0,0,0,0,0,0,0,0,0,0,0,0,0,0,0],"id":7,"left_children":[1,3,5,7,9,11,13,-1,-1,-1,-1,-1,-1,-1,-1],"loss_changes":[8.714581E2,1.8804619E2,1.1702734E2,9.268294E1,1.2888821E2,2.7496464E1,9.158362E1,0E0,0E0,0E0,0E0,0E0,0E0,0E0,0E0],"parents":[2147483647,0,0,1,1,2,2,3,3,4,4,5,5,6,6],"right_children":[2,4,6,8,10,12,14,-1,-1,-1,-1,-1,-1,-1,-1],"split_conditions":[3.9252338E-1,-2.1738788E-1,6.635514E-1,0E0,-2.1744187E0,3.2258064E-2,7.4074075E-2,-3.9236443E-3,8.380613E-3,-3.365189E-2,-8.428086E-3,9.985571E-3,-3.5124794E-3,2.9561507E-2,1.3916684E-2],"split_indices":[155,5,155,158,8,1,99,0,0,0,0,0,0,0,0],"split_type":[0,0,0,0,0,0,0,0,0,0,0,0,0,0,0],"sum_hessian":[2.483E3,1.838E3,6.45E2,6.61E2,1.177E3,2.46E2,3.99E2,3.88E2,2.73E2,5.5E1,1.122E3,1.97E2,4.9E1,1.93E2,2.06E2],"tree_param":{"num_deleted":"0","num_feature":"243","num_nodes":"15","size_leaf_vector":"1"}},{"base_weights":[3.422222E-2,-3.290063E-1,1.0149981E0,-9.9870795E-1,-1.7498368E-1,6.221544E-1,1.4597282E0,-2.9260002E-2,-1.0533834E-2,-1.2373975E-2,-6.1808917E-4,-9.76505E-3,1.1127391E-2,1.5581813E-2,3.6208507E-2],"categories":[],"categories_nodes":[],"categories_segments":[],"categories_sizes":[],"default_left":[0,0,0,0,0,0,0,0,0,0,0,0,0,0,0],"id":8,"left_children":[1,3,5,7,9,11,13,-1,-1,-1,-1,-1,-1,-1,-1],"loss_changes":[8.620925E2,1.8198676E2,1.13351746E2,9.167142E1,1.15718704E2,2.7996323E1,1.15949646E2,0E0,0E0,0E0,0E0,0E0,0E0,0E0,0E0],"parents":[2147483647,0,0,1,1,2,2,3,3,4,4,5,5,6,6],"right_children":[2,4,6,8,10,12,14,-1,-1,-1,-1,-1,-1,-1,-1],"split_conditions":[3.9252338E-1,-8.251804E-1,9.5386934E-1,-1.2647059E0,-8.6031926E-1,-4.3544507E-1,-3.8709676E-1,-2.9260002E-2,-1.0533834E-2,-1.2373975E-2,-6.1808917E-4,-9.76505E-3,1.1127391E-2,1.5581813E-2,3.6208507E-2],"split_indices":[155,89,152,11,137,89,1,0,0,0,0,0,0,0,0],"split_type":[0,0,0,0,0,0,0,0,0,0,0,0,0,0,0],"sum_hessian":[2.418E3,1.765E3,6.53E2,3.29E2,1.436E3,3.48E2,3.05E2,9.8E1,2.31E2,2.7E2,1.166E3,1.7E1,3.31E2,1.87E2,1.18E2],"tree_param":{"num_deleted":"0","num_feature":"243","num_nodes":"15","size_leaf_vector":"1"}},{"base_weights":[-2.2491207E-2,-3.3190745E-1,9.719848E-1,1.0995211E-1,-5.62755E-1,4.4898203E-1,1.4239094E0,-4.256923E-3,8.086477E-3,-2.297991E-2,-7.4500507E-3,9.716954E-3,-3.0525422E-3,3.1810015E-2,1.579493E-2],"categories":[],"categories_nodes":[],"categories_segments":[],"categories_sizes":[],"default_left":[0,0,0,0,0,0,0,0,0,0,0,0,0,0,0],"id":9,"left_children":[1,3,5,7,9,11,13,-1,-1,-1,-1,-1,-1,-1,-1],"loss_changes":[7.455892E2,1.8856195E2,1.3526636E2,9.219894E1,1.0630838E2,2.5847786E1,7.267389E1,0E0,0E0,0E0,0E0,0E0,0E0,0E0,0E0],"parents":[2147483647,0,0,1,1,2,2,3,3,4,4,5,5,6,6],"right_children":[2,4,6,8,10,12,14,-1,-1,-1,-1,-1,-1,-1,-1],"split_conditions":[4.4859812E-1,-2.938912E-1,1.0192524E0,0E0,-1.5121951E0,3.2258064E-2,1.5675676E-1,-4.256923E-3,8.086477E-3,-2.297991E-2,-7.4500507E-3,9.716954E-3,-3.0525422E-3,3.1810015E-2,1.579493E-2],"split_indices":[155,5,153,135,15,1,97,0,0,0,0,0,0,0,0],"split_type":[0,0,0,0,0,0,0,0,0,0,0,0,0,0,0],"sum_hessian":[2.421E3,1.847E3,5.74E2,6.34E2,1.213E3,2.67E2,3.07E2,3.24E2,3.1E2,1.29E2,1.084E3,2.16E2,5.1E1,1.38E2,1.69E2],"tree_param":{"num_deleted":"0","num_feature":"243","num_nodes":"15","size_leaf_vector":"1"}},{"base_weights":[-7.64831E-3,-2.9334474E-1,1.0501103E0,-8.688251E-1,-1.1503696E-1,1.3499488E0,-5.0654024E-2,-2.6548827E-2,-9.412018E-3,-9.387793E-3,1.0495823E-3,2.614459E-2,1.3456636E-2,-3.4589097E-2,2.1377697E-3],"categories":[],"categories_nodes":[],"categories_segments":[],"categories_sizes":[],"default_left":[0,0,0,0,0,0,0,0,0,0,0,0,0,0,0],"id":10,"left_children":[1,3,5,7,9,11,13,-1,-1,-1,-1,-1,-1,-1,-1],"loss_changes":[7.304181E2,1.9517188E2,1.6971478E2,9.877948E1,1.2142282E2,5.3957825E1,4.251381E1,0E0,0E0,0E0,0E0,0E0,0E0,0E0,0E0],"parents":[2147483647,0,0,1,1,2,2,3,3,4,4,5,5,6,6],"right_children":[2,4,6,8,10,12,14,-1,-1,-1,-1,-1,-1,-1,-1],"split_conditions":[7.969136E-1,-7.3135525E-1,1.5223762E-1,-1.2941177E0,-5.427975E-1,-3.325688E-1,5.0702214E-1,-2.6548827E-2,-9.412018E-3,-9.387793E-3,1.0495823E-3,2.614459E-2,1.3456636E-2,-3.4589097E-2,2.1377697E-3],"split_indices":[153,89,5,11,135,28,4,0,0,0,0,0,0,0,0],"split_type":[0,0,0,0,0,0,0,0,0,0,0,0,0,0,0],"sum_hessian":[2.415E3,1.902E3,5.13E2,4.49E2,1.453E3,4.03E2,1.1E2,1.21E2,3.28E2,4.05E2,1.048E3,2.66E2,1.37E2,8E0,1.02E2],"tree_param":{"num_deleted":"0","num_feature":"243","num_nodes":"15","size_leaf_vector":"1"}},{"base_weights":[-8.78265E-3,-2.9714632E-1,1.0826148E0,-1.1077613E0,-1.8708223E-1,1.4016856E0,9.655188E-2,-1.0410267E-3,-2.470835E-2,-7.7450466E-3,3.1191276E-3,1.3763315E-2,2.7205013E-2,3.9900527E-3,-3.040992E-2],"categories":[],"categories_nodes":[],"categories_segments":[],"categories_sizes":[],"default_left":[0,0,0,0,0,0,0,0,0,0,0,0,0,0,0],"id":11,"left_children":[1,3,5,7,9,11,13,-1,-1,-1,-1,-1,-1,-1,-1],"loss_changes":[7.694958E2,1.7234346E2,1.6063757E2,1.00425354E2,1.8822351E2,5.76662E1,3.767531E1,0E0,0E0,0E0,0E0,0E0,0E0,0E0,0E0],"parents":[2147483647,0,0,1,1,2,2,3,3,4,4,5,5,6,6],"right_children":[2,4,6,8,10,12,14,-1,-1,-1,-1,-1,-1,-1,-1],"split_conditions":[7.941067E-1,-1.2647059E0,1.168751E-1,-5.340976E-1,-1.3625997E-1,5.5701256E-1,4.3956736E-1,-1.0410267E-3,-2.470835E-2,-7.7450466E-3,3.1191276E-3,1.3763315E-2,2.7205013E-2,3.9900527E-3,-3.040992E-2],"split_indices":[157,11,5,69,137,137,5,0,0,0,0,0,0,0,0],"split_type":[0,0,0,0,0,0,0,0,0,0,0,0,0,0,0],"sum_hessian":[2.443E3,1.933E3,5.1E2,2.3E2,1.703E3,3.85E2,1.25E2,6.6E1,1.64E2,9.64E2,7.39E2,1.3E2,2.55E2,1.17E2,8E0],"tree_param":{"num_deleted":"0","num_feature":"243","num_nodes":"15","size_leaf_vector":"1"}},{"base_weights":[-9.626602E-3,-3.0551365E-1,1.0756874E0,-1.121012E0,-1.950918E-1,-6.813116E-2,1.3797652E0,-2.4031233E-2,-2.3282578E-3,-7.4662883E-3,3.1287658E-3,3.1089652E-3,-3.0516172E-2,1.1844503E-2,2.6813243E-2],"categories":[],"categories_nodes":[],"categories_segments":[],"categories_sizes":[],"default_left":[0,0,0,0,0,0,0,0,0,0,0,0,0,0,0],"id":12,"left_children":[1,3,5,7,9,11,13,-1,-1,-1,-1,-1,-1,-1,-1],"loss_changes":[7.854924E2,1.7285518E2,1.8234637E2,8.080176E1,1.7477762E2,5.2741543E1,7.263519E1,0E0,0E0,0E0,0E0,0E0,0E0,0E0,0E0],"parents":[2147483647,0,0,1,1,2,2,3,3,4,4,5,5,6,6],"right_children":[2,4,6,8,10,12,14,-1,-1,-1,-1,-1,-1,-1,-1],"split_conditions":[7.969136E-1,-1.2647059E0,-1.0050505E0,-3.3676976E-1,-1.0114285E-1,1.6296296E0,3.346561E-1,-2.4031233E-2,-2.3282578E-3,-7.4662883E-3,3.1287658E-3,3.1089652E-3,-3.0516172E-2,1.1844503E-2,2.6813243E-2],"split_indices":[153,11,12,81,133,99,136,0,0,0,0,0,0,0,0],"split_type":[0,0,0,0,0,0,0,0,0,0,0,0,0,0,0],"sum_hessian":[2.444E3,1.921E3,5.23E2,2.28E2,1.693E3,1.1E2,4.13E2,1.66E2,6.2E1,1.005E3,6.88E2,9.7E1,1.3E1,1.24E2,2.89E2],"tree_param":{"num_deleted":"0","num_feature":"243","num_nodes":"15","size_leaf_vector":"1"}},{"base_weights":[-4.133682E-3,-3.6078313E-1,8.339007E-1,-1.2097777E0,-2.3740214E-1,2.1314135E-1,1.1919833E0,-4.3197817E-4,-2.3268294E-2,-9.421238E-3,2.6411028E-4,-4.7179866E-3,7.125799E-3,2.6288839E-2,1.1661495E-2],"categories":[],"categories_nodes":[],"categories_segments":[],"categories_sizes":[],"default_left":[0,0,0,0,0,0,0,0,0,0,0,0,0,0,0],"id":13,"left_children":[1,3,5,7,9,11,13,-1,-1,-1,-1,-1,-1,-1,-1],"loss_changes":[7.3286676E2,1.7988242E2,1.6245721E2,5.8286255E1,1.3117807E2,3.0867376E1,9.3145935E1,0E0,0E0,0E0,0E0,0E0,0E0,0E0,0E0],"parents":[2147483647,0,0,1,1,2,2,3,3,4,4,5,5,6,6],"right_children":[2,4,6,8,10,12,14,-1,-1,-1,-1,-1,-1,-1,-1],"split_conditions":[3.3333334E-1,-1.2647059E0,7.969136E-1,-7.790698E-1,-3.8204592E-1,-8.537427E-2,2.2162162E-1,-4.3197817E-4,-2.3268294E-2,-9.421238E-3,2.6411028E-4,-4.7179866E-3,7.125799E-3,2.6288839E-2,1.1661495E-2],"split_indices":[155,11,153,47,135,4,97,0,0,0,0,0,0,0,0],"split_type":[0,0,0,0,0,0,0,0,0,0,0,0,0,0,0],"sum_hessian":[2.45E3,1.719E3,7.31E2,2.17E2,1.502E3,2.68E2,4.63E2,3.5E1,1.82E2,6.37E2,8.65E2,8.3E1,1.85E2,2.41E2,2.22E2],"tree_param":{"num_deleted":"0","num_feature":"243","num_nodes":"15","size_leaf_vector":"1"}},{"base_weights":[1.1496401E-2,-2.6514816E-1,1.0382512E0,-8.587874E-1,-1.209608E-1,3.6144894E-2,1.2977893E0,-2.5699966E-2,-9.212296E-3,-6.1421487E-3,2.4623796E-3,5.6182784E-3,-1.6347142E-2,1.24712745E-2,2.5141476E-2],"categories":[],"categories_nodes":[],"categories_segments":[],"categories_sizes":[],"default_left":[0,0,0,0,0,0,0,0,0,0,0,0,0,0,0],"id":14,"left_children":[1,3,5,7,9,11,13,-1,-1,-1,-1,-1,-1,-1,-1],"loss_changes":[6.959043E2,1.6509499E2,1.3519714E2,7.8680115E1,1.09511765E2,3.5398304E1,5.4151E1,0E0,0E0,0E0,0E0,0E0,0E0,0E0,0E0],"parents":[2147483647,0,0,1,1,2,2,3,3,4,4,5,5,6,6],"right_children":[2,4,6,8,10,12,14,-1,-1,-1,-1,-1,-1,-1,-1],"split_conditions":[7.969136E-1,-8.179631E-1,-1.0404041E0,-1.2647059E0,-1.3657142E-1,1.25E0,4.047619E-1,-2.5699966E-2,-9.212296E-3,-6.1421487E-3,2.4623796E-3,5.6182784E-3,-1.6347142E-2,1.24712745E-2,2.5141476E-2],"split_indices":[153,89,12,11,133,104,136,0,0,0,0,0,0,0,0],"split_type":[0,0,0,0,0,0,0,0,0,0,0,0,0,0,0],"sum_hessian":[2.448E3,1.929E3,5.19E2,3.76E2,1.553E3,1.07E2,4.12E2,1.06E2,2.7E2,7.98E2,7.55E2,8.3E1,2.4E1,1.35E2,2.77E2],"tree_param":{"num_deleted":"0","num_feature":"243","num_nodes":"15","size_leaf_vector":"1"}},{"base_weights":[3.7446825E-3,-3.2381588E-1,8.724652E-1,-1.0916678E0,-2.0890272E-1,3.9130923E-1,1.2776877E0,-2.7456578E-2,-8.106079E-3,-8.13545E-3,2.0750691E-3,1.0057838E-2,-2.3736553E-3,2.8730664E-2,1.3992251E-2],"categories":[],"categories_nodes":[],"categories_segments":[],"categories_sizes":[],"default_left":[0,0,0,0,0,0,0,0,0,0,0,0,0,0,0],"id":15,"left_children":[1,3,5,7,9,11,13,-1,-1,-1,-1,-1,-1,-1,-1],"loss_changes":[6.9005255E2,1.5515605E2,1.2896362E2,8.078204E1,1.5148996E2,3.771372E1,7.2328064E1,0E0,0E0,0E0,0E0,0E0,0E0,0E0,0E0],"parents":[2147483647,0,0,1,1,2,2,3,3,4,4,5,5,6,6],"right_children":[2,4,6,8,10,12,14,-1,-1,-1,-1,-1,-1,-1,-1],"split_conditions":[4.3030304E-1,-1.2647059E0,9.8763955E-1,-5.1510427E-2,-1.96E-1,3.846154E-2,1.4285715E-1,-2.7456578E-2,-8.106079E-3,-8.13545E-3,2.0750691E-3,1.0057838E-2,-2.3736553E-3,2.8730664E-2,1.3992251E-2],"split_indices":[150,11,153,157,133,2,100,0,0,0,0,0,0,0,0],"split_type":[0,0,0,0,0,0,0,0,0,0,0,0,0,0,0],"sum_hessian":[2.423E3,1.76E3,6.63E2,2.28E2,1.532E3,3.04E2,3.59E2,1.12E2,1.16E2,8.19E2,7.13E2,2.13E2,9.1E1,1.62E2,1.97E2],"tree_param":{"num_deleted":"0","num_feature":"243","num_nodes":"15","size_leaf_vector":"1"}},{"base_weights":[-7.537049E-3,-2.7585068E-1,1.0354927E0,-8.965105E-1,-1.2029957E-1,1.5134082E0,3.5134777E-1,-2.6456757E-2,-1.0401973E-2,-6.226598E-3,2.8375776E-3,2.953049E-2,1.323751E-2,7.675629E-3,-2.633103E-2],"categories":[],"categories_nodes":[],"categories_segments":[],"categories_sizes":[],"default_left":[0,0,0,0,0,0,0,0,0,0,0,0,0,0,0],"id":16,"left_children":[1,3,5,7,9,11,13,-1,-1,-1,-1,-1,-1,-1,-1],"loss_changes":[6.6746967E2,1.8303674E2,1.5902643E2,7.017255E1,1.1843112E2,6.0269836E1,4.960196E1,0E0,0E0,0E0,0E0,0E0,0E0,0E0,0E0],"parents":[2147483647,0,0,1,1,2,2,3,3,4,4,5,5,6,6],"right_children":[2,4,6,8,10,12,14,-1,-1,-1,-1,-1,-1,-1,-1],"split_conditions":[7.941067E-1,-7.914996E-1,-6.33275E-2,-1.3720931E0,-1.14285715E-1,1.3513513E-1,1.6296296E0,-2.6456757E-2,-1.0401973E-2,-6.226598E-3,2.8375776E-3,2.953049E-2,1.323751E-2,7.675629E-3,-2.633103E-2],"split_indices":[157,89,5,8,133,48,99,0,0,0,0,0,0,0,0],"split_type":[0,0,0,0,0,0,0,0,0,0,0,0,0,0,0],"sum_hessian":[2.383E3,1.896E3,4.87E2,3.79E2,1.517E3,2.86E2,2.01E2,9.6E1,2.83E2,8.01E2,7.16E2,1.97E2,8.9E1,1.9E2,1.1E1],"tree_param":{"num_deleted":"0","num_feature":"243","num_nodes":"15","size_leaf_vector":"1"}},{"base_weights":[6.3048094E-3,-2.5416386E-1,9.4717956E-1,1.01995505E-1,-4.6661684E-1,-1.4430179E-1,1.2329527E0,-4.562969E-3,4.939108E-3,-9.129789E-3,4.8428737E-3,1.6355676E-3,-2.7350565E-2,2.5194345E-2,1.3479545E-2],"categories":[],"categories_nodes":[],"categories_segments":[],"categories_sizes":[],"default_left":[0,0,0,0,0,0,0,0,0,0,0,0,0,0,0],"id":17,"left_children":[1,3,5,7,9,11,13,-1,-1,-1,-1,-1,-1,-1,-1],"loss_changes":[5.888951E2,1.4245306E2,1.6268619E2,5.48508E1,8.752319E1,4.1429813E1,5.2019165E1,0E0,0E0,0E0,0E0,0E0,0E0,0E0,0E0],"parents":[2147483647,0,0,1,1,2,2,3,3,4,4,5,5,6,6],"right_children":[2,4,6,8,10,12,14,-1,-1,-1,-1,-1,-1,-1,-1],"split_conditions":[7.969136E-1,-1.6953103E-1,-1.0555556E0,-6.666667E-1,7.085308E-1,1.6296296E0,7.4074075E-2,-4.562969E-3,4.939108E-3,-9.129789E-3,4.8428737E-3,1.6355676E-3,-2.7350565E-2,2.5194345E-2,1.3479545E-2],"split_indices":[153,7,12,93,156,99,99,0,0,0,0,0,0,0,0],"split_type":[0,0,0,0,0,0,0,0,0,0,0,0,0,0,0],"sum_hessian":[2.401E3,1.881E3,5.2E2,7.03E2,1.178E3,1.08E2,4.12E2,2.43E2,4.6E2,1.046E3,1.32E2,9.4E1,1.4E1,2.27E2,1.85E2],"tree_param":{"num_deleted":"0","num_feature":"243","num_nodes":"15","size_leaf_vector":"1"}},{"base_weights":[2.4917256E-2,-3.3010587E-1,7.06872E-1,-1.7999206E0,-2.678539E-1,3.5980043E-1,1.2586977E0,-1.2182094E-2,-3.3590514E-2,-1.2338551E-2,-2.3632962E-3,9.07126E-3,-2.4004697E-3,2.9506678E-2,1.28609175E-2],"categories":[],"categories_nodes":[],"categories_segments":[],"categories_sizes":[],"default_left":[0,0,0,0,0,0,0,0,0,0,0,0,0,0,0],"id":18,"left_children":[1,3,5,7,9,11,13,-1,-1,-1,-1,-1,-1,-1,-1],"loss_changes":[5.9049677E2,1.4628209E2,1.5946884E2,1.7040192E1,9.2630516E1,5.229795E1,8.27384E1,0E0,0E0,0E0,0E0,0E0,0E0,0E0,0E0],"parents":[2147483647,0,0,1,1,2,2,3,3,4,4,5,5,6,6],"right_children":[2,4,6,8,10,12,14,-1,-1,-1,-1,-1,-1,-1,-1],"split_conditions":[2.554517E-1,-1.9705882E0,1.0192524E0,-1.1194968E0,-8.797035E-1,8.064516E-2,1.13513514E-1,-1.2182094E-2,-3.3590514E-2,-1.2338551E-2,-2.3632962E-3,9.07126E-3,-2.4004697E-3,2.9506678E-2,1.28609175E-2],"split_indices":[155,11,153,35,137,1,97,0,0,0,0,0,0,0,0],"split_type":[0,0,0,0,0,0,0,0,0,0,0,0,0,0,0],"sum_hessian":[2.437E3,1.603E3,8.34E2,6.4E1,1.539E3,5.13E2,3.21E2,1.4E1,5E1,3.04E2,1.235E3,3.68E2,1.45E2,1.44E2,1.77E2],"tree_param":{"num_deleted":"0","num_feature":"243","num_nodes":"15","size_leaf_vector":"1"}},{"base_weights":[-1.0396035E-3,-3.415757E-1,7.235909E-1,-1.0814409E0,-2.261538E-1,1.4458883E-1,1.0897429E0,-2.5447983E-2,-8.770268E-3,-7.224636E-3,1.1504329E-3,9.232224E-4,1.6716871E-2,2.7106902E-2,1.208852E-2],"categories":[],"categories_nodes":[],"categories_segments":[],"categories_sizes":[],"default_left":[0,0,0,0,0,0,0,0,0,0,0,0,0,0,0],"id":19,"left_children":[1,3,5,7,9,11,13,-1,-1,-1,-1,-1,-1,-1,-1],"loss_changes":[5.9741327E2,1.4040376E2,1.6393259E2,5.7792877E1,9.312013E1,2.3334223E1,9.3752625E1,0E0,0E0,0E0,0E0,0E0,0E0,0E0,0E0],"parents":[2147483647,0,0,1,1,2,2,3,3,4,4,5,5,6,6],"right_children":[2,4,6,8,10,12,14,-1,-1,-1,-1,-1,-1,-1,-1],"split_conditions":[2.9283488E-1,-1.2647059E0,7.7766126E-1,-4.1045055E-2,-1.3657142E-1,1.2771605E0,0E0,-2.5447983E-2,-8.770268E-3,-7.224636E-3,1.1504329E-3,9.232224E-4,1.6716871E-2,2.7106902E-2,1.208852E-2],"split_indices":[155,11,153,157,133,45,97,0,0,0,0,0,0,0,0],"split_type":[0,0,0,0,0,0,0,0,0,0,0,0,0,0,0],"sum_hessian":[2.419E3,1.646E3,7.73E2,2.21E2,1.425E3,3E2,4.73E2,1.15E2,1.06E2,8.19E2,6.06E2,2.74E2,2.6E1,1.74E2,2.99E2],"tree_param":{"num_deleted":"0","num_feature":"243","num_nodes":"15","size_leaf_vector":"1"}},{"base_weights":[2.1055079E-4,-3.463601E-1,6.819679E-1,-1.3145921E0,-2.622444E-1,1.22969374E-1,1.0046849E0,-1.9197915E-3,-2.7156476E-2,-1.18176965E-2,-2.2088485E-3,3.305217E-3,-1.0018007E-2,2.3208441E-2,1.0638589E-2],"categories":[],"categories_nodes":[],"categories_segments":[],"categories_sizes":[],"default_left":[0,0,0,0,0,0,0,0,0,0,0,0,0,0,0],"id":20,"left_children":[1,3,5,7,9,11,13,-1,-1,-1,-1,-1,-1,-1,-1],"loss_changes":[5.762797E2,1.3134943E2,1.4816397E2,5.5544296E1,8.7477615E1,1.8256943E1,7.661182E1,0E0,0E0,0E0,0E0,0E0,0E0,0E0,0E0],"parents":[2147483647,0,0,1,1,2,2,3,3,4,4,5,5,6,6],"right_children":[2,4,6,8,10,12,14,-1,-1,-1,-1,-1,-1,-1,-1],"split_conditions":[2.554517E-1,-1.5121951E0,6.938321E-1,-9.096386E-1,-8.6031926E-1,7.1710527E-1,7.5675674E-2,-1.9197915E-3,-2.7156476E-2,-1.18176965E-2,-2.2088485E-3,3.305217E-3,-1.0018007E-2,2.3208441E-2,1.0638589E-2],"split_indices":[155,15,157,39,137,128,97,0,0,0,0,0,0,0,0],"split_type":[0,0,0,0,0,0,0,0,0,0,0,0,0,0,0],"sum_hessian":[2.437E3,1.616E3,8.21E2,1.28E2,1.488E3,3.01E2,5.2E2,3E1,9.8E1,3.15E2,1.173E3,2.72E2,2.9E1,2.32E2,2.88E2],"tree_param":{"num_deleted":"0","num_feature":"243","num_nodes":"15","size_leaf_vector":"1"}},{"base_weights":[2.5819081E-3,-3.0481663E-1,7.852103E-1,-1.002991E0,-2.0179501E-1,8.941687E-2,1.0293165E0,3.8533062E-3,-2.0381467E-2,-6.577625E-3,2.1832127E-3,7.494426E-3,-3.975394E-3,2.2807969E-2,9.980552E-3],"categories":[],"categories_nodes":[],"categories_segments":[],"categories_sizes":[],"default_left":[0,0,0,0,0,0,0,0,0,0,0,0,0,0,0],"id":21,"left_children":[1,3,5,7,9,11,13,-1,-1,-1,-1,-1,-1,-1,-1],"loss_changes":[5.843648E2,1.2523837E2,1.1625345E2,7.1109146E1,1.0453264E2,2.2467567E1,7.8400085E1,0E0,0E0,0E0,0E0,0E0,0E0,0E0,0E0],"parents":[2147483647,0,0,1,1,2,2,3,3,4,4,5,5,6,6],"right_children":[2,4,6,8,10,12,14,-1,-1,-1,-1,-1,-1,-1,-1],"split_conditions":[3.939394E-1,-1.2647059E0,2.4526067E-1,-9.408284E-1,-1.009122E-1,-2.0689656E-1,1.5135135E-1,3.8533062E-3,-2.0381467E-2,-6.577625E-3,2.1832127E-3,7.494426E-3,-3.975394E-3,2.2807969E-2,9.980552E-3],"split_indices":[150,11,156,43,137,111,97,0,0,0,0,0,0,0,0],"split_type":[0,0,0,0,0,0,0,0,0,0,0,0,0,0,0],"sum_hessian":[2.427E3,1.743E3,6.84E2,2.23E2,1.52E3,1.78E2,5.06E2,3.8E1,1.85E2,9.46E2,5.74E2,8.4E1,9.4E1,2.63E2,2.43E2],"tree_param":{"num_deleted":"0","num_feature":"243","num_nodes":"15","size_leaf_vector":"1"}},{"base_weights":[1.6610258E-3,-2.3152308E-1,9.0790665E-1,-9.681288E-1,-1.2797134E-1,-8.571947E-2,1.1609558E0,-2.221279E-2,1.1012938E-3,-5.811925E-3,2.4423264E-3,1.9589062E-3,-2.6382923E-2,2.5074778E-2,1.2644531E-2],"categories":[],"categories_nodes":[],"categories_segments":[],"categories_sizes":[],"default_left":[0,0,0,0,0,0,0,0,0,0,0,0,0,0,0],"id":22,"left_children":[1,3,5,7,9,11,13,-1,-1,-1,-1,-1,-1,-1,-1],"loss_changes":[5.0907373E2,1.4602246E2,1.2405759E2,9.854732E1,1.0812669E2,3.2382347E1,5.660132E1,0E0,0E0,0E0,0E0,0E0,0E0,0E0,0E0],"parents":[2147483647,0,0,1,1,2,2,3,3,4,4,5,5,6,6],"right_children":[2,4,6,8,10,12,14,-1,-1,-1,-1,-1,-1,-1,-1],"split_conditions":[8.279272E-1,-1.2647059E0,-1.0404041E0,-3.8319907E-1,-1.7195767E-1,1.6296296E0,-5.2380955E-1,-2.221279E-2,1.1012938E-3,-5.811925E-3,2.4423264E-3,1.9589062E-3,-2.6382923E-2,2.5074778E-2,1.2644531E-2],"split_indices":[153,11,12,85,136,99,30,0,0,0,0,0,0,0,0],"split_type":[0,0,0,0,0,0,0,0,0,0,0,0,0,0,0],"sum_hessian":[2.407E3,1.915E3,4.92E2,2.35E2,1.68E3,1E2,3.92E2,1.69E2,6.6E1,9.19E2,7.61E2,8.9E1,1.1E1,1.93E2,1.99E2],"tree_param":{"num_deleted":"0","num_feature":"243","num_nodes":"15","size_leaf_vector":"1"}},{"base_weights":[-1.1238157E-2,-2.868915E-1,7.274306E-1,1.2708198E-1,-4.8899418E-1,3.877896E-1,1.1377645E0,-1.9120303E-3,1.0072879E-2,-2.6981112E-2,-6.8823593E-3,8.243251E-3,-5.4794964E-3,2.9739968E-2,1.208227E-2],"categories":[],"categories_nodes":[],"categories_segments":[],"categories_sizes":[],"default_left":[0,0,0,0,0,0,0,0,0,0,0,0,0,0,0],"id":23,"left_children":[1,3,5,7,9,11,13,-1,-1,-1,-1,-1,-1,-1,-1],"loss_changes":[5.0049445E2,1.4982274E2,9.2655396E1,7.1336754E1,9.022931E1,3.238477E1,8.123953E1,0E0,0E0,0E0,0E0,0E0,0E0,0E0,0E0],"parents":[2147483647,0,0,1,1,2,2,3,3,4,4,5,5,6,6],"right_children":[2,4,6,8,10,12,14,-1,-1,-1,-1,-1,-1,-1,-1],"split_conditions":[4.3030304E-1,-2.5120184E-1,9.5570576E-1,5.6571428E-2,-2.2916667E0,4.1055045E-1,0E0,-1.9120303E-3,1.0072879E-2,-2.6981112E-2,-6.8823593E-3,8.243251E-3,-5.4794964E-3,2.9739968E-2,1.208227E-2],"split_indices":[150,7,148,133,10,28,97,0,0,0,0,0,0,0,0],"split_type":[0,0,0,0,0,0,0,0,0,0,0,0,0,0,0],"sum_hessian":[2.456E3,1.789E3,6.67E2,5.87E2,1.202E3,3.66E2,3.01E2,3.93E2,1.94E2,6.1E1,1.141E3,3.14E2,5.2E1,1.07E2,1.94E2],"tree_param":{"num_deleted":"0","num_feature":"243","num_nodes":"15","size_leaf_vector":"1"}},{"base_weights":[8.557672E-3,-2.5368062E-1,7.4239844E-1,-9.176348E-1,-1.509048E-1,3.44421E-1,1.1091824E0,-1.6188873E-2,1.38216615E-2,-8.8810995E-3,-4.02513E-4,-1.0521869E-2,6.8046446E-3,2.7100557E-2,1.241972E-2],"categories":[],"categories_nodes":[],"categories_segments":[],"categories_sizes":[],"default_left":[0,0,0,0,0,0,0,0,0,0,0,0,0,0,0],"id":24,"left_children":[1,3,5,7,9,11,13,-1,-1,-1,-1,-1,-1,-1,-1],"loss_changes":[4.6416397E2,1.2112124E2,9.231003E1,3.5153275E1,7.7090775E1,2.3231285E1,6.2422516E1,0E0,0E0,0E0,0E0,0E0,0E0,0E0,0E0],"parents":[2147483647,0,0,1,1,2,2,3,3,4,4,5,5,6,6],"right_children":[2,4,6,8,10,12,14,-1,-1,-1,-1,-1,-1,-1,-1],"split_conditions":[3.9252338E-1,-9.182037E-1,1.0095887E0,4.4444445E-1,-6.0751563E-1,-3.452244E-1,6.25E-2,-1.6188873E-2,1.38216615E-2,-8.8810995E-3,-4.02513E-4,-1.0521869E-2,6.8046446E-3,2.7100557E-2,1.241972E-2],"split_indices":[155,89,153,18,135,85,101,0,0,0,0,0,0,0,0],"split_type":[0,0,0,0,0,0,0,0,0,0,0,0,0,0,0],"sum_hessian":[2.41E3,1.776E3,6.34E2,2.37E2,1.539E3,3.05E2,3.29E2,2.27E2,1E1,3.7E2,1.169E3,2.1E1,2.84E2,1.23E2,2.06E2],"tree_param":{"num_deleted":"0","num_feature":"243","num_nodes":"15","size_leaf_vector":"1"}},{"base_weights":[-1.1110227E-2,-2.4165484E-1,8.648012E-1,-8.962963E-1,-1.5267807E-1,-1.273726E-1,1.1390765E0,-1.9858202E-2,1.1869756E-3,-5.9859357E-3,2.4205346E-3,9.436637E-4,-2.504123E-2,4.138516E-2,1.689305E-2],"categories":[],"categories_nodes":[],"categories_segments":[],"categories_sizes":[],"default_left":[0,0,0,0,0,0,0,0,0,0,0,0,0,0,0],"id":25,"left_children":[1,3,5,7,9,11,13,-1,-1,-1,-1,-1,-1,-1,-1],"loss_changes":[4.971751E2,1.13388306E2,1.3974713E2,7.44518E1,1.1245148E2,2.9566313E1,5.2273743E1,0E0,0E0,0E0,0E0,0E0,0E0,0E0,0E0],"parents":[2147483647,0,0,1,1,2,2,3,3,4,4,5,5,6,6],"right_children":[2,4,6,8,10,12,14,-1,-1,-1,-1,-1,-1,-1,-1],"split_conditions":[7.941067E-1,-1.2647059E0,-1.0404041E0,-3.8319907E-1,-1.0114285E-1,1.6296296E0,-1.8928572E0,-1.9858202E-2,1.1869756E-3,-5.9859357E-3,2.4205346E-3,9.436637E-4,-2.504123E-2,4.138516E-2,1.689305E-2],"split_indices":[157,11,12,85,133,99,46,0,0,0,0,0,0,0,0],"split_type":[0,0,0,0,0,0,0,0,0,0,0,0,0,0,0],"sum_hessian":[2.46E3,1.948E3,5.12E2,2.32E2,1.716E3,1.11E2,4.01E2,1.73E2,5.9E1,9.99E2,7.17E2,9.9E1,1.2E1,2.4E1,3.77E2],"tree_param":{"num_deleted":"0","num_feature":"243","num_nodes":"15","size_leaf_vector":"1"}},{"base_weights":[-5.29781E-3,-2.4145456E-1,8.7741196E-1,-8.898926E-1,-1.22458205E-1,1.2976418E0,2.334296E-1,-2.5100218E-2,-1.0550649E-2,-7.5538573E-3,2.2683518E-4,2.8653933E-2,1.5254139E-2,-3.0671775E-2,5.916318E-3],"categories":[],"categories_nodes":[],"categories_segments":[],"categories_sizes":[],"default_left":[0,0,0,0,0,0,0,0,0,0,0,0,0,0,0],"id":26,"left_children":[1,3,5,7,9,11,13,-1,-1,-1,-1,-1,-1,-1,-1],"loss_changes":[5.0467987E2,1.4726999E2,1.3798419E2,4.5577774E1,7.574985E1,5.01485E1,5.7524014E1,0E0,0E0,0E0,0E0,0E0,0E0,0E0,0E0],"parents":[2147483647,0,0,1,1,2,2,3,3,4,4,5,5,6,6],"right_children":[2,4,6,8,10,12,14,-1,-1,-1,-1,-1,-1,-1,-1],"split_conditions":[7.969136E-1,-8.72494E-1,-6.33275E-2,-1.3488373E0,-5.427975E-1,-5.85034E-1,5E-1,-2.5100218E-2,-1.0550649E-2,-7.5538573E-3,2.2683518E-4,2.8653933E-2,1.5254139E-2,-3.0671775E-2,5.916318E-3],"split_indices":[153,89,5,8,135,30,84,0,0,0,0,0,0,0,0],"split_type":[0,0,0,0,0,0,0,0,0,0,0,0,0,0,0],"sum_hessian":[2.419E3,1.909E3,5.1E2,2.95E2,1.614E3,3.08E2,2.02E2,7.7E1,2.18E2,4.58E2,1.156E3,1.31E2,1.77E2,1.1E1,1.91E2],"tree_param":{"num_deleted":"0","num_feature":"243","num_nodes":"15","size_leaf_vector":"1"}},{"base_weights":[1.2805926E-2,-2.8446224E-1,7.030621E-1,-8.071763E-1,-1.6452454E-1,1.1815474E-1,9.621556E-1,-1.553488E-2,7.3543084E-3,-9.415923E-3,-6.76112E-4,7.5521227E-3,-2.4703378E-3,2.2671463E-2,9.358616E-3],"categories":[],"categories_nodes":[],"categories_segments":[],"categories_sizes":[],"default_left":[0,0,0,0,0,0,0,0,0,0,0,0,0,0,0],"id":27,"left_children":[1,3,5,7,9,11,13,-1,-1,-1,-1,-1,-1,-1,-1],"loss_changes":[5.0373917E2,1.0744859E2,1.1187857E2,6.1568542E1,7.14348E1,2.1535215E1,8.523483E1,0E0,0E0,0E0,0E0,0E0,0E0,0E0,0E0],"parents":[2147483647,0,0,1,1,2,2,3,3,4,4,5,5,6,6],"right_children":[2,4,6,8,10,12,14,-1,-1,-1,-1,-1,-1,-1,-1],"split_conditions":[3.939394E-1,-8.468324E-1,7.502412E-1,3.888889E-1,-7.5940704E-1,-2.0689656E-1,8.3333336E-2,-1.553488E-2,7.3543084E-3,-9.415923E-3,-6.76112E-4,7.5521227E-3,-2.4703378E-3,2.2671463E-2,9.358616E-3],"split_indices":[150,89,157,18,137,111,93,0,0,0,0,0,0,0,0],"split_type":[0,0,0,0,0,0,0,0,0,0,0,0,0,0,0],"sum_hessian":[2.453E3,1.715E3,7.38E2,3.19E2,1.396E3,2.27E2,5.11E2,2.85E2,3.4E1,3.17E2,1.079E3,9.9E1,1.28E2,2.38E2,2.73E2],"tree_param":{"num_deleted":"0","num_feature":"243","num_nodes":"15","size_leaf_vector":"1"}},{"base_weights":[-8.307445E-3,-3.2679766E-1,5.9199214E-1,-1.6642259E0,-2.7041826E-1,1.4443251E-1,8.9334065E-1,-8.435603E-3,-3.1082507E-2,-1.1403796E-2,-2.6229639E-3,-3.5601342E-3,6.1488664E-3,2.1899179E-2,8.6749885E-3],"categories":[],"categories_nodes":[],"categories_segments":[],"categories_sizes":[],"default_left":[0,0,0,0,0,0,0,0,0,0,0,0,0,0,0],"id":28,"left_children":[1,3,5,7,9,11,13,-1,-1,-1,-1,-1,-1,-1,-1],"loss_changes":[4.644017E2,1.19215164E2,1.1343271E2,1.7586105E1,7.157223E1,2.9180107E1,8.176456E1,0E0,0E0,0E0,0E0,0E0,0E0,0E0,0E0],"parents":[2147483647,0,0,1,1,2,2,3,3,4,4,5,5,6,6],"right_children":[2,4,6,8,10,12,14,-1,-1,-1,-1,-1,-1,-1,-1],"split_conditions":[2.554517E-1,-1.9705882E0,7.7766126E-1,-1.1320754E0,-8.817143E-1,-1.80446E-1,8.648649E-2,-8.435603E-3,-3.1082507E-2,-1.1403796E-2,-2.6229639E-3,-3.5601342E-3,6.1488664E-3,2.1899179E-2,8.6749885E-3],"split_indices":[155,11,153,35,133,6,97,0,0,0,0,0,0,0,0],"split_type":[0,0,0,0,0,0,0,0,0,0,0,0,0,0,0],"sum_hessian":[2.427E3,1.586E3,8.41E2,6.3E1,1.523E3,3.39E2,5.02E2,1.2E1,5.1E1,3.04E2,1.219E3,1.33E2,2.06E2,2.19E2,2.83E2],"tree_param":{"num_deleted":"0","num_feature":"243","num_nodes":"15","size_leaf_vector":"1"}},{"base_weights":[-1.7624825E-2,-2.5230655E-1,7.2897404E-1,8.377273E-2,-4.362001E-1,5.1428854E-1,1.2911625E0,-2.722634E-3,7.873941E-3,-2.1324392E-2,-6.0474747E-3,-1.212427E-2,9.427236E-3,3.0020637E-2,1.4118627E-2],"categories":[],"categories_nodes":[],"categories_segments":[],"categories_sizes":[],"default_left":[0,0,0,0,0,0,0,0,0,0,0,0,0,0,0],"id":29,"left_children":[1,3,5,7,9,11,13,-1,-1,-1,-1,-1,-1,-1,-1],"loss_changes":[4.2858E2,1.15051575E2,6.99418E1,6.68079E1,6.618846E1,3.6640366E1,3.6340454E1,0E0,0E0,0E0,0E0,0E0,0E0,0E0,0E0],"parents":[2147483647,0,0,1,1,2,2,3,3,4,4,5,5,6,6],"right_children":[2,4,6,8,10,12,14,-1,-1,-1,-1,-1,-1,-1,-1],"split_conditions":[4.4859812E-1,-1.6953103E-1,1.1672035E0,3.0285714E-2,-1.9117647E0,-3.452244E-1,6.5870243E-1,-2.722634E-3,7.873941E-3,-2.1324392E-2,-6.0474747E-3,-1.212427E-2,9.427236E-3,3.0020637E-2,1.4118627E-2],"split_indices":[155,7,153,133,11,85,4,0,0,0,0,0,0,0,0],"split_type":[0,0,0,0,0,0,0,0,0,0,0,0,0,0,0],"sum_hessian":[2.444E3,1.86E3,5.84E2,6.58E2,1.202E3,4.24E2,1.6E2,4.05E2,2.53E2,7.9E1,1.123E3,2.1E1,4.03E2,6.7E1,9.3E1],"tree_param":{"num_deleted":"0","num_feature":"243","num_nodes":"15","size_leaf_vector":"1"}},{"base_weights":[1.9183334E-2,-2.2255078E-1,7.959174E-1,-7.0999175E-1,-5.714076E-2,3.4963805E-2,7.185617E-1,-1.5242977E-2,-4.2109867E-3,-4.7099264E-3,2.5106417E-3,-4.48527E-3,1.3038829E-2],"categories":[],"categories_nodes":[],"categories_segments":[],"categories_sizes":[],"default_left":[0,0,0,0,0,0,0,0,0,0,0,0,0],"id":30,"left_children":[1,3,5,7,9,-1,11,-1,-1,-1,-1,-1,-1],"loss_changes":[4.635765E2,1.5178125E2,6.0177795E1,4.9282623E1,6.972322E1,0E0,4.7860046E1,0E0,0E0,0E0,0E0,0E0,0E0],"parents":[2147483647,0,0,1,1,2,2,3,3,4,4,6,6],"right_children":[2,4,6,8,10,-1,12,-1,-1,-1,-1,-1,-1],"split_conditions":[4.4859812E-1,-7.3135525E-1,-1.8928572E0,7.1428573E-1,-2.2354497E-1,3.4963805E-2,-2.5546604E-1,-1.5242977E-2,-4.2109867E-3,-4.7099264E-3,2.5106417E-3,-4.48527E-3,1.3038829E-2],"split_indices":[155,89,46,112,136,0,85,0,0,0,0,0,0],"split_type":[0,0,0,0,0,0,0,0,0,0,0,0,0],"sum_hessian":[2.467E3,1.882E3,5.85E2,4.76E2,1.406E3,3E1,5.55E2,3.14E2,1.62E2,6.69E2,7.37E2,4.4E1,5.11E2],"tree_param":{"num_deleted":"0","num_feature":"243","num_nodes":"13","size_leaf_vector":"1"}},{"base_weights":[1.2780521E-2,-2.0614417E-1,7.68825E-1,-7.6450837E-1,-8.712792E-2,-1.58412E-2,1.0272522E0,-2.268454E-2,-7.744006E-3,-8.715415E-3,3.2131482E-4,3.3073695E-3,-2.5609385E-2,2.0326206E-2,5.6577413E-3],"categories":[],"categories_nodes":[],"categories_segments":[],"categories_sizes":[],"default_left":[0,0,0,0,0,0,0,0,0,0,0,0,0,0,0],"id":31,"left_children":[1,3,5,7,9,11,13,-1,-1,-1,-1,-1,-1,-1,-1],"loss_changes":[4.0468158E2,1.2593096E2,1.1134201E2,5.9973877E1,7.540548E1,4.746555E1,6.316333E1,0E0,0E0,0E0,0E0,0E0,0E0,0E0,0E0],"parents":[2147483647,0,0,1,1,2,2,3,3,4,4,5,5,6,6],"right_children":[2,4,6,8,10,12,14,-1,-1,-1,-1,-1,-1,-1,-1],"split_conditions":[7.502412E-1,-8.468324E-1,-5.268817E-1,-1.2647059E0,-8.6031926E-1,1.6296296E0,2.1081081E-1,-2.268454E-2,-7.744006E-3,-8.715415E-3,3.2131482E-4,3.3073695E-3,-2.5609385E-2,2.0326206E-2,5.6577413E-3],"split_indices":[157,89,1,11,137,99,48,0,0,0,0,0,0,0,0],"split_type":[0,0,0,0,0,0,0,0,0,0,0,0,0,0,0],"sum_hessian":[2.443E3,1.895E3,5.48E2,3.32E2,1.563E3,1.36E2,4.12E2,1.02E2,2.3E2,2.99E2,1.264E3,1.2E2,1.6E1,3.08E2,1.04E2],"tree_param":{"num_deleted":"0","num_feature":"243","num_nodes":"15","size_leaf_vector":"1"}},{"base_weights":[-6.227339E-3,-2.4485108E-1,6.8377435E-1,-6.7431766E-1,-9.919056E-2,4.5583525E-1,1.3089011E0,-2.2831904E-2,-8.391959E-3,-4.5160395E-3,3.1457217E-3,-1.28780035E-2,8.431475E-3,2.9846413E-2,1.3845285E-2],"categories":[],"categories_nodes":[],"categories_segments":[],"categories_sizes":[],"default_left":[0,0,0,0,0,0,0,0,0,0,0,0,0,0,0],"id":32,"left_children":[1,3,5,7,9,11,13,-1,-1,-1,-1,-1,-1,-1,-1],"loss_changes":[4.017507E2,1.1334773E2,8.874509E1,5.202382E1,7.139495E1,3.758664E1,3.8877716E1,0E0,0E0,0E0,0E0,0E0,0E0,0E0,0E0],"parents":[2147483647,0,0,1,1,2,2,3,3,4,4,5,5,6,6],"right_children":[2,4,6,8,10,12,14,-1,-1,-1,-1,-1,-1,-1,-1],"split_conditions":[3.9252338E-1,-7.3135525E-1,1.1609887E0,-1.5930233E0,5.0104383E-2,-3.452244E-1,-1.9415146E-1,-2.2831904E-2,-8.391959E-3,-4.5160395E-3,3.1457217E-3,-1.28780035E-2,8.431475E-3,2.9846413E-2,1.3845285E-2],"split_indices":[155,89,157,8,135,85,5,0,0,0,0,0,0,0,0],"split_type":[0,0,0,0,0,0,0,0,0,0,0,0,0,0,0],"sum_hessian":[2.438E3,1.812E3,6.26E2,4.58E2,1.354E3,4.6E2,1.66E2,7.9E1,3.79E2,8.4E2,5.14E2,2.2E1,4.38E2,7.5E1,9.1E1],"tree_param":{"num_deleted":"0","num_feature":"243","num_nodes":"15","size_leaf_vector":"1"}},{"base_weights":[8.7688485E-4,-2.1081747E-1,7.726776E-1,-9.293405E-2,-7.5425375E-1,1.1832778E0,2.3553772E-1,-8.153757E-3,1.06342304E-4,-1.7767018E-2,-3.5478144E-3,2.4648342E-2,1.0326493E-2,-1.4581616E-2,6.031068E-3],"categories":[],"categories_nodes":[],"categories_segments":[],"categories_sizes":[],"default_left":[0,0,0,0,0,0,0,0,0,0,0,0,0,0,0],"id":33,"left_children":[1,3,5,7,9,11,13,-1,-1,-1,-1,-1,-1,-1,-1],"loss_changes":[4.00785E2,1.232495E2,1.1617157E2,6.461786E1,6.2586426E1,5.4179504E1,3.6018475E1,0E0,0E0,0E0,0E0,0E0,0E0,0E0,0E0],"parents":[2147483647,0,0,1,1,2,2,3,3,4,4,5,5,6,6],"right_children":[2,4,6,8,10,12,14,-1,-1,-1,-1,-1,-1,-1,-1],"split_conditions":[7.941067E-1,1.2001979E0,-7.5361766E-2,-8.797035E-1,7.1428573E-1,-8.05501E-2,-2.0274915E-1,-8.153757E-3,1.06342304E-4,-1.7767018E-2,-3.5478144E-3,2.4648342E-2,1.0326493E-2,-1.4581616E-2,6.031068E-3],"split_indices":[157,13,5,137,112,53,81,0,0,0,0,0,0,0,0],"split_type":[0,0,0,0,0,0,0,0,0,0,0,0,0,0,0],"sum_hessian":[2.451E3,1.924E3,5.27E2,1.582E3,3.42E2,2.98E2,2.29E2,3.08E2,1.274E3,2.08E2,1.34E2,1.83E2,1.15E2,2.4E1,2.05E2],"tree_param":{"num_deleted":"0","num_feature":"243","num_nodes":"15","size_leaf_vector":"1"}},{"base_weights":[-1.895094E-2,-3.0243564E-1,5.420995E-1,-8.848315E-1,-1.8919568E-1,1.3293312E-1,8.0987394E-1,-1.2537534E-4,-1.7789397E-2,-7.144815E-3,3.495647E-4,3.7996662E-3,-9.54197E-3,2.0221122E-2,7.5011603E-3],"categories":[],"categories_nodes":[],"categories_segments":[],"categories_sizes":[],"default_left":[0,0,0,0,0,0,0,0,0,0,0,0,0,0,0],"id":34,"left_children":[1,3,5,7,9,11,13,-1,-1,-1,-1,-1,-1,-1,-1],"loss_changes":[3.8426782E2,1.05683136E2,8.874899E1,4.8745346E1,7.1367355E1,2.3739216E1,7.388776E1,0E0,0E0,0E0,0E0,0E0,0E0,0E0,0E0],"parents":[2147483647,0,0,1,1,2,2,3,3,4,4,5,5,6,6],"right_children":[2,4,6,8,10,12,14,-1,-1,-1,-1,-1,-1,-1,-1],"split_conditions":[2.554517E-1,-9.4545454E-1,7.262716E-1,-7.751479E-1,-3.6773092E-1,7.1710527E-1,7.5675674E-2,-1.2537534E-4,-1.7789397E-2,-7.144815E-3,3.495647E-4,3.7996662E-3,-9.54197E-3,2.0221122E-2,7.5011603E-3],"split_indices":[155,27,153,43,137,128,97,0,0,0,0,0,0,0,0],"split_type":[0,0,0,0,0,0,0,0,0,0,0,0,0,0,0],"sum_hessian":[2.414E3,1.604E3,8.1E2,2.6E2,1.344E3,3.21E2,4.89E2,5.1E1,2.09E2,6.12E2,7.32E2,2.82E2,3.9E1,2.15E2,2.74E2],"tree_param":{"num_deleted":"0","num_feature":"243","num_nodes":"15","size_leaf_vector":"1"}},{"base_weights":[-4.6161343E-3,-1.7676039E-1,8.8193834E-1,-8.791093E-1,-7.526817E-2,1.3014E0,5.185942E-1,-4.9915058E-3,-2.214196E-2,-4.50252E-3,4.173266E-3,-3.3550784E-3,2.2955582E-2,1.3144069E-2,4.5016557E-3],"categories":[],"categories_nodes":[],"categories_segments":[],"categories_sizes":[],"default_left":[0,0,0,0,0,0,0,0,0,0,0,0,0,0,0],"id":35,"left_children":[1,3,5,7,9,11,13,-1,-1,-1,-1,-1,-1,-1,-1],"loss_changes":[3.754368E2,1.467767E2,6.0288696E1,7.1932816E1,1.2149867E2,3.244525E1,1.4990032E1,0E0,0E0,0E0,0E0,0E0,0E0,0E0,0E0],"parents":[2147483647,0,0,1,1,2,2,3,3,4,4,5,5,6,6],"right_children":[2,4,6,8,10,12,14,-1,-1,-1,-1,-1,-1,-1,-1],"split_conditions":[6.635514E-1,-1.2647059E0,7.4074075E-2,-5.474088E-1,7.981756E-3,-5.395948E-1,8.252427E-1,-4.9915058E-3,-2.214196E-2,-4.50252E-3,4.173266E-3,-3.3550784E-3,2.2955582E-2,1.3144069E-2,4.5016557E-3],"split_indices":[155,11,99,68,137,105,151,0,0,0,0,0,0,0,0],"split_type":[0,0,0,0,0,0,0,0,0,0,0,0,0,0,0],"sum_hessian":[2.458E3,2.059E3,3.99E2,2.59E2,1.8E3,1.84E2,2.15E2,1.2E2,1.39E2,1.119E3,6.81E2,1.3E1,1.71E2,9.6E1,1.19E2],"tree_param":{"num_deleted":"0","num_feature":"243","num_nodes":"15","size_leaf_vector":"1"}},{"base_weights":[1.2280771E-2,-1.8721204E-1,7.530093E-1,1.0003617E-1,-3.672538E-1,-1.2345247E-1,9.613862E-1,-2.059432E-3,7.2942735E-3,-1.9711195E-2,-4.9976776E-3,6.434635E-4,-2.345098E-2,1.8525325E-2,4.5116576E-3],"categories":[],"categories_nodes":[],"categories_segments":[],"categories_sizes":[],"default_left":[0,0,0,0,0,0,0,0,0,0,0,0,0,0,0],"id":36,"left_children":[1,3,5,7,9,11,13,-1,-1,-1,-1,-1,-1,-1,-1],"loss_changes":[3.5936987E2,9.912588E1,9.435803E1,5.8820366E1,5.8483765E1,2.165567E1,5.146689E1,0E0,0E0,0E0,0E0,0E0,0E0,0E0,0E0],"parents":[2147483647,0,0,1,1,2,2,3,3,4,4,5,5,6,6],"right_children":[2,4,6,8,10,12,14,-1,-1,-1,-1,-1,-1,-1,-1],"split_conditions":[7.969136E-1,-2.2891834E-1,-1.0555556E0,1.1273486E-1,-1.9117647E0,1.6296296E0,-9.52381E-2,-2.059432E-3,7.2942735E-3,-1.9711195E-2,-4.9976776E-3,6.434635E-4,-2.345098E-2,1.8525325E-2,4.5116576E-3],"split_indices":[153,5,12,135,11,99,30,0,0,0,0,0,0,0,0],"split_type":[0,0,0,0,0,0,0,0,0,0,0,0,0,0,0],"sum_hessian":[2.43E3,1.915E3,5.15E2,7.38E2,1.177E3,9.9E1,4.16E2,4.48E2,2.9E2,7.5E1,1.102E3,8.9E1,1E1,3.28E2,8.8E1],"tree_param":{"num_deleted":"0","num_feature":"243","num_nodes":"15","size_leaf_vector":"1"}},{"base_weights":[-1.5321679E-2,-2.8281105E-1,5.164255E-1,-8.7184405E-1,-1.7992882E-1,1.16336145E-1,7.894593E-1,-1.8474566E-2,-2.4338104E-3,-9.8241875E-3,-6.951101E-4,5.2250144E-3,-3.101442E-3,5.585314E-3,1.7889118E-2],"categories":[],"categories_nodes":[],"categories_segments":[],"categories_sizes":[],"default_left":[0,0,0,0,0,0,0,0,0,0,0,0,0,0,0],"id":37,"left_children":[1,3,5,7,9,11,13,-1,-1,-1,-1,-1,-1,-1,-1],"loss_changes":[3.4976392E2,9.898642E1,8.9810974E1,4.6867935E1,8.1413635E1,2.1308975E1,6.802252E1,0E0,0E0,0E0,0E0,0E0,0E0,0E0,0E0],"parents":[2147483647,0,0,1,1,2,2,3,3,4,4,5,5,6,6],"right_children":[2,4,6,8,10,12,14,-1,-1,-1,-1,-1,-1,-1,-1],"split_conditions":[2.554517E-1,-1.2647059E0,7.7766126E-1,-4.8115477E-1,-8.346636E-1,8.064516E-2,-4.2307693E-1,-1.8474566E-2,-2.4338104E-3,-9.8241875E-3,-6.951101E-4,5.2250144E-3,-3.101442E-3,5.585314E-3,1.7889118E-2],"split_indices":[155,11,153,89,137,1,2,0,0,0,0,0,0,0,0],"split_type":[0,0,0,0,0,0,0,0,0,0,0,0,0,0,0],"sum_hessian":[2.457E3,1.635E3,8.22E2,2.42E2,1.393E3,3.34E2,4.88E2,1.76E2,6.6E1,3.38E2,1.055E3,2E2,1.34E2,2.03E2,2.85E2],"tree_param":{"num_deleted":"0","num_feature":"243","num_nodes":"15","size_leaf_vector":"1"}},{"base_weights":[-1.8907846E-3,-1.6879986E-1,8.4000486E-1,-7.0497704E-1,-6.5924786E-2,3.5347718E-1,1.1512135E0,-2.2284368E-2,-7.476275E-3,-4.0260954E-3,3.1645924E-3,1.1078804E-2,-2.994884E-3,8.6192535E-3,2.309747E-2],"categories":[],"categories_nodes":[],"categories_segments":[],"categories_sizes":[],"default_left":[0,0,0,0,0,0,0,0,0,0,0,0,0,0,0],"id":38,"left_children":[1,3,5,7,9,11,13,-1,-1,-1,-1,-1,-1,-1,-1],"loss_changes":[3.473668E2,1.137471E2,6.1520416E1,5.357112E1,8.26296E1,2.874398E1,4.1519043E1,0E0,0E0,0E0,0E0,0E0,0E0,0E0,0E0],"parents":[2147483647,0,0,1,1,2,2,3,3,4,4,5,5,6,6],"right_children":[2,4,6,8,10,12,14,-1,-1,-1,-1,-1,-1,-1,-1],"split_conditions":[6.635514E-1,-8.468324E-1,-4.4623655E-1,-1.3720931E0,5.2E-2,-1.0267857E0,2.7645501E-1,-2.2284368E-2,-7.476275E-3,-4.0260954E-3,3.1645924E-3,1.1078804E-2,-2.994884E-3,8.6192535E-3,2.309747E-2],"split_indices":[155,89,1,8,133,46,136,0,0,0,0,0,0,0,0],"split_type":[0,0,0,0,0,0,0,0,0,0,0,0,0,0,0],"sum_hessian":[2.47E3,2.062E3,4.08E2,3.31E2,1.731E3,1.6E2,2.48E2,8.7E1,2.44E2,1.019E3,7.12E2,9.9E1,6.1E1,7.7E1,1.71E2],"tree_param":{"num_deleted":"0","num_feature":"243","num_nodes":"15","size_leaf_vector":"1"}},{"base_weights":[4.13306E-3,-2.5432068E-1,5.085451E-1,-7.9138154E-1,-1.4802119E-1,6.605218E-1,-1.670333E-1,-5.001857E-3,-1.809056E-2,-9.624129E-3,-2.923645E-4,-6.062567E-4,1.2562834E-2,3.8858533E-3,-6.494947E-3],"categories":[],"categories_nodes":[],"categories_segments":[],"categories_sizes":[],"default_left":[0,0,0,0,0,0,0,0,0,0,0,0,0,0,0],"id":39,"left_children":[1,3,5,7,9,11,13,-1,-1,-1,-1,-1,-1,-1,-1],"loss_changes":[3.1053363E2,8.9798515E1,8.296675E1,4.0445343E1,7.6260605E1,5.2804413E1,1.4267256E1,0E0,0E0,0E0,0E0,0E0,0E0,0E0,0E0],"parents":[2147483647,0,0,1,1,2,2,3,3,4,4,5,5,6,6],"right_children":[2,4,6,8,10,12,14,-1,-1,-1,-1,-1,-1,-1,-1],"split_conditions":[2.554517E-1,-9.4545454E-1,8.064516E-2,-5.6196785E-1,-9.0514284E-1,-1.2E0,1.4652161E-1,-5.001857E-3,-1.809056E-2,-9.624129E-3,-2.923645E-4,-6.062567E-4,1.2562834E-2,3.8858533E-3,-6.494947E-3],"split_indices":[155,27,1,68,133,14,149,0,0,0,0,0,0,0,0],"split_type":[0,0,0,0,0,0,0,0,0,0,0,0,0,0,0],"sum_hessian":[2.38E3,1.574E3,8.06E2,2.59E2,1.315E3,6.58E2,1.48E2,1.05E2,1.54E2,2.96E2,1.019E3,9.3E1,5.65E2,5.4E1,9.4E1],"tree_param":{"num_deleted":"0","num_feature":"243","num_nodes":"15","size_leaf_vector":"1"}},{"base_weights":[-1.2022114E-2,-2.0396146E-1,7.0692885E-1,-8.427102E-1,-1.1665217E-1,1.121752E0,3.8439426E-1,-2.3225352E-2,-4.534277E-3,-6.537884E-3,1.2920115E-3,2.344582E-2,1.0561023E-2,-1.9027536E-3,9.297057E-3],"categories":[],"categories_nodes":[],"categories_segments":[],"categories_sizes":[],"default_left":[0,0,0,0,0,0,0,0,0,0,0,0,0,0,0],"id":40,"left_children":[1,3,5,7,9,11,13,-1,-1,-1,-1,-1,-1,-1,-1],"loss_changes":[3.3464404E2,1.0664298E2,6.793794E1,7.605524E1,9.49387E1,3.313379E1,2.7525928E1,0E0,0E0,0E0,0E0,0E0,0E0,0E0,0E0],"parents":[2147483647,0,0,1,1,2,2,3,3,4,4,5,5,6,6],"right_children":[2,4,6,8,10,12,14,-1,-1,-1,-1,-1,-1,-1,-1],"split_conditions":[7.941067E-1,-1.2647059E0,1.13513514E-1,-7.541008E-2,-4.0114287E-1,4.446581E-2,-7.5380914E-2,-2.3225352E-2,-4.534277E-3,-6.537884E-3,1.2920115E-3,2.344582E-2,1.0561023E-2,-1.9027536E-3,9.297057E-3],"split_indices":[157,11,97,157,133,45,89,0,0,0,0,0,0,0,0],"split_type":[0,0,0,0,0,0,0,0,0,0,0,0,0,0,0],"sum_hessian":[2.423E3,1.913E3,5.1E2,2.29E2,1.684E3,2.22E2,2.88E2,1.11E2,1.18E2,6.84E2,1E3,1.3E2,9.2E1,7.9E1,2.09E2],"tree_param":{"num_deleted":"0","num_feature":"243","num_nodes":"15","size_leaf_vector":"1"}},{"base_weights":[7.381573E-3,-2.2426316E-1,5.658705E-1,-7.7498114E-1,-1.2024867E-1,1.3698652E-1,7.7730906E-1,-1.3350276E-3,-1.5344928E-2,-4.285648E-3,3.8171478E-3,6.8940152E-3,-2.0924378E-3,1.9288437E-2,6.8215104E-3],"categories":[],"categories_nodes":[],"categories_segments":[],"categories_sizes":[],"default_left":[0,0,0,0,0,0,0,0,0,0,0,0,0,0,0],"id":41,"left_children":[1,3,5,7,9,11,13,-1,-1,-1,-1,-1,-1,-1,-1],"loss_changes":[3.1242856E2,9.76883E1,6.40968E1,3.2199814E1,7.380337E1,1.8093658E1,6.925824E1,0E0,0E0,0E0,0E0,0E0,0E0,0E0,0E0],"parents":[2147483647,0,0,1,1,2,2,3,3,4,4,5,5,6,6],"right_children":[2,4,6,8,10,12,14,-1,-1,-1,-1,-1,-1,-1,-1],"split_conditions":[3.939394E-1,-9.4545454E-1,7.7503157E-1,-7.751479E-1,5.2E-2,2.5263053E-1,8.3333336E-2,-1.3350276E-3,-1.5344928E-2,-4.285648E-3,3.8171478E-3,6.8940152E-3,-2.0924378E-3,1.9288437E-2,6.8215104E-3],"split_indices":[150,27,157,43,133,64,93,0,0,0,0,0,0,0,0],"split_type":[0,0,0,0,0,0,0,0,0,0,0,0,0,0,0],"sum_hessian":[2.413E3,1.706E3,7.07E2,2.7E2,1.436E3,2.34E2,4.73E2,5.4E1,2.16E2,1.022E3,4.14E2,1.12E2,1.22E2,2.18E2,2.55E2],"tree_param":{"num_deleted":"0","num_feature":"243","num_nodes":"15","size_leaf_vector":"1"}},{"base_weights":[-1.7281812E-2,-2.2747886E-1,5.492512E-1,-9.875132E-1,-1.4863096E-1,9.5366144E-1,1.6827273E-1,-9.613942E-3,-2.506742E-2,-6.4046998E-3,4.3146015E-4,9.307949E-3,2.1540804E-2,-2.7666364E-2,3.8304136E-3],"categories":[],"categories_nodes":[],"categories_segments":[],"categories_sizes":[],"default_left":[0,0,0,0,0,0,0,0,0,0,0,0,0,0,0],"id":42,"left_children":[1,3,5,7,9,11,13,-1,-1,-1,-1,-1,-1,-1,-1],"loss_changes":[2.8866443E2,1.05804344E2,1.0091051E2,3.5691864E1,6.929234E1,4.454074E1,4.370735E1,0E0,0E0,0E0,0E0,0E0,0E0,0E0,0E0],"parents":[2147483647,0,0,1,1,2,2,3,3,4,4,5,5,6,6],"right_children":[2,4,6,8,10,12,14,-1,-1,-1,-1,-1,-1,-1,-1],"split_conditions":[6.052632E-1,-1.3235294E0,-6.33275E-2,-7.735849E-1,-4.0114287E-1,5.971429E-1,-3.1176472E0,-9.613942E-3,-2.506742E-2,-6.4046998E-3,4.3146015E-4,9.307949E-3,2.1540804E-2,-2.7666364E-2,3.8304136E-3],"split_indices":[174,11,5,35,133,133,22,0,0,0,0,0,0,0,0],"split_type":[0,0,0,0,0,0,0,0,0,0,0,0,0,0,0],"sum_hessian":[2.422E3,1.767E3,6.55E2,1.65E2,1.602E3,3.17E2,3.38E2,9.8E1,6.7E1,6.65E2,9.37E2,1.59E2,1.58E2,1.1E1,3.27E2],"tree_param":{"num_deleted":"0","num_feature":"243","num_nodes":"15","size_leaf_vector":"1"}},{"base_weights":[-2.2178253E-2,-1.6181421E-1,8.362375E-1,1.1858904E-1,-3.6187112E-1,1.2403083E0,4.990014E-1,-1.3746183E-3,7.773316E-3,-2.0963207E-2,-4.8706676E-3,2.6034499E-2,1.2208635E-2,-4.4658314E-3,1.0324578E-2],"categories":[],"categories_nodes":[],"categories_segments":[],"categories_sizes":[],"default_left":[0,0,0,0,0,0,0,0,0,0,0,0,0,0,0],"id":43,"left_children":[1,3,5,7,9,11,13,-1,-1,-1,-1,-1,-1,-1,-1],"loss_changes":[2.9128912E2,1.17284836E2,4.5711975E1,6.4021324E1,6.929254E1,2.6256393E1,2.0184948E1,0E0,0E0,0E0,0E0,0E0,0E0,0E0,0E0],"parents":[2147483647,0,0,1,1,2,2,3,3,4,4,5,5,6,6],"right_children":[2,4,6,8,10,12,14,-1,-1,-1,-1,-1,-1,-1,-1],"split_conditions":[1.0192524E0,-8.538809E-2,1.5135135E-1,1.5257142E-1,-1.9705882E0,-1.1751432E-1,5E-1,-1.3746183E-3,7.773316E-3,-2.0963207E-2,-4.8706676E-3,2.6034499E-2,1.2208635E-2,-4.4658314E-3,1.0324578E-2],"split_indices":[153,7,97,133,11,37,92,0,0,0,0,0,0,0,0],"split_type":[0,0,0,0,0,0,0,0,0,0,0,0,0,0,0],"sum_hessian":[2.428E3,2.089E3,3.39E2,8.7E2,1.219E3,1.53E2,1.86E2,5.57E2,3.13E2,7.4E1,1.145E3,8.6E1,6.7E1,2.8E1,1.58E2],"tree_param":{"num_deleted":"0","num_feature":"243","num_nodes":"15","size_leaf_vector":"1"}},{"base_weights":[-7.911561E-3,-2.1777524E-1,5.1372635E-1,-9.9137217E-1,-1.3062356E-1,-9.460352E-2,6.909541E-1,-2.1692196E-2,-7.79121E-3,-4.025421E-3,3.0994574E-3,-2.8649384E-2,5.0653866E-4,1.7422251E-2,6.0899053E-3],"categories":[],"categories_nodes":[],"categories_segments":[],"categories_sizes":[],"default_left":[0,0,0,0,0,0,0,0,0,0,0,0,0,0,0],"id":44,"left_children":[1,3,5,7,9,11,13,-1,-1,-1,-1,-1,-1,-1,-1],"loss_changes":[2.6405093E2,1.1583337E2,7.4671906E1,3.0208084E1,5.8703278E1,3.3121998E1,6.449164E1,0E0,0E0,0E0,0E0,0E0,0E0,0E0,0E0],"parents":[2147483647,0,0,1,1,2,2,3,3,4,4,5,5,6,6],"right_children":[2,4,6,8,10,12,14,-1,-1,-1,-1,-1,-1,-1,-1],"split_conditions":[4.6700808E-1,-1.2647059E0,-1.2E0,-7.541008E-2,1.06471814E-1,-3.1176472E0,-5.102041E-1,-2.1692196E-2,-7.79121E-3,-4.025421E-3,3.0994574E-3,-2.8649384E-2,5.0653866E-4,1.7422251E-2,6.0899053E-3],"split_indices":[157,11,14,157,135,22,30,0,0,0,0,0,0,0,0],"split_type":[0,0,0,0,0,0,0,0,0,0,0,0,0,0,0],"sum_hessian":[2.41E3,1.719E3,6.91E2,1.73E2,1.546E3,1.56E2,5.35E2,1.02E2,7.1E1,1.132E3,4.14E2,1E1,1.46E2,2.4E2,2.95E2],"tree_param":{"num_deleted":"0","num_feature":"243","num_nodes":"15","size_leaf_vector":"1"}},{"base_weights":[-1.8835753E-2,-1.530326E-1,7.7278966E-1,1.2697569E-1,-3.258925E-1,1.2252109E0,4.11971E-1,-9.889373E-4,9.79958E-3,-1.8785117E-2,-4.399993E-3,7.0728366E-3,2.3598181E-2,1.2516063E-2,2.6443978E-3],"categories":[],"categories_nodes":[],"categories_segments":[],"categories_sizes":[],"default_left":[0,0,0,0,0,0,0,0,0,0,0,0,0,0,0],"id":45,"left_children":[1,3,5,7,9,11,13,-1,-1,-1,-1,-1,-1,-1,-1],"loss_changes":[2.6017816E2,1.013956E2,5.7446182E1,7.189465E1,5.835489E1,2.7976822E1,1.7716965E1,0E0,0E0,0E0,0E0,0E0,0E0,0E0,0E0],"parents":[2147483647,0,0,1,1,2,2,3,3,4,4,5,5,6,6],"right_children":[2,4,6,8,10,12,14,-1,-1,-1,-1,-1,-1,-1,-1],"split_conditions":[9.9887633E-1,-1.6953103E-1,1.5675676E-1,2.5541618E-1,-1.9705882E0,-4.5652175E-1,8.252427E-1,-9.889373E-4,9.79958E-3,-1.8785117E-2,-4.399993E-3,7.0728366E-3,2.3598181E-2,1.2516063E-2,2.6443978E-3],"split_indices":[153,7,97,137,11,101,151,0,0,0,0,0,0,0,0],"split_type":[0,0,0,0,0,0,0,0,0,0,0,0,0,0,0],"sum_hessian":[2.447E3,2.093E3,3.54E2,7.99E2,1.294E3,1.56E2,1.98E2,5.74E2,2.25E2,7.8E1,1.216E3,3.6E1,1.2E2,8E1,1.18E2],"tree_param":{"num_deleted":"0","num_feature":"243","num_nodes":"15","size_leaf_vector":"1"}},{"base_weights":[1.2494948E-2,-1.7371003E-1,5.9001994E-1,1.3414066E-1,-3.3866817E-1,2.434677E-1,8.093747E-1,2.7921158E-4,1.2349117E-2,-2.1414341E-2,-4.7267885E-3,7.5507066E-3,-6.636294E-3,2.053245E-2,5.86648E-3],"categories":[],"categories_nodes":[],"categories_segments":[],"categories_sizes":[],"default_left":[0,0,0,0,0,0,0,0,0,0,0,0,0,0,0],"id":46,"left_children":[1,3,5,7,9,11,13,-1,-1,-1,-1,-1,-1,-1,-1],"loss_changes":[2.6464603E2,9.455159E1,4.541368E1,4.770481E1,5.556836E1,3.4188496E1,7.468581E1,0E0,0E0,0E0,0E0,0E0,0E0,0E0,0E0],"parents":[2147483647,0,0,1,1,2,2,3,3,4,4,5,5,6,6],"right_children":[2,4,6,8,10,12,14,-1,-1,-1,-1,-1,-1,-1,-1],"split_conditions":[4.4859812E-1,-2.938912E-1,-4.4623655E-1,4.047619E-1,-2.0882354E0,-4.4527754E-1,-4.518664E-2,2.7921158E-4,1.2349117E-2,-2.1414341E-2,-4.7267885E-3,7.5507066E-3,-6.636294E-3,2.053245E-2,5.86648E-3],"split_indices":[155,5,1,136,11,64,57,0,0,0,0,0,0,0,0],"split_type":[0,0,0,0,0,0,0,0,0,0,0,0,0,0,0],"sum_hessian":[2.459E3,1.86E3,5.99E2,6.49E2,1.211E3,2.33E2,3.66E2,5.48E2,1.01E2,5.4E1,1.157E3,1.74E2,5.9E1,1.8E2,1.86E2],"tree_param":{"num_deleted":"0","num_feature":"243","num_nodes":"15","size_leaf_vector":"1"}},{"base_weights":[-4.5835916E-3,-1.4449364E-1,7.9337746E-1,-6.937946E-1,-6.1638035E-2,1.390821E0,5.949655E-1,-1.5373984E-2,4.265744E-3,-3.5623547E-3,4.1299206E-3,1.071176E-2,2.7435811E-2,1.593031E-2,6.3399193E-3],"categories":[],"categories_nodes":[],"categories_segments":[],"categories_sizes":[],"default_left":[0,0,0,0,0,0,0,0,0,0,0,0,0,0,0],"id":47,"left_children":[1,3,5,7,9,11,13,-1,-1,-1,-1,-1,-1,-1,-1],"loss_changes":[2.7241135E2,9.44415E1,4.2321014E1,6.661714E1,9.0432205E1,1.8734344E1,2.1358772E1,0E0,0E0,0E0,0E0,0E0,0E0,0E0,0E0],"parents":[2147483647,0,0,1,1,2,2,3,3,4,4,5,5,6,6],"right_children":[2,4,6,8,10,12,14,-1,-1,-1,-1,-1,-1,-1,-1],"split_conditions":[1.0095887E0,-1.2647059E0,-5.3002626E-1,-1.7697595E-1,5.6442417E-2,-6.727273E-1,6.93128E-1,-1.5373984E-2,4.265744E-3,-3.5623547E-3,4.1299206E-3,1.071176E-2,2.7435811E-2,1.593031E-2,6.3399193E-3],"split_indices":[153,11,37,81,137,27,156,0,0,0,0,0,0,0,0],"split_type":[0,0,0,0,0,0,0,0,0,0,0,0,0,0,0],"sum_hessian":[2.438E3,2.075E3,3.63E2,2.71E2,1.804E3,8.9E1,2.74E2,2.14E2,5.7E1,1.203E3,6.01E2,2.7E1,6.2E1,9.3E1,1.81E2],"tree_param":{"num_deleted":"0","num_feature":"243","num_nodes":"15","size_leaf_vector":"1"}},{"base_weights":[1.5817156E-2,-2.4477826E-1,3.9437783E-1,-8.712899E-1,-1.5822269E-1,1.9637865E-1,7.915667E-1,-4.8785936E-3,-2.0710122E-2,-6.2750266E-3,4.832282E-4,5.62321E-3,-2.2900812E-3,-1.8894668E-4,1.5794534E-2],"categories":[],"categories_nodes":[],"categories_segments":[],"categories_sizes":[],"default_left":[0,0,0,0,0,0,0,0,0,0,0,0,0,0,0],"id":48,"left_children":[1,3,5,7,9,11,13,-1,-1,-1,-1,-1,-1,-1,-1],"loss_changes":[2.4317303E2,7.9035126E1,7.888083E1,4.066899E1,5.5306915E1,3.4233696E1,4.9141464E1,0E0,0E0,0E0,0E0,0E0,0E0,0E0,0E0],"parents":[2147483647,0,0,1,1,2,2,3,3,4,4,5,5,6,6],"right_children":[2,4,6,8,10,12,14,-1,-1,-1,-1,-1,-1,-1,-1],"split_conditions":[1.495327E-1,-1.2647059E0,7.570093E-1,-4.5802712E-1,-4.0114287E-1,8.064516E-2,-1.2E0,-4.8785936E-3,-2.0710122E-2,-6.2750266E-3,4.832282E-4,5.62321E-3,-2.2900812E-3,-1.8894668E-4,1.5794534E-2],"split_indices":[155,11,155,69,133,1,14,0,0,0,0,0,0,0,0],"split_type":[0,0,0,0,0,0,0,0,0,0,0,0,0,0,0],"sum_hessian":[2.463E3,1.459E3,1.004E3,1.76E2,1.283E3,6.71E2,3.33E2,7.4E1,1.02E2,5.78E2,7.05E2,4.64E2,2.07E2,6.2E1,2.71E2],"tree_param":{"num_deleted":"0","num_feature":"243","num_nodes":"15","size_leaf_vector":"1"}},{"base_weights":[-3.1276064E-3,-1.9847067E-1,4.9223107E-1,-6.955958E-1,-1.0656097E-1,2.9277705E-2,4.2428192E-1,1.7261207E-3,-1.4085136E-2,-5.2881213E-3,2.3254585E-3,9.13885E-3,-1.3053131E-3],"categories":[],"categories_nodes":[],"categories_segments":[],"categories_sizes":[],"default_left":[0,0,0,0,0,0,0,0,0,0,0,0,0],"id":49,"left_children":[1,3,5,7,9,-1,11,-1,-1,-1,-1,-1,-1],"loss_changes":[2.3881665E2,8.0798294E1,6.1579544E1,3.8527832E1,8.220986E1,0E0,4.694026E1,0E0,0E0,0E0,0E0,0E0,0E0],"parents":[2147483647,0,0,1,1,2,2,3,3,4,4,6,6],"right_children":[2,4,6,8,10,-1,12,-1,-1,-1,-1,-1,-1],"split_conditions":[3.939394E-1,-9.4545454E-1,-1.8928572E0,-9.0361446E-1,-1.8285714E-1,2.9277705E-2,-5.376344E-2,1.7261207E-3,-1.4085136E-2,-5.2881213E-3,2.3254585E-3,9.13885E-3,-1.3053131E-3],"split_indices":[150,27,46,39,133,0,1,0,0,0,0,0,0],"split_type":[0,0,0,0,0,0,0,0,0,0,0,0,0],"sum_hessian":[2.466E3,1.769E3,6.97E2,2.75E2,1.494E3,3.3E1,6.64E2,4.9E1,2.26E2,7.95E2,6.99E2,5.2E2,1.44E2],"tree_param":{"num_deleted":"0","num_feature":"243","num_nodes":"13","size_leaf_vector":"1"}},{"base_weights":[4.3672216E-3,-2.3762205E-1,4.6890017E-1,-6.3224804E-1,-1.2016024E-1,3.3272782E-1,1.0231851E0,-1.143641E-2,1.3484579E-2,-8.722493E-3,-3.6293032E-4,7.369384E-3,-1.7703027E-3,1.0986805E-2,2.2606518E-2],"categories":[],"categories_nodes":[],"categories_segments":[],"categories_sizes":[],"default_left":[0,0,0,0,0,0,0,0,0,0,0,0,0,0,0],"id":50,"left_children":[1,3,5,7,9,11,13,-1,-1,-1,-1,-1,-1,-1,-1],"loss_changes":[2.7372223E2,7.413596E1,6.260843E1,4.0091537E1,5.047016E1,3.6243988E1,2.0106354E1,0E0,0E0,0E0,0E0,0E0,0E0,0E0,0E0],"parents":[2147483647,0,0,1,1,2,2,3,3,4,4,5,5,6,6],"right_children":[2,4,6,8,10,12,14,-1,-1,-1,-1,-1,-1,-1,-1],"split_conditions":[2.554517E-1,-8.179631E-1,1.1609887E0,4.4444445E-1,-6.882864E-1,8.064516E-2,-3.9247313E-1,-1.143641E-2,1.3484579E-2,-8.722493E-3,-3.6293032E-4,7.369384E-3,-1.7703027E-3,1.0986805E-2,2.2606518E-2],"split_indices":[155,89,157,18,4,1,1,0,0,0,0,0,0,0,0],"split_type":[0,0,0,0,0,0,0,0,0,0,0,0,0,0,0],"sum_hessian":[2.433E3,1.6E3,8.33E2,3.66E2,1.234E3,6.7E2,1.63E2,3.49E2,1.7E1,2.33E2,1.001E3,5.25E2,1.45E2,8.6E1,7.7E1],"tree_param":{"num_deleted":"0","num_feature":"243","num_nodes":"15","size_leaf_vector":"1"}},{"base_weights":[-2.3812696E-3,-1.7820072E-1,5.684973E-1,-1.1779349E0,-1.371464E-1,4.9232808E-1,1.4923347E0,-1.535495E-3,-2.4388883E-2,-5.9520104E-3,2.5912613E-4,1.0431473E-2,2.6437065E-3,2.9821279E-2,1.5490514E-2],"categories":[],"categories_nodes":[],"categories_segments":[],"categories_sizes":[],"default_left":[0,0,0,0,0,0,0,0,0,0,0,0,0,0,0],"id":51,"left_children":[1,3,5,7,9,11,13,-1,-1,-1,-1,-1,-1,-1,-1],"loss_changes":[2.4340195E2,7.593292E1,3.944539E1,2.5724182E1,6.2814053E1,2.6261032E1,6.2667313E0,0E0,0E0,0E0,0E0,0E0,0E0,0E0,0E0],"parents":[2147483647,0,0,1,1,2,2,3,3,4,4,5,5,6,6],"right_children":[2,4,6,8,10,12,14,-1,-1,-1,-1,-1,-1,-1,-1],"split_conditions":[4.4859812E-1,-2.1666667E0,1.3287138E0,-1.3355705E0,-3.8204592E-1,1.13513514E-1,-1.8365708E-1,-1.535495E-3,-2.4388883E-2,-5.9520104E-3,2.5912613E-4,1.0431473E-2,2.6437065E-3,2.9821279E-2,1.5490514E-2],"split_indices":[155,10,153,31,135,48,45,0,0,0,0,0,0,0,0],"split_type":[0,0,0,0,0,0,0,0,0,0,0,0,0,0,0],"sum_hessian":[2.423E3,1.853E3,5.7E2,7.2E1,1.781E3,5.28E2,4.2E1,1.7E1,5.5E1,7.11E2,1.07E3,3.61E2,1.67E2,2.4E1,1.8E1],"tree_param":{"num_deleted":"0","num_feature":"243","num_nodes":"15","size_leaf_vector":"1"}},{"base_weights":[9.364303E-3,-1.913417E-1,5.41371E-1,1.4014725E-1,-3.6229688E-1,1.7524743E0,4.7185746E-1,-1.492859E-3,8.371387E-3,-1.9921549E-2,-5.1081297E-3,1.6679801E-2,3.226353E-2,-1.3927683E-3,9.141468E-3],"categories":[],"categories_nodes":[],"categories_segments":[],"categories_sizes":[],"default_left":[0,0,0,0,0,0,0,0,0,0,0,0,0,0,0],"id":52,"left_children":[1,3,5,7,9,11,13,-1,-1,-1,-1,-1,-1,-1,-1],"loss_changes":[2.6117316E2,1.0069626E2,5.55791E1,5.2949776E1,4.744461E1,4.1606445E0,3.2732117E1,0E0,0E0,0E0,0E0,0E0,0E0,0E0,0E0],"parents":[2147483647,0,0,1,1,2,2,3,3,4,4,5,5,6,6],"right_children":[2,4,6,8,10,12,14,-1,-1,-1,-1,-1,-1,-1,-1],"split_conditions":[4.3030304E-1,-2.938912E-1,-1.8928572E0,1.2734865E-1,-2.2916667E0,-6.2853235E-1,-1.7802727E-1,-1.492859E-3,8.371387E-3,-1.9921549E-2,-5.1081297E-3,1.6679801E-2,3.226353E-2,-1.3927683E-3,9.141468E-3],"split_indices":[150,5,46,135,10,69,89,0,0,0,0,0,0,0,0],"split_type":[0,0,0,0,0,0,0,0,0,0,0,0,0,0,0],"sum_hessian":[2.444E3,1.775E3,6.69E2,6.04E2,1.171E3,3.5E1,6.34E2,3.74E2,2.3E2,5.9E1,1.112E3,1E1,2.5E1,9E1,5.44E2],"tree_param":{"num_deleted":"0","num_feature":"243","num_nodes":"15","size_leaf_vector":"1"}},{"base_weights":[-1.0389894E-3,-1.1800311E-1,7.3996824E-1,1.4671214E-1,-2.7579442E-1,9.230103E-2,9.379272E-1,-9.4079855E-4,9.9152075E-3,-1.9023757E-2,-3.6869159E-3,3.532601E-3,-1.3115901E-2,1.6929034E-2,-7.458341E-3],"categories":[],"categories_nodes":[],"categories_segments":[],"categories_sizes":[],"default_left":[0,0,0,0,0,0,0,0,0,0,0,0,0,0,0],"id":53,"left_children":[1,3,5,7,9,11,13,-1,-1,-1,-1,-1,-1,-1,-1],"loss_changes":[2.14252E2,8.921891E1,4.3120712E1,7.604662E1,5.7743217E1,9.243895E0,3.900061E1,0E0,0E0,0E0,0E0,0E0,0E0,0E0,0E0],"parents":[2147483647,0,0,1,1,2,2,3,3,4,4,5,5,6,6],"right_children":[2,4,6,8,10,12,14,-1,-1,-1,-1,-1,-1,-1,-1],"split_conditions":[7.7575755E-1,-2.855573E-1,-6.457327E-1,2.56E-1,-1.9705882E0,-2.541897E-1,3.9463222E-1,-9.4079855E-4,9.9152075E-3,-1.9023757E-2,-3.6869159E-3,3.532601E-3,-1.3115901E-2,1.6929034E-2,-7.458341E-3],"split_indices":[150,5,117,133,11,49,58,0,0,0,0,0,0,0,0],"split_type":[0,0,0,0,0,0,0,0,0,0,0,0,0,0,0],"sum_hessian":[2.47E3,2.134E3,3.36E2,7.97E2,1.337E3,7.9E1,2.57E2,5.54E2,2.43E2,6.7E1,1.27E3,7E1,9E0,2.39E2,1.8E1],"tree_param":{"num_deleted":"0","num_feature":"243","num_nodes":"15","size_leaf_vector":"1"}},{"base_weights":[2.0658603E-2,-1.8685102E-1,4.5950314E-1,1.18945144E-1,-3.2693285E-1,6.0560274E-1,-4.412373E-2,-1.6549389E-3,7.156761E-3,-1.6705222E-2,-4.452587E-3,1.4384514E-2,3.9778687E-3,4.796065E-3,-7.612231E-3],"categories":[],"categories_nodes":[],"categories_segments":[],"categories_sizes":[],"default_left":[0,0,0,0,0,0,0,0,0,0,0,0,0,0,0],"id":54,"left_children":[1,3,5,7,9,11,13,-1,-1,-1,-1,-1,-1,-1,-1],"loss_changes":[2.2210104E2,7.0976105E1,5.7639603E1,3.7214157E1,4.142833E1,6.1443756E1,2.5760862E1,0E0,0E0,0E0,0E0,0E0,0E0,0E0,0E0],"parents":[2147483647,0,0,1,1,2,2,3,3,4,4,5,5,6,6],"right_children":[2,4,6,8,10,12,14,-1,-1,-1,-1,-1,-1,-1,-1],"split_conditions":[2.9283488E-1,-1.6953103E-1,3.9512196E-1,9.60334E-2,-1.1788292E0,-8.538809E-2,6.395488E-1,-1.6549389E-3,7.156761E-3,-1.6705222E-2,-4.452587E-3,1.4384514E-2,3.9778687E-3,4.796065E-3,-7.612231E-3],"split_indices":[155,7,115,135,89,7,64,0,0,0,0,0,0,0,0],"split_type":[0,0,0,0,0,0,0,0,0,0,0,0,0,0,0],"sum_hessian":[2.437E3,1.655E3,7.82E2,5.2E2,1.135E3,6.06E2,1.76E2,3.09E2,2.11E2,7.7E1,1.058E3,3.39E2,2.67E2,9.8E1,7.8E1],"tree_param":{"num_deleted":"0","num_feature":"243","num_nodes":"15","size_leaf_vector":"1"}},{"base_weights":[9.171001E-3,-2.1932678E-1,3.6269072E-1,-1.4554927E-1,-8.0910385E-1,1.8861908E-1,7.226938E-1,-8.6069945E-3,-5.202654E-4,-1.6685786E-2,-1.4094828E-3,-2.1357693E-2,3.639401E-3,1.7068807E-2,4.084904E-3],"categories":[],"categories_nodes":[],"categories_segments":[],"categories_sizes":[],"default_left":[0,0,0,0,0,0,0,0,0,0,0,0,0,0,0],"id":55,"left_children":[1,3,5,7,9,11,13,-1,-1,-1,-1,-1,-1,-1,-1],"loss_changes":[1.9402866E2,6.3366653E1,5.8958015E1,5.67619E1,2.571643E1,3.4819405E1,4.7504578E1,0E0,0E0,0E0,0E0,0E0,0E0,0E0,0E0],"parents":[2147483647,0,0,1,1,2,2,3,3,4,4,5,5,6,6],"right_children":[2,4,6,8,10,12,14,-1,-1,-1,-1,-1,-1,-1,-1],"split_conditions":[1.5576324E-1,1.151771E0,7.909091E-1,-8.6031926E-1,-3.3333334E-1,-2.75E0,-6.33275E-2,-8.6069945E-3,-5.202654E-4,-1.6685786E-2,-1.4094828E-3,-2.1357693E-2,3.639401E-3,1.7068807E-2,4.084904E-3],"split_indices":[155,25,150,137,10,10,5,0,0,0,0,0,0,0,0],"split_type":[0,0,0,0,0,0,0,0,0,0,0,0,0,0,0],"sum_hessian":[2.4E3,1.458E3,9.42E2,1.297E3,1.61E2,6.36E2,3.06E2,2.94E2,1.003E3,1.23E2,3.8E1,1.4E1,6.22E2,1.79E2,1.27E2],"tree_param":{"num_deleted":"0","num_feature":"243","num_nodes":"15","size_leaf_vector":"1"}},{"base_weights":[-5.468E-3,-1.176328E-1,7.19306E-1,-6.700153E-1,-4.5661747E-2,1.1089779E0,3.3938548E-1,-2.8087543E-3,-1.862125E-2,-5.313939E-3,2.1299815E-3,2.0986557E-2,6.9988025E-3,1.152535E-2,2.8310396E-4],"categories":[],"categories_nodes":[],"categories_segments":[],"categories_sizes":[],"default_left":[0,0,0,0,0,0,0,0,0,0,0,0,0,0,0],"id":56,"left_children":[1,3,5,7,9,11,13,-1,-1,-1,-1,-1,-1,-1,-1],"loss_changes":[1.9714159E2,8.3456055E1,4.7738037E1,5.7390152E1,9.297638E1,1.9603958E1,1.985879E1,0E0,0E0,0E0,0E0,0E0,0E0,0E0,0E0],"parents":[2147483647,0,0,1,1,2,2,3,3,4,4,5,5,6,6],"right_children":[2,4,6,8,10,12,14,-1,-1,-1,-1,-1,-1,-1,-1],"split_conditions":[1.0095887E0,-1.2647059E0,7.4074075E-2,-1.0872483E0,-4.0114287E-1,-9.5022626E-2,8.252427E-1,-2.8087543E-3,-1.862125E-2,-5.313939E-3,2.1299815E-3,2.0986557E-2,6.9988025E-3,1.152535E-2,2.8310396E-4],"split_indices":[153,11,99,31,133,119,151,0,0,0,0,0,0,0,0],"split_type":[0,0,0,0,0,0,0,0,0,0,0,0,0,0,0],"sum_hessian":[2.423E3,2.099E3,3.24E2,2.41E2,1.858E3,1.59E2,1.65E2,1.19E2,1.22E2,7.16E2,1.142E3,1.24E2,3.5E1,7.6E1,8.9E1],"tree_param":{"num_deleted":"0","num_feature":"243","num_nodes":"15","size_leaf_vector":"1"}},{"base_weights":[1.6597741E-3,-1.4307323E-1,5.3336287E-1,-1.4501028E0,-1.0651466E-1,3.528383E-1,9.534823E-1,-4.7507007E-3,-2.7311675E-2,-7.6677953E-3,-1.9330627E-4,-2.5229044E-3,7.814566E-3,2.432589E-2,1.0237402E-2],"categories":[],"categories_nodes":[],"categories_segments":[],"categories_sizes":[],"default_left":[0,0,0,0,0,0,0,0,0,0,0,0,0,0,0],"id":57,"left_children":[1,3,5,7,9,11,13,-1,-1,-1,-1,-1,-1,-1,-1],"loss_changes":[1.8738475E2,9.130245E1,3.91772E1,1.3663475E1,6.460691E1,2.416056E1,2.6539581E1,0E0,0E0,0E0,0E0,0E0,0E0,0E0,0E0],"parents":[2147483647,0,0,1,1,2,2,3,3,4,4,5,5,6,6],"right_children":[2,4,6,8,10,12,14,-1,-1,-1,-1,-1,-1,-1,-1],"split_conditions":[5.7575756E-1,-2.1744187E0,1.1609887E0,-1.4747707E0,-8.346636E-1,-9.5E-1,-2.1738788E-1,-4.7507007E-3,-2.7311675E-2,-7.6677953E-3,-1.9330627E-4,-2.5229044E-3,7.814566E-3,2.432589E-2,1.0237402E-2],"split_indices":[150,8,157,28,137,14,5,0,0,0,0,0,0,0,0],"split_type":[0,0,0,0,0,0,0,0,0,0,0,0,0,0,0],"sum_hessian":[2.433E3,1.913E3,5.2E2,5.1E1,1.862E3,3.65E2,1.55E2,9E0,4.2E1,3.81E2,1.481E3,7.4E1,2.91E2,5.6E1,9.9E1],"tree_param":{"num_deleted":"0","num_feature":"243","num_nodes":"15","size_leaf_vector":"1"}},{"base_weights":[-6.5299985E-4,-1.6401426E-1,4.655701E-1,-6.0657E-1,-7.592939E-2,3.093209E-1,9.120161E-1,-1.0981968E-2,1.2421471E-2,-7.821153E-3,2.9534556E-4,-7.725862E-3,6.1044483E-3,2.0030364E-2,7.665626E-3],"categories":[],"categories_nodes":[],"categories_segments":[],"categories_sizes":[],"default_left":[0,0,0,0,0,0,0,0,0,0,0,0,0,0,0],"id":58,"left_children":[1,3,5,7,9,11,13,-1,-1,-1,-1,-1,-1,-1,-1],"loss_changes":[1.8286707E2,6.926476E1,4.3176407E1,2.9335716E1,5.6838806E1,2.4707397E1,2.2318878E1,0E0,0E0,0E0,0E0,0E0,0E0,0E0,0E0],"parents":[2147483647,0,0,1,1,2,2,3,3,4,4,5,5,6,6],"right_children":[2,4,6,8,10,12,14,-1,-1,-1,-1,-1,-1,-1,-1],"split_conditions":[3.9252338E-1,-8.901363E-1,1.1672035E0,4.4444445E-1,-8.6031926E-1,-2.8193325E-1,3.6748844E-1,-1.0981968E-2,1.2421471E-2,-7.821153E-3,2.9534556E-4,-7.725862E-3,6.1044483E-3,2.0030364E-2,7.665626E-3],"split_indices":[155,89,153,18,137,85,17,0,0,0,0,0,0,0,0],"split_type":[0,0,0,0,0,0,0,0,0,0,0,0,0,0,0],"sum_hessian":[2.399E3,1.777E3,6.22E2,2.94E2,1.483E3,4.62E2,1.6E2,2.8E2,1.4E1,2.78E2,1.205E3,3.6E1,4.26E2,9.1E1,6.9E1],"tree_param":{"num_deleted":"0","num_feature":"243","num_nodes":"15","size_leaf_vector":"1"}},{"base_weights":[6.150239E-3,-2.4823874E-1,3.1552416E-1,-1.8348399E-1,-8.196835E-1,5.255269E-1,-1.7884552E-1,-6.2271855E-3,-5.07161E-4,-1.0791495E-2,-2.71914E-2,3.5559246E-3,1.358347E-2,-2.9459551E-2,-1.2660662E-3],"categories":[],"categories_nodes":[],"categories_segments":[],"categories_sizes":[],"default_left":[0,0,0,0,0,0,0,0,0,0,0,0,0,0,0],"id":59,"left_children":[1,3,5,7,9,11,13,-1,-1,-1,-1,-1,-1,-1,-1],"loss_changes":[1.9203084E2,4.939765E1,1.1439869E2,3.678152E1,1.6827637E1,7.380817E1,5.4171204E1,0E0,0E0,0E0,0E0,0E0,0E0,0E0,0E0],"parents":[2147483647,0,0,1,1,2,2,3,3,4,4,5,5,6,6],"right_children":[2,4,6,8,10,12,14,-1,-1,-1,-1,-1,-1,-1,-1],"split_conditions":[1.0020877E-1,1.151771E0,1.9003908E-1,-5.427975E-1,-8.7014E-2,5.171038E-1,-8.3928573E-1,-6.2271855E-3,-5.07161E-4,-1.0791495E-2,-2.71914E-2,3.5559246E-3,1.358347E-2,-2.9459551E-2,-1.2660662E-3],"split_indices":[135,25,5,135,69,137,91,0,0,0,0,0,0,0,0],"split_type":[0,0,0,0,0,0,0,0,0,0,0,0,0,0,0],"sum_hessian":[2.438E3,1.338E3,1.1E3,1.203E3,1.35E2,7.72E2,3.28E2,5.18E2,6.85E2,1.16E2,1.9E1,3.91E2,3.81E2,1.8E1,3.1E2],"tree_param":{"num_deleted":"0","num_feature":"243","num_nodes":"15","size_leaf_vector":"1"}},{"base_weights":[-8.71407E-3,-1.2415868E-1,6.982845E-1,-5.2235246E-1,-3.908526E-2,1.0135971E0,3.932203E-1,-4.6469094E-3,-1.337774E-2,-6.9161775E-3,8.623639E-4,2.7874857E-2,1.4068063E-2,4.31534E-3,1.4364289E-2],"categories":[],"categories_nodes":[],"categories_segments":[],"categories_sizes":[],"default_left":[0,0,0,0,0,0,0,0,0,0,0,0,0,0,0],"id":60,"left_children":[1,3,5,7,9,11,13,-1,-1,-1,-1,-1,-1,-1,-1],"loss_changes":[2.0176768E2,7.196546E1,3.297957E1,2.6478233E1,6.2722515E1,1.5977097E1,1.0906193E1,0E0,0E0,0E0,0E0,0E0,0E0,0E0,0E0],"parents":[2147483647,0,0,1,1,2,2,3,3,4,4,5,5,6,6],"right_children":[2,4,6,8,10,12,14,-1,-1,-1,-1,-1,-1,-1,-1],"split_conditions":[9.9887633E-1,-8.179631E-1,1.5675676E-1,1.3690776E-1,-6.676412E-1,-1.8928572E0,-2.590124E-1,-4.6469094E-3,-1.337774E-2,-6.9161775E-3,8.623639E-4,2.7874857E-2,1.4068063E-2,4.31534E-3,1.4364289E-2],"split_indices":[153,89,97,98,6,46,171,0,0,0,0,0,0,0,0],"split_type":[0,0,0,0,0,0,0,0,0,0,0,0,0,0,0],"sum_hessian":[2.47E3,2.124E3,3.46E2,3.73E2,1.751E3,1.69E2,1.77E2,2.11E2,1.62E2,3.36E2,1.415E3,2.7E1,1.42E2,1.42E2,3.5E1],"tree_param":{"num_deleted":"0","num_feature":"243","num_nodes":"15","size_leaf_vector":"1"}},{"base_weights":[3.949644E-3,-1.13387756E-1,6.327315E-1,-6.011245E-1,-2.5852036E-2,2.8314438E-1,8.8410056E-1,-1.07485615E-2,1.4028475E-2,1.2729266E-3,-4.9057286E-3,8.618365E-3,-3.0502207E-3,2.0753518E-2,1.0281185E-2],"categories":[],"categories_nodes":[],"categories_segments":[],"categories_sizes":[],"default_left":[0,0,0,0,0,0,0,0,0,0,0,0,0,0,0],"id":61,"left_children":[1,3,5,7,9,11,13,-1,-1,-1,-1,-1,-1,-1,-1],"loss_changes":[1.7780685E2,8.669676E1,3.3054443E1,2.875792E1,4.983307E1,1.8857466E1,2.0969986E1,0E0,0E0,0E0,0E0,0E0,0E0,0E0,0E0],"parents":[2147483647,0,0,1,1,2,2,3,3,4,4,5,5,6,6],"right_children":[2,4,6,8,10,12,14,-1,-1,-1,-1,-1,-1,-1,-1],"split_conditions":[6.635514E-1,-8.72494E-1,-4.4623655E-1,4.4444445E-1,4.966443E-1,-5.960265E-1,-1.7579848E-1,-1.07485615E-2,1.4028475E-2,1.2729266E-3,-4.9057286E-3,8.618365E-3,-3.0502207E-3,2.0753518E-2,1.0281185E-2],"split_indices":[155,89,1,18,31,68,45,0,0,0,0,0,0,0,0],"split_type":[0,0,0,0,0,0,0,0,0,0,0,0,0,0,0],"sum_hessian":[2.408E3,2.03E3,3.78E2,3.08E2,1.722E3,1.59E2,2.19E2,2.96E2,1.2E1,1.251E3,4.71E2,1.04E2,5.5E1,8.3E1,1.36E2],"tree_param":{"num_deleted":"0","num_feature":"243","num_nodes":"15","size_leaf_vector":"1"}},{"base_weights":[-5.3909095E-3,-2.1137731E-1,3.2375708E-1,-1.2269231E-1,-6.1821693E-1,4.773404E-1,-3.901981E-2,-4.4138142E-4,-7.7943564E-3,-1.2214328E-2,1.0202115E-2,1.4040802E-2,3.4588403E-3,-2.2047209E-2,6.533606E-4],"categories":[],"categories_nodes":[],"categories_segments":[],"categories_sizes":[],"default_left":[0,0,0,0,0,0,0,0,0,0,0,0,0,0,0],"id":62,"left_children":[1,3,5,7,9,11,13,-1,-1,-1,-1,-1,-1,-1,-1],"loss_changes":[1.6644965E2,5.4405815E1,5.2670692E1,4.2431335E1,4.61397E1,6.800047E1,2.962256E1,0E0,0E0,0E0,0E0,0E0,0E0,0E0,0E0],"parents":[2147483647,0,0,1,1,2,2,3,3,4,4,5,5,6,6],"right_children":[2,4,6,8,10,12,14,-1,-1,-1,-1,-1,-1,-1,-1],"split_conditions":[2.4242425E-1,1.2407196E0,9.3097895E-2,6.8456376E-1,1.4444444E0,-3.417431E-1,-2.5813954E0,-4.4138142E-4,-7.7943564E-3,-1.2214328E-2,1.0202115E-2,1.4040802E-2,3.4588403E-3,-2.2047209E-2,6.533606E-4],"split_indices":[150,13,5,31,99,28,8,0,0,0,0,0,0,0,0],"split_type":[0,0,0,0,0,0,0,0,0,0,0,0,0,0,0],"sum_hessian":[2.453E3,1.509E3,9.44E2,1.24E3,2.69E2,6.63E2,2.81E2,9.8E2,2.6E2,2.43E2,2.6E1,2.67E2,3.96E2,1.5E1,2.66E2],"tree_param":{"num_deleted":"0","num_feature":"243","num_nodes":"15","size_leaf_vector":"1"}},{"base_weights":[4.2397558E-4,-1.9022931E-1,3.590602E-1,-7.812796E-1,-1.437981E-1,5.8592415E-1,4.682975E-2,-8.4885005E-3,-2.6614113E-2,-8.527503E-3,-1.2888748E-3,1.5256397E-2,2.9901545E-3,8.42489E-3,-7.6658296E-4],"categories":[],"categories_nodes":[],"categories_segments":[],"categories_sizes":[],"default_left":[0,0,0,0,0,0,0,0,0,0,0,0,0,0,0],"id":63,"left_children":[1,3,5,7,9,11,13,-1,-1,-1,-1,-1,-1,-1,-1],"loss_changes":[1.6567297E2,4.330277E1,5.9543816E1,2.463372E1,3.603557E1,6.933244E1,1.5834169E1,0E0,0E0,0E0,0E0,0E0,0E0,0E0,0E0],"parents":[2147483647,0,0,1,1,2,2,3,3,4,4,5,5,6,6],"right_children":[2,4,6,8,10,12,14,-1,-1,-1,-1,-1,-1,-1,-1],"split_conditions":[2.554517E-1,-1.0729752E0,5.945946E-2,5.0104383E-2,-1E0,-1.6211542E-17,-4.4793814E-1,-8.4885005E-3,-2.6614113E-2,-8.527503E-3,-1.2888748E-3,1.5256397E-2,2.9901545E-3,8.42489E-3,-7.6658296E-4],"split_indices":[155,89,48,135,161,7,36,0,0,0,0,0,0,0,0],"split_type":[0,0,0,0,0,0,0,0,0,0,0,0,0,0,0],"sum_hessian":[2.421E3,1.581E3,8.4E2,1.14E2,1.467E3,4.86E2,3.54E2,8.9E1,2.5E1,2.1E2,1.257E3,2.57E2,2.29E2,5.8E1,2.96E2],"tree_param":{"num_deleted":"0","num_feature":"243","num_nodes":"15","size_leaf_vector":"1"}},{"base_weights":[1.8390434E-2,-1.4151019E-1,4.27756E-1,-6.419177E-1,-7.688115E-2,1.12612545E-1,7.26323E-1,-2.0491773E-2,-7.4894647E-3,2.0742502E-4,-5.936603E-3,-1.8254546E-2,2.8992796E-3,1.6082658E-2,4.289681E-3],"categories":[],"categories_nodes":[],"categories_segments":[],"categories_sizes":[],"default_left":[0,0,0,0,0,0,0,0,0,0,0,0,0,0,0],"id":64,"left_children":[1,3,5,7,9,11,13,-1,-1,-1,-1,-1,-1,-1,-1],"loss_changes":[1.5846843E2,5.6256077E1,6.3900375E1,2.168605E1,4.0061596E1,2.7478714E1,4.261467E1,0E0,0E0,0E0,0E0,0E0,0E0,0E0,0E0],"parents":[2147483647,0,0,1,1,2,2,3,3,4,4,5,5,6,6],"right_children":[2,4,6,8,10,12,14,-1,-1,-1,-1,-1,-1,-1,-1],"split_conditions":[5.7894737E-1,-9.4545454E-1,-4.4623655E-1,-1.9583334E0,8.6341465E-1,-1.9033281E0,1.0810811E-1,-2.0491773E-2,-7.4894647E-3,2.0742502E-4,-5.936603E-3,-1.8254546E-2,2.8992796E-3,1.6082658E-2,4.289681E-3],"split_indices":[174,27,1,10,115,20,48,0,0,0,0,0,0,0,0],"split_type":[0,0,0,0,0,0,0,0,0,0,0,0,0,0,0],"sum_hessian":[2.419E3,1.74E3,6.79E2,1.98E2,1.542E3,3.31E2,3.48E2,4.3E1,1.55E2,1.178E3,3.64E2,1.6E1,3.15E2,2.2E2,1.28E2],"tree_param":{"num_deleted":"0","num_feature":"243","num_nodes":"15","size_leaf_vector":"1"}},{"base_weights":[-7.849498E-3,-2.0468928E-1,3.5640526E-1,-6.9584596E-1,-1.1989328E-1,4.9797273E-1,-6.535937E-2,-2.3643194E-2,-7.853895E-3,-6.7474665E-3,-3.2193752E-4,1.2378727E-2,2.9411598E-3,-9.130479E-3,1.4270166E-3],"categories":[],"categories_nodes":[],"categories_segments":[],"categories_sizes":[],"default_left":[0,0,0,0,0,0,0,0,0,0,0,0,0,0,0],"id":65,"left_children":[1,3,5,7,9,11,13,-1,-1,-1,-1,-1,-1,-1,-1],"loss_changes":[1.7494884E2,6.5887184E1,5.1142715E1,3.6844963E1,4.008905E1,5.380771E1,1.6555994E1,0E0,0E0,0E0,0E0,0E0,0E0,0E0,0E0],"parents":[2147483647,0,0,1,1,2,2,3,3,4,4,5,5,6,6],"right_children":[2,4,6,8,10,12,14,-1,-1,-1,-1,-1,-1,-1,-1],"split_conditions":[2.554517E-1,-1.2647059E0,3.5555556E-1,3.938585E-1,-8.822751E-1,-7.5361766E-2,-6.666667E-1,-2.3643194E-2,-7.853895E-3,-6.7474665E-3,-3.2193752E-4,1.2378727E-2,2.9411598E-3,-9.130479E-3,1.4270166E-3],"split_indices":[155,11,113,109,136,5,93,0,0,0,0,0,0,0,0],"split_type":[0,0,0,0,0,0,0,0,0,0,0,0,0,0,0],"sum_hessian":[2.438E3,1.583E3,8.55E2,2.32E2,1.351E3,6.4E2,2.15E2,4.9E1,1.83E2,3.4E2,1.011E3,3.47E2,2.93E2,5E1,1.65E2],"tree_param":{"num_deleted":"0","num_feature":"243","num_nodes":"15","size_leaf_vector":"1"}},{"base_weights":[1.3465007E-2,-1.324756E-1,4.2442375E-1,-5.059242E-1,-5.3779922E-2,6.0615706E-1,1.0536215E-1,-9.3444E-3,1.135935E-2,1.3941806E-3,-4.6473728E-3,4.555887E-3,1.7444503E-2,5.1152136E-4,1.4596668E-2],"categories":[],"categories_nodes":[],"categories_segments":[],"categories_sizes":[],"default_left":[0,0,0,0,0,0,0,0,0,0,0,0,0,0,0],"id":66,"left_children":[1,3,5,7,9,11,13,-1,-1,-1,-1,-1,-1,-1,-1],"loss_changes":[1.4807593E2,5.3519173E1,3.745186E1,2.7464699E1,4.9089E1,6.268045E1,1.3824312E1,0E0,0E0,0E0,0E0,0E0,0E0,0E0,0E0],"parents":[2147483647,0,0,1,1,2,2,3,3,4,4,5,5,6,6],"right_children":[2,4,6,8,10,12,14,-1,-1,-1,-1,-1,-1,-1,-1],"split_conditions":[3.9252338E-1,-8.564555E-1,5.4054055E-2,4.4444445E-1,4.059633E-1,-4.0860215E-1,4.978903E-1,-9.3444E-3,1.135935E-2,1.3941806E-3,-4.6473728E-3,4.555887E-3,1.7444503E-2,5.1152136E-4,1.4596668E-2],"split_indices":[155,89,52,18,28,1,127,0,0,0,0,0,0,0,0],"split_type":[0,0,0,0,0,0,0,0,0,0,0,0,0,0,0],"sum_hessian":[2.467E3,1.821E3,6.46E2,3.16E2,1.505E3,4.11E2,2.35E2,2.99E2,1.7E1,9.41E2,5.64E2,2.44E2,1.67E2,2.16E2,1.9E1],"tree_param":{"num_deleted":"0","num_feature":"243","num_nodes":"15","size_leaf_vector":"1"}},{"base_weights":[-7.95997E-3,-1.5143979E-1,4.5928922E-1,9.944804E-2,-2.7766016E-1,6.5161234E-1,1.4074256E-1,-6.3053197E-3,3.6463144E-3,-1.7175501E-2,-3.8728844E-3,1.5774053E-2,3.6492478E-3,4.536893E-3,-1.1621375E-2],"categories":[],"categories_nodes":[],"categories_segments":[],"categories_sizes":[],"default_left":[0,0,0,0,0,0,0,0,0,0,0,0,0,0,0],"id":67,"left_children":[1,3,5,7,9,11,13,-1,-1,-1,-1,-1,-1,-1,-1],"loss_changes":[1.6579448E2,5.994187E1,3.5502617E1,3.89822E1,3.782174E1,4.9457703E1,2.647987E1,0E0,0E0,0E0,0E0,0E0,0E0,0E0,0E0],"parents":[2147483647,0,0,1,1,2,2,3,3,4,4,5,5,6,6],"right_children":[2,4,6,8,10,12,14,-1,-1,-1,-1,-1,-1,-1,-1],"split_conditions":[4.4859812E-1,-2.938912E-1,-6.33275E-2,-8.822751E-1,-8.3928573E-1,1.0810811E-1,-3.99983E-1,-6.3053197E-3,3.6463144E-3,-1.7175501E-2,-3.8728844E-3,1.5774053E-2,3.6492478E-3,4.536893E-3,-1.1621375E-2],"split_indices":[155,5,5,136,91,52,64,0,0,0,0,0,0,0,0],"split_type":[0,0,0,0,0,0,0,0,0,0,0,0,0,0,0],"sum_hessian":[2.471E3,1.891E3,5.8E2,6.33E2,1.258E3,3.61E2,2.19E2,1.29E2,5.04E2,5.8E1,1.2E3,2.05E2,1.56E2,1.89E2,3E1],"tree_param":{"num_deleted":"0","num_feature":"243","num_nodes":"15","size_leaf_vector":"1"}},{"base_weights":[1.00995945E-2,-1.626266E-1,3.9635265E-1,-7.048426E-1,-1.0437692E-1,-1.4822106E-1,6.0230356E-1,2.3654613E-3,-1.6110556E-2,-7.3113884E-3,-5.7215913E-4,-1.4741531E-2,-1.9479051E-4,1.8876747E-3,1.2038846E-2],"categories":[],"categories_nodes":[],"categories_segments":[],"categories_sizes":[],"default_left":[0,0,0,0,0,0,0,0,0,0,0,0,0,0,0],"id":68,"left_children":[1,3,5,7,9,11,13,-1,-1,-1,-1,-1,-1,-1,-1],"loss_changes":[1.6538675E2,5.4029667E1,8.600035E1,4.101274E1,3.7064964E1,2.1873112E1,3.7898453E1,0E0,0E0,0E0,0E0,0E0,0E0,0E0,0E0],"parents":[2147483647,0,0,1,1,2,2,3,3,4,4,5,5,6,6],"right_children":[2,4,6,8,10,12,14,-1,-1,-1,-1,-1,-1,-1,-1],"split_conditions":[3.6951983E-1,-1.2647059E0,-5.3846157E-1,-1.1677853E0,-1.0257143E0,-1.7073171E0,-1.8171105E-1,2.3654613E-3,-1.6110556E-2,-7.3113884E-3,-5.7215913E-4,-1.4741531E-2,-1.9479051E-4,1.8876747E-3,1.2038846E-2],"split_indices":[135,11,2,31,133,15,4,0,0,0,0,0,0,0,0],"split_type":[0,0,0,0,0,0,0,0,0,0,0,0,0,0,0],"sum_hessian":[2.477E3,1.712E3,7.65E2,1.65E2,1.547E3,2.1E2,5.55E2,4.2E1,1.23E2,2.56E2,1.291E3,3.1E1,1.79E2,1.25E2,4.3E2],"tree_param":{"num_deleted":"0","num_feature":"243","num_nodes":"15","size_leaf_vector":"1"}},{"base_weights":[6.180786E-3,-8.727798E-2,5.553649E-1,-5.735244E-1,-2.3361672E-2,4.7515315E-1,2.7483441E-2,-1.9738194E-2,-4.4223247E-3,-3.7395288E-3,2.2890782E-3,4.208516E-4,1.0182676E-2],"categories":[],"categories_nodes":[],"categories_segments":[],"categories_sizes":[],"default_left":[0,0,0,0,0,0,0,0,0,0,0,0,0],"id":69,"left_children":[1,3,5,7,9,11,-1,-1,-1,-1,-1,-1,-1],"loss_changes":[1.2564337E2,6.500403E1,3.176635E1,4.675141E1,6.3199543E1,2.2972412E1,0E0,0E0,0E0,0E0,0E0,0E0,0E0],"parents":[2147483647,0,0,1,1,2,2,3,3,4,4,5,5],"right_children":[2,4,6,8,10,12,-1,-1,-1,-1,-1,-1,-1],"split_conditions":[7.7575755E-1,-1.2647059E0,1.3542655E0,-9.295533E-1,-2.9100528E-1,-6.457327E-1,2.7483441E-2,-1.9738194E-2,-4.4223247E-3,-3.7395288E-3,2.2890782E-3,4.208516E-4,1.0182676E-2],"split_indices":[150,11,156,81,136,117,0,0,0,0,0,0,0],"split_type":[0,0,0,0,0,0,0,0,0,0,0,0,0],"sum_hessian":[2.446E3,2.091E3,3.55E2,2.42E2,1.849E3,3.33E2,2.2E1,7.6E1,1.66E2,8.18E2,1.031E3,8.5E1,2.48E2],"tree_param":{"num_deleted":"0","num_feature":"243","num_nodes":"13","size_leaf_vector":"1"}},{"base_weights":[1.2370399E-3,-1.7420304E-1,3.0962643E-1,-6.278732E-1,-8.935033E-2,-4.2957842E-1,3.9372236E-1,1.8519243E-3,-1.3611183E-2,-3.8043368E-3,2.7779688E-3,-2.077899E-2,-3.3192215E-3,-6.978969E-3,7.5237555E-3],"categories":[],"categories_nodes":[],"categories_segments":[],"categories_sizes":[],"default_left":[0,0,0,0,0,0,0,0,0,0,0,0,0,0,0],"id":70,"left_children":[1,3,5,7,9,11,13,-1,-1,-1,-1,-1,-1,-1,-1],"loss_changes":[1.3369046E2,6.0573753E1,5.5868195E1,3.913183E1,5.0401665E1,1.7368603E1,4.703785E1,0E0,0E0,0E0,0E0,0E0,0E0,0E0,0E0],"parents":[2147483647,0,0,1,1,2,2,3,3,4,4,5,5,6,6],"right_children":[2,4,6,8,10,12,14,-1,-1,-1,-1,-1,-1,-1,-1],"split_conditions":[2.606635E-1,-8.488372E-1,-1.3159145E0,-4.5887446E-1,-1.14285715E-1,-2.1470587E0,-5.555556E-1,1.8519243E-3,-1.3611183E-2,-3.8043368E-3,2.7779688E-3,-2.077899E-2,-3.3192215E-3,-6.978969E-3,7.5237555E-3],"split_indices":[156,8,16,70,133,11,80,0,0,0,0,0,0,0,0],"split_type":[0,0,0,0,0,0,0,0,0,0,0,0,0,0,0],"sum_hessian":[2.469E3,1.574E3,8.95E2,2.47E2,1.327E3,9.1E1,8.04E2,5.5E1,1.92E2,8.52E2,4.75E2,1.8E1,7.3E1,6.3E1,7.41E2],"tree_param":{"num_deleted":"0","num_feature":"243","num_nodes":"15","size_leaf_vector":"1"}},{"base_weights":[-7.224551E-3,-1.9835539E-1,2.937039E-1,-7.629146E-1,-1.2620729E-1,4.08692E-1,-8.285857E-2,-9.7594E-3,-3.2538265E-2,-4.353579E-3,1.2799023E-3,1.0112446E-2,1.6598357E-3,-2.3897521E-2,-2.8737803E-4],"categories":[],"categories_nodes":[],"categories_segments":[],"categories_sizes":[],"default_left":[0,0,0,0,0,0,0,0,0,0,0,0,0,0,0],"id":71,"left_children":[1,3,5,7,9,11,13,-1,-1,-1,-1,-1,-1,-1,-1],"loss_changes":[1.4126178E2,6.1082996E1,4.1342247E1,3.2794098E1,3.8986046E1,4.8149864E1,2.0278381E1,0E0,0E0,0E0,0E0,0E0,0E0,0E0,0E0],"parents":[2147483647,0,0,1,1,2,2,3,3,4,4,5,5,6,6],"right_children":[2,4,6,8,10,12,14,-1,-1,-1,-1,-1,-1,-1,-1],"split_conditions":[2.4242425E-1,-1.2941177E0,5.837838E-1,-3.0339321E-1,-1.9973545E-1,1.13513514E-1,-2.9444444E0,-9.7594E-3,-3.2538265E-2,-4.353579E-3,1.2799023E-3,1.0112446E-2,1.6598357E-3,-2.3897521E-2,-2.8737803E-4],"split_indices":[150,11,97,32,136,52,18,0,0,0,0,0,0,0,0],"split_type":[0,0,0,0,0,0,0,0,0,0,0,0,0,0,0],"sum_hessian":[2.454E3,1.501E3,9.53E2,1.69E2,1.332E3,7.3E2,2.23E2,1.51E2,1.8E1,7.86E2,5.46E2,4.28E2,3.02E2,9E0,2.14E2],"tree_param":{"num_deleted":"0","num_feature":"243","num_nodes":"15","size_leaf_vector":"1"}},{"base_weights":[3.1203069E-3,-2.123329E-1,2.720408E-1,-1.2228904E0,-1.7386422E-1,1.8759848E-1,7.094132E-1,-8.497895E-3,-2.53896E-2,-2.0545823E-3,-1.08623775E-2,5.4439753E-3,-5.483211E-4,1.8052973E-2,7.978719E-3],"categories":[],"categories_nodes":[],"categories_segments":[],"categories_sizes":[],"default_left":[0,0,0,0,0,0,0,0,0,0,0,0,0,0,0],"id":72,"left_children":[1,3,5,7,9,11,13,-1,-1,-1,-1,-1,-1,-1,-1],"loss_changes":[1.4276346E2,5.296815E1,4.0345192E1,1.1189667E1,3.074062E1,3.0234455E1,1.4996574E1,0E0,0E0,0E0,0E0,0E0,0E0,0E0,0E0],"parents":[2147483647,0,0,1,1,2,2,3,3,4,4,5,5,6,6],"right_children":[2,4,6,8,10,12,14,-1,-1,-1,-1,-1,-1,-1,-1],"split_conditions":[9.968847E-2,-2.1666667E0,1.1556671E0,-8.5639775E-1,2.2985473E0,-8.538809E-2,-4.6293327E-1,-8.497895E-3,-2.53896E-2,-2.0545823E-3,-1.08623775E-2,5.4439753E-3,-5.483211E-4,1.8052973E-2,7.978719E-3],"split_indices":[155,10,153,40,9,7,37,0,0,0,0,0,0,0,0],"split_type":[0,0,0,0,0,0,0,0,0,0,0,0,0,0,0],"sum_hessian":[2.462E3,1.367E3,1.095E3,4.9E1,1.318E3,9.19E2,1.76E2,1.7E1,3.2E1,1.205E3,1.13E2,5.5E2,3.69E2,6E1,1.16E2],"tree_param":{"num_deleted":"0","num_feature":"243","num_nodes":"15","size_leaf_vector":"1"}},{"base_weights":[9.218642E-3,-1.7912742E-1,2.9056564E-1,-7.0332885E-1,-1.1320972E-1,1.8609746E-1,7.7538216E-1,7.4734405E-4,-1.4628835E-2,-6.986225E-3,-1.224638E-4,-2.5916968E-3,5.116803E-3,1.7119775E-2,7.1123946E-3],"categories":[],"categories_nodes":[],"categories_segments":[],"categories_sizes":[],"default_left":[0,0,0,0,0,0,0,0,0,0,0,0,0,0,0],"id":73,"left_children":[1,3,5,7,9,11,13,-1,-1,-1,-1,-1,-1,-1,-1],"loss_changes":[1.2844826E2,5.0093018E1,4.9085464E1,2.425486E1,4.335984E1,3.5990456E1,1.5804153E1,0E0,0E0,0E0,0E0,0E0,0E0,0E0,0E0],"parents":[2147483647,0,0,1,1,2,2,3,3,4,4,5,5,6,6],"right_children":[2,4,6,8,10,12,14,-1,-1,-1,-1,-1,-1,-1,-1],"split_conditions":[2.4242425E-1,-1.3235294E0,1.1672035E0,-5.340976E-1,-8.817143E-1,-6.666667E-1,-1.441079E-1,7.4734405E-4,-1.4628835E-2,-6.986225E-3,-1.224638E-4,-2.5916968E-3,5.116803E-3,1.7119775E-2,7.1123946E-3],"split_indices":[150,11,153,69,133,18,5,0,0,0,0,0,0,0,0],"split_type":[0,0,0,0,0,0,0,0,0,0,0,0,0,0,0],"sum_hessian":[2.422E3,1.451E3,9.71E2,1.61E2,1.29E3,8E2,1.71E2,3.4E1,1.27E2,3.21E2,9.69E2,2.18E2,5.82E2,9.2E1,7.9E1],"tree_param":{"num_deleted":"0","num_feature":"243","num_nodes":"15","size_leaf_vector":"1"}},{"base_weights":[7.984739E-4,-1.9230813E-1,2.919309E-1,-9.6615106E-1,-1.4394377E-1,-1.3693936E-1,3.836982E-1,-2.0134218E-2,-3.0618787E-3,-3.1709686E-4,-5.8117174E-3,-5.4252488E-3,6.3102855E-3,8.659348E-3,1.6152648E-3],"categories":[],"categories_nodes":[],"categories_segments":[],"categories_sizes":[],"default_left":[0,0,0,0,0,0,0,0,0,0,0,0,0,0,0],"id":74,"left_children":[1,3,5,7,9,11,13,-1,-1,-1,-1,-1,-1,-1,-1],"loss_changes":[1.3858122E2,5.5326866E1,3.8739746E1,1.845124E1,3.727155E1,1.8251379E1,3.461132E1,0E0,0E0,0E0,0E0,0E0,0E0,0E0,0E0],"parents":[2147483647,0,0,1,1,2,2,3,3,4,4,5,5,6,6],"right_children":[2,4,6,8,10,12,14,-1,-1,-1,-1,-1,-1,-1,-1],"split_conditions":[2.4242425E-1,-1.1090909E0,0E0,-4.7640967E-1,4.406103E-1,3.75E-1,7.027027E-2,-2.0134218E-2,-3.0618787E-3,-3.1709686E-4,-5.8117174E-3,-5.4252488E-3,6.3102855E-3,8.659348E-3,1.6152648E-3],"split_indices":[150,27,92,85,78,10,52,0,0,0,0,0,0,0,0],"split_type":[0,0,0,0,0,0,0,0,0,0,0,0,0,0,0],"sum_hessian":[2.463E3,1.481E3,9.82E2,8.6E1,1.395E3,1.73E2,8.09E2,6.3E1,2.3E1,8.84E2,5.11E2,1.26E2,4.7E1,5.28E2,2.81E2],"tree_param":{"num_deleted":"0","num_feature":"243","num_nodes":"15","size_leaf_vector":"1"}},{"base_weights":[4.004165E-3,-1.3595346E-1,3.5349146E-1,-7.258837E-2,-6.032266E-1,6.529214E-1,1.9522578E-2,-4.280499E-3,8.7326946E-4,-2.8291255E-2,-8.08464E-3,1.1383782E-2,-1.2236863E-2,-2.1766096E-2,1.3602673E-3],"categories":[],"categories_nodes":[],"categories_segments":[],"categories_sizes":[],"default_left":[0,0,0,0,0,0,0,0,0,0,0,0,0,0,0],"id":75,"left_children":[1,3,5,7,9,11,13,-1,-1,-1,-1,-1,-1,-1,-1],"loss_changes":[1.19396774E2,5.1564358E1,6.978745E1,3.723001E1,2.3921707E1,2.6223602E1,2.9170774E1,0E0,0E0,0E0,0E0,0E0,0E0,0E0,0E0],"parents":[2147483647,0,0,1,1,2,2,3,3,4,4,5,5,6,6],"right_children":[2,4,6,8,10,12,14,-1,-1,-1,-1,-1,-1,-1,-1],"split_conditions":[4.359515E-1,9.700457E-1,-1.6211542E-17,-2.5287613E-1,-2.2441862E0,3.2682927E0,-3.1666667E0,-4.280499E-3,8.7326946E-4,-2.8291255E-2,-8.08464E-3,1.1383782E-2,-1.2236863E-2,-2.1766096E-2,1.3602673E-3],"split_indices":[138,25,7,157,8,50,18,0,0,0,0,0,0,0,0],"split_type":[0,0,0,0,0,0,0,0,0,0,0,0,0,0,0],"sum_hessian":[2.439E3,1.742E3,6.97E2,1.535E3,2.07E2,3.67E2,3.3E2,6.1E2,9.25E2,1.6E1,1.91E2,3.55E2,1.2E1,1.4E1,3.16E2],"tree_param":{"num_deleted":"0","num_feature":"243","num_nodes":"15","size_leaf_vector":"1"}},{"base_weights":[-4.889562E-3,-1.95607E-1,2.2934474E-1,-7.6733106E-1,-1.1152081E-1,1.4535044E-1,6.7532974E-1,-2.2522895E-2,-7.4566747E-3,1.2303844E-4,-5.2568302E-3,-2.2366487E-3,3.8013654E-3,2.2013381E-2,8.638044E-3],"categories":[],"categories_nodes":[],"categories_segments":[],"categories_sizes":[],"default_left":[0,0,0,0,0,0,0,0,0,0,0,0,0,0,0],"id":76,"left_children":[1,3,5,7,9,11,13,-1,-1,-1,-1,-1,-1,-1,-1],"loss_changes":[1.08197136E2,6.409335E1,4.0621075E1,3.2062332E1,2.9543812E1,2.3195618E1,1.59921875E1,0E0,0E0,0E0,0E0,0E0,0E0,0E0,0E0],"parents":[2147483647,0,0,1,1,2,2,3,3,4,4,5,5,6,6],"right_children":[2,4,6,8,10,12,14,-1,-1,-1,-1,-1,-1,-1,-1],"split_conditions":[9.968847E-2,-1.2647059E0,1.1556671E0,5.138122E-1,4.357798E-1,0E0,-1.8928572E0,-2.2522895E-2,-7.4566747E-3,1.2303844E-4,-5.2568302E-3,-2.2366487E-3,3.8013654E-3,2.2013381E-2,8.638044E-3],"split_indices":[155,11,153,105,28,92,46,0,0,0,0,0,0,0,0],"split_type":[0,0,0,0,0,0,0,0,0,0,0,0,0,0,0],"sum_hessian":[2.42E3,1.334E3,1.086E3,1.7E2,1.164E3,9.15E2,1.71E2,5.5E1,1.15E2,7.47E2,4.17E2,2.19E2,6.96E2,2.8E1,1.43E2],"tree_param":{"num_deleted":"0","num_feature":"243","num_nodes":"15","size_leaf_vector":"1"}},{"base_weights":[-7.4127796E-3,-1.4097764E-1,3.4524938E-1,-5.628827E-2,-6.130139E-1,-1.5106085E-1,5.064073E-1,-6.6416706E-3,1.5129597E-4,-1.805869E-2,-5.3937174E-3,-2.3401825E-2,-1.9646424E-4,1.0715718E-2,3.0475552E-3],"categories":[],"categories_nodes":[],"categories_segments":[],"categories_sizes":[],"default_left":[0,0,0,0,0,0,0,0,0,0,0,0,0,0,0],"id":77,"left_children":[1,3,5,7,9,11,13,-1,-1,-1,-1,-1,-1,-1,-1],"loss_changes":[1.14886444E2,7.0683846E1,5.3666016E1,3.4832165E1,3.7416885E1,2.962606E1,2.482228E1,0E0,0E0,0E0,0E0,0E0,0E0,0E0,0E0],"parents":[2147483647,0,0,1,1,2,2,3,3,4,4,5,5,6,6],"right_children":[2,4,6,8,10,12,14,-1,-1,-1,-1,-1,-1,-1,-1],"split_conditions":[5.7894737E-1,1.2407196E0,-1.2E0,-6.9180346E-1,3.9285713E-1,0E0,-2.178899E-1,-6.6416706E-3,1.5129597E-4,-1.805869E-2,-5.3937174E-3,-2.3401825E-2,-1.9646424E-4,1.0715718E-2,3.0475552E-3],"split_indices":[174,13,14,4,104,92,28,0,0,0,0,0,0,0,0],"split_type":[0,0,0,0,0,0,0,0,0,0,0,0,0,0,0],"sum_hessian":[2.437E3,1.768E3,6.69E2,1.5E3,2.68E2,1.64E2,5.05E2,2.34E2,1.266E3,9.5E1,1.73E2,1.5E1,1.49E2,3.39E2,1.66E2],"tree_param":{"num_deleted":"0","num_feature":"243","num_nodes":"15","size_leaf_vector":"1"}},{"base_weights":[-7.105194E-3,-1.6084892E-1,2.7350348E-1,-5.633389E-1,-7.008279E-2,-1.1861272E-1,3.9952934E-1,-1.7227875E-2,-5.198975E-3,2.0361897E-3,-4.9125766E-3,-2.0632414E-2,-3.6098878E-4,1.0349536E-2,3.5290248E-3],"categories":[],"categories_nodes":[],"categories_segments":[],"categories_sizes":[],"default_left":[0,0,0,0,0,0,0,0,0,0,0,0,0,0,0],"id":78,"left_children":[1,3,5,7,9,11,13,-1,-1,-1,-1,-1,-1,-1,-1],"loss_changes":[1.03843216E2,5.6768497E1,4.2150486E1,3.4323997E1,5.797833E1,2.3108036E1,2.7896278E1,0E0,0E0,0E0,0E0,0E0,0E0,0E0,0E0],"parents":[2147483647,0,0,1,1,2,2,3,3,4,4,5,5,6,6],"right_children":[2,4,6,8,10,12,14,-1,-1,-1,-1,-1,-1,-1,-1],"split_conditions":[2.5947866E-1,-6.764706E-1,0E0,-9.19244E-1,4.0366971E-1,-1.939394E0,-2.1738788E-1,-1.7227875E-2,-5.198975E-3,2.0361897E-3,-4.9125766E-3,-2.0632414E-2,-3.6098878E-4,1.0349536E-2,3.5290248E-3],"split_indices":[156,11,92,81,28,12,5,0,0,0,0,0,0,0,0],"split_type":[0,0,0,0,0,0,0,0,0,0,0,0,0,0,0],"sum_hessian":[2.405E3,1.554E3,8.51E2,2.85E2,1.269E3,2.07E2,6.44E2,9.2E1,1.93E2,6.9E2,5.79E2,1.5E1,1.92E2,2.77E2,3.67E2],"tree_param":{"num_deleted":"0","num_feature":"243","num_nodes":"15","size_leaf_vector":"1"}},{"base_weights":[-4.4154376E-3,-1.8307692E-1,2.7658346E-1,-9.902915E-1,-1.3876407E-1,1.8108219E-1,7.535516E-1,-4.274773E-3,-2.3721071E-2,-3.3468622E-4,-5.519104E-3,-2.213827E-3,4.876525E-3,6.8761236E-3,2.0231087E-2],"categories":[],"categories_nodes":[],"categories_segments":[],"categories_sizes":[],"default_left":[0,0,0,0,0,0,0,0,0,0,0,0,0,0,0],"id":79,"left_children":[1,3,5,7,9,11,13,-1,-1,-1,-1,-1,-1,-1,-1],"loss_changes":[1.23350876E2,5.358909E1,4.3364822E1,2.6448814E1,3.396169E1,3.0388844E1,2.5377747E1,0E0,0E0,0E0,0E0,0E0,0E0,0E0,0E0],"parents":[2147483647,0,0,1,1,2,2,3,3,4,4,5,5,6,6],"right_children":[2,4,6,8,10,12,14,-1,-1,-1,-1,-1,-1,-1,-1],"split_conditions":[2.4242425E-1,-6.716506E-1,1.1672035E0,-6.0473955E-1,4.5783925E-1,-6.666667E-1,-3.7634408E-1,-4.274773E-3,-2.3721071E-2,-3.3468622E-4,-5.519104E-3,-2.213827E-3,4.876525E-3,6.8761236E-3,2.0231087E-2],"split_indices":[150,90,153,154,78,18,1,0,0,0,0,0,0,0,0],"split_type":[0,0,0,0,0,0,0,0,0,0,0,0,0,0,0],"sum_hessian":[2.455E3,1.501E3,9.54E2,7.7E1,1.424E3,7.96E2,1.58E2,3.1E1,4.6E1,8.99E2,5.25E2,2.18E2,5.78E2,9.6E1,6.2E1],"tree_param":{"num_deleted":"0","num_feature":"243","num_nodes":"15","size_leaf_vector":"1"}},{"base_weights":[-7.862966E-3,-9.250712E-2,5.142995E-1,1.2773229E-1,-2.2050644E-1,7.7549833E-1,2.324453E-1,-9.610232E-5,7.7037867E-3,-1.54364E-2,-2.9260253E-3,3.8167778E-3,1.6652081E-2,-1.0481221E-2,5.377801E-3],"categories":[],"categories_nodes":[],"categories_segments":[],"categories_sizes":[],"default_left":[0,0,0,0,0,0,0,0,0,0,0,0,0,0,0],"id":80,"left_children":[1,3,5,7,9,11,13,-1,-1,-1,-1,-1,-1,-1,-1],"loss_changes":[1.0709513E2,5.8805344E1,2.47033E1,3.5646446E1,3.8393463E1,2.358155E1,1.4551446E1,0E0,0E0,0E0,0E0,0E0,0E0,0E0,0E0],"parents":[2147483647,0,0,1,1,2,2,3,3,4,4,5,5,6,6],"right_children":[2,4,6,8,10,12,14,-1,-1,-1,-1,-1,-1,-1,-1],"split_conditions":[7.3208725E-1,-1.6953103E-1,4.446581E-2,-2.5E-1,-2.0581396E0,-6.727273E-1,-2.73878E-1,-9.610232E-5,7.7037867E-3,-1.54364E-2,-2.9260253E-3,